{"learner":{"attributes":{"best_iteration":"31","best_ntree_limit":"32"},"feature_names":["f0","f1","f2","f3","f4"],"feature_types":["float","float","float","float","float"],"gradient_booster":{"model":{"gbtree_model_param":{"num_trees":"32","size_leaf_vector":"0"},"tree_info":[0,0,0,0,0,0,0,0,0,0,0,0,0,0,0,0,0,0,0,0,0,0,0,0,0,0,0,0,0,0,0,0],"trees":[{"base_weights":[-1.8052384E0,1.7628965E0,-1.898304E0,-7.8918916E-1,1.8108991E0,-1.9906876E0,-1.5546483E0,-1.4927536E0,-9.187279E-2,1.832327E0,6.666667E-1,-5.4545456E-1,-1.9909075E0,-1.4751651E0,-1.6829271E0,-1.7948718E0,-1.0645162E0,-5.1968503E-1,2.5E-1,1.1321586E0,1.8548399E0,1.0029674E0,1.2206573E-1,2.0689656E-1,-7.118644E-1,-1.9930099E0,-1.8485537E0,-1.4491332E0,-1.546634E0,-1.629242E0,-1.7149097E0,-3.0769232E-1,-1.2156863E0,-7.4509805E-1,3.448276E-1,6.2857145E-1,-4.255319E-2,7.654321E-1,1.3265306E0,1.8748022E0,1.593423E0,1.2585366E0,5.882353E-1,-1.8487395E-1,4.8979592E-1,-9.0909094E-1,7.2727275E-1,-2.2222222E-1,-1.1864407E0,-1.9954348E0,-1.9625522E0,-1.8778738E0,-1.7987573E0,-1.6457565E0,-1.4345162E0,-1.5469548E0,1.8181819E-1,-1.629408E0,-4E-1,-1.7064725E0,-1.8394723E0,-1E0,-0E0,-8E-1,-1.3157895E0,1.8181819E-1,-8.210526E-1,1E0,-3.529412E-1,-0E0,9.5652175E-1,-2.278481E-1,7.368421E-1,1.2112676E0,6.303502E-1,1.7075224E0,1.8877321E0,1.65337E0,1.4254937E0,3.3333334E-1,1.2893401E0,7.522936E-1,-6.451613E-2,-8.5714287E-1,2.1052632E-2,1.4925373E-1,1.0857143E0,1.25E0,-4E-1,-4.4444445E-1,7.692308E-1,-1.3076923E0,-1.8181819E-1,-1.4545455E0,-1.9954973E0,-5E-1,-1.9626106E0,-5E-1,-1.878301E0,-5E-1,-1.7993982E0,-1.7637898E0,-1.6146091E0,-1.4351906E0,-1E0,-1.5664877E0,-1.5272673E0,-1.6014199E0,-1.6435609E0,-1.6975635E0,-1.7390101E0,-3.529412E-1,6.666667E-1,-1.4285715E0,-2E-1,2.2222222E-1,-8.888889E-1,2.2222222E-1,1.2727273E0,1.8181819E-1,-8E-1,-4E-1,6.666667E-1,1.1724138E0,4.7619048E-1,2.5E-1,-8.5714287E-1,-0E0,9.3333334E-1,1.2786885E0,5.714286E-1,4.318182E-1,1.0117648E0,7.368421E-1,1.4920635E0,5E-1,-0E0,1.6444445E0,1.1538461E0,-0E0,8.6315787E-1,-8.5714287E-1,4.7619048E-1,-0E0,-1.3333334E0,5.185185E-1,-1.6666667E-1,5E-1,-3.2258064E-1,-1.8181819E-1,1.4285715E0,-1.1111111E-1,-9.0909094E-1,1.1111112E0,-0E0,-1.4736842E0,-6.666667E-1,-3.529412E-1,-1.5876288E0,-4E-1,-1.7680782E0,-5.263158E-1,-1.6169649E0,-1.4944038E0,-1.4309802E0,-1.308642E0,-6.9473684E-1,-1.5676763E0,-9.8039216E-1,-1.4488748E0,-1.5382336E0,-1.6022996E0,5E-1,-1.6983875E0,-9.830508E-1,-1.7392659E0,-5E-1,-0E0,-6.666667E-1,-5.714286E-1,4E-1,-1.3E0,-5.185185E-1,2.2222222E-1,-6.666667E-1,1E0,-0E0,7.5E-1,-2.2222222E-1,5.882353E-1,-4.4444445E-1,-9.677419E-1,-0E0,-0E0,1.2727273E0,-0E0,8E-1,-5.185185E-1,5.882353E-1,1.2222222E0,-1.1764706E-1,2.2222222E-1,8.8372093E-1,1.7777778E0,1.416268E0,6.666667E-1,1.7837838E0,1.2566372E0,8.0851066E-1,-4E-1,3.3333334E-1,1.2380953E0,5.263158E-1,-1.1111112E0,-2.2222222E-1,-1.8181819E-1,8.5714287E-1,4E-1,-5E-1,-2.5E-1,1.2E0,1.1320755E-1,-7.826087E-1,-1.8181819E-1,6.666667E-1,-7.826087E-1,6.666667E-1,-6E-1,4E-1,-0E0,-1.25E0,-1E0,-0E0,5E-1,-7.692308E-1,-1.6705883E0,-7.5E-1,-1.1428572E0,6.666667E-1,-1.5384616E-1,-1.4961147E0,-1.4202584E0,-1.4550796E0,-0E0,-1.4133333E0,-5.2380955E-1,-1.4666667E0,-1.5438713E0,-1.6035806E0,-3.1578946E-1,-1.2222222E0,-1.4520981E0,-1.8181819E-1,-1.5440427E0,-1.4207525E0,-1.137255E0,-0E0],"categories":[],"categories_nodes":[],"categories_segments":[],"categories_sizes":[],"default_left":[true,true,true,true,true,true,true,true,true,true,true,true,true,true,true,false,true,true,true,true,true,true,true,true,true,true,true,true,true,true,true,true,true,true,true,true,true,true,false,true,true,true,true,true,true,false,true,true,true,true,true,true,true,true,true,true,false,true,false,true,false,false,true,true,false,false,true,true,true,true,true,true,true,true,true,false,false,false,true,true,true,true,true,true,true,true,true,false,false,true,true,true,false,true,false,false,false,false,false,false,false,true,true,true,true,true,true,true,false,true,true,true,false,false,true,false,true,false,false,false,false,true,true,false,true,true,true,false,true,false,true,true,true,true,true,false,false,true,true,true,true,true,true,true,false,true,true,true,true,false,false,true,true,false,false,false,true,true,true,false,false,true,false,true,true,true,true,true,true,true,true,false,false,false,true,false,false,false,false,false,false,false,false,false,false,false,false,false,false,false,false,false,false,false,false,false,false,false,false,false,false,false,false,false,false,false,false,false,false,false,false,false,false,false,false,false,false,false,false,false,false,false,false,false,false,false,false,false,false,false,false,false,false,false,false,false,false,false,false,false,false,false,false,false,false,false,false,false,false,false,false,false,false,false,false,false,false],"id":0,"left_children":[1,3,5,7,9,11,13,15,17,19,21,23,25,27,29,-1,31,33,35,37,39,41,43,45,47,49,51,53,55,57,59,61,63,65,67,69,71,73,-1,75,77,79,81,83,85,-1,87,89,91,93,95,97,99,101,103,105,-1,107,-1,109,-1,-1,111,113,-1,-1,115,117,119,121,123,125,127,129,131,-1,-1,-1,133,135,137,139,141,143,145,147,149,-1,-1,151,153,155,-1,157,-1,-1,-1,-1,-1,-1,-1,159,161,163,165,167,169,171,-1,173,175,177,-1,-1,179,-1,181,-1,-1,-1,-1,183,185,-1,187,189,191,-1,193,-1,195,197,199,201,203,-1,-1,205,207,209,211,213,215,217,-1,219,221,223,225,-1,-1,227,229,-1,-1,-1,231,233,235,-1,-1,237,-1,239,241,243,245,247,249,251,253,-1,-1,-1,255,-1,-1,-1,-1,-1,-1,-1,-1,-1,-1,-1,-1,-1,-1,-1,-1,-1,-1,-1,-1,-1,-1,-1,-1,-1,-1,-1,-1,-1,-1,-1,-1,-1,-1,-1,-1,-1,-1,-1,-1,-1,-1,-1,-1,-1,-1,-1,-1,-1,-1,-1,-1,-1,-1,-1,-1,-1,-1,-1,-1,-1,-1,-1,-1,-1,-1,-1,-1,-1,-1,-1,-1,-1,-1,-1,-1,-1,-1,-1,-1,-1,-1],"loss_changes":[9.7683375E4,9.175039E2,9.098375E3,6.793457E1,1.7874219E2,7.075E1,6.168594E2,7.016449E0,1.0477631E1,1.1146289E2,2.4877499E1,4.6231337E0,6.39375E1,6.7546875E1,3.709375E1,0E0,3.1726265E0,6.444129E0,4.456839E0,1.5165497E1,3.3429688E1,8.189583E0,6.10093E0,4.8714733E0,6.591338E0,1.25625E1,1.4423828E0,7.671094E1,5.826172E0,1.1230469E0,1.2140625E1,1.3846154E0,8.460999E-3,1.9445734E0,3.667343E0,3.6074533E0,3.5617106E0,4.114643E0,0E0,1.0787109E1,2.6942139E0,1.0308151E0,3.6895704E0,4.1365767E0,4.809869E0,0E0,3.740909E0,3.811966E0,1.5589676E0,4.0625E0,4.2578125E-1,2.709961E-1,1.3842773E-1,4.1259766E0,6.0742188E0,1.453125E0,0E0,8.125E-1,0E0,1E0,0E0,0E0,1.5294118E0,2.5428567E0,0E0,0E0,1.8783627E0,5.6565666E-1,1.1614974E0,2.1333334E0,6.3425446E-1,6.1532545E0,6.8771935E-1,3.5028458E-2,4.428303E0,0E0,0E0,0E0,5.2842712E0,1.6666666E-1,4.7220612E-1,2.2727184E0,3.7296467E0,2.857143E0,2.3042884E0,2.9333172E0,4.062338E0,0E0,0E0,1.9898989E0,8.547008E-1,4.0080833E-1,0E0,3.471302E0,0E0,0E0,0E0,0E0,0E0,0E0,0E0,1.5458984E0,3.0270996E0,4.234375E0,3.14217E0,1.9326172E0,2.086914E0,6.2700195E0,0E0,4.654297E0,4.6875E-2,4.705882E-1,0E0,0E0,1.3428571E0,0E0,2.7518501E0,0E0,0E0,0E0,0E0,9.777778E-1,6.666666E-1,0E0,1.170635E0,3.0800653E0,8.294935E-1,0E0,1.1878788E0,0E0,4.5714283E-1,6.845564E0,5.194771E0,8.807287E-1,2.1081543E-1,0E0,0E0,3.43544E-1,3.6839294E-1,7.3333335E-1,2.3478699E0,3.174603E-1,1.4718614E0,9E-1,0E0,3.8351853E0,3.1915505E0,1.2575758E0,4.0486207E0,0E0,0E0,2.4888887E0,1.7045455E0,0E0,0E0,0E0,1E0,1.8936651E0,4.3217087E-1,0E0,0E0,4.255639E0,0E0,3.6120605E0,4.1132812E0,2.7743225E0,2.3654137E0,1.7714844E0,1.6632271E0,2.3222656E0,7.998047E-1,0E0,0E0,0E0,2.235959E0,0E0,0E0,0E0,0E0,0E0,0E0,0E0,0E0,0E0,0E0,0E0,0E0,0E0,0E0,0E0,0E0,0E0,0E0,0E0,0E0,0E0,0E0,0E0,0E0,0E0,0E0,0E0,0E0,0E0,0E0,0E0,0E0,0E0,0E0,0E0,0E0,0E0,0E0,0E0,0E0,0E0,0E0,0E0,0E0,0E0,0E0,0E0,0E0,0E0,0E0,0E0,0E0,0E0,0E0,0E0,0E0,0E0,0E0,0E0,0E0,0E0,0E0,0E0,0E0,0E0,0E0,0E0,0E0,0E0,0E0,0E0,0E0,0E0,0E0,0E0,0E0,0E0,0E0,0E0,0E0,0E0,0E0],"parents":[2147483647,0,0,1,1,2,2,3,3,4,4,5,5,6,6,7,7,8,8,9,9,10,10,11,11,12,12,13,13,14,14,16,16,17,17,18,18,19,19,20,20,21,21,22,22,23,23,24,24,25,25,26,26,27,27,28,28,29,29,30,30,31,31,32,32,33,33,34,34,35,35,36,36,37,37,39,39,40,40,41,41,42,42,43,43,44,44,46,46,47,47,48,48,49,49,50,50,51,51,52,52,53,53,54,54,55,55,57,57,59,59,62,62,63,63,66,66,67,67,68,68,69,69,70,70,71,71,72,72,73,73,74,74,78,78,79,79,80,80,81,81,82,82,83,83,84,84,85,85,86,86,89,89,90,90,91,91,93,93,101,101,102,102,103,103,104,104,105,105,106,106,107,107,109,109,110,110,111,111,114,114,116,116,121,121,122,122,124,124,125,125,126,126,128,128,130,130,131,131,132,132,133,133,134,134,137,137,138,138,139,139,140,140,141,141,142,142,143,143,145,145,146,146,147,147,148,148,151,151,152,152,156,156,157,157,158,158,161,161,163,163,164,164,165,165,166,166,167,167,168,168,169,169,170,170,174,174],"right_children":[2,4,6,8,10,12,14,16,18,20,22,24,26,28,30,-1,32,34,36,38,40,42,44,46,48,50,52,54,56,58,60,62,64,66,68,70,72,74,-1,76,78,80,82,84,86,-1,88,90,92,94,96,98,100,102,104,106,-1,108,-1,110,-1,-1,112,114,-1,-1,116,118,120,122,124,126,128,130,132,-1,-1,-1,134,136,138,140,142,144,146,148,150,-1,-1,152,154,156,-1,158,-1,-1,-1,-1,-1,-1,-1,160,162,164,166,168,170,172,-1,174,176,178,-1,-1,180,-1,182,-1,-1,-1,-1,184,186,-1,188,190,192,-1,194,-1,196,198,200,202,204,-1,-1,206,208,210,212,214,216,218,-1,220,222,224,226,-1,-1,228,230,-1,-1,-1,232,234,236,-1,-1,238,-1,240,242,244,246,248,250,252,254,-1,-1,-1,256,-1,-1,-1,-1,-1,-1,-1,-1,-1,-1,-1,-1,-1,-1,-1,-1,-1,-1,-1,-1,-1,-1,-1,-1,-1,-1,-1,-1,-1,-1,-1,-1,-1,-1,-1,-1,-1,-1,-1,-1,-1,-1,-1,-1,-1,-1,-1,-1,-1,-1,-1,-1,-1,-1,-1,-1,-1,-1,-1,-1,-1,-1,-1,-1,-1,-1,-1,-1,-1,-1,-1,-1,-1,-1,-1,-1,-1,-1,-1,-1,-1,-1],"split_conditions":[2.1342994E-4,4.5801753E-5,1.1512844E-1,2.7730313E-5,1.9224273E-4,2.2402353E-4,3.858639E-1,1.6513557E-5,4.677419E-1,6.636581E-5,2.0159004E-4,2.0833334E-1,1.0043335E-1,3.211858E-1,4.5100194E-1,-1.7948718E-1,1.8383016E-5,4.330914E-5,4.583333E-1,5.57722E-5,1.6918607E-4,6.25E-1,5.833334E-1,2.1561098E-4,2.1841517E-4,7.661512E-2,1.08083665E-1,1.3133116E-1,3.858509E-1,4.509874E-1,6.955112E-1,2.0833334E-1,2.1498783E-5,1.25E-1,2.0967741E-1,3.6454454E-5,9.193548E-1,2.0967741E-1,1.3265306E-1,8.319094E-5,1.8289543E-4,4.8387095E-2,7.9032254E-1,2.034595E-4,7.916666E-1,-9.090909E-2,5.16129E-1,7.9032254E-1,8.75E-1,2.3461715E-4,7.661699E-2,1.0043576E-1,1.0808833E-1,1.17903575E-1,3.2092738E-1,9.997513E-1,1.818182E-2,4.0633625E-1,-4.0000003E-2,5.904118E-1,-1.8394724E-1,-1E-1,5.833334E-1,1.9629322E-5,-1.3157895E-1,1.818182E-2,2.897662E-5,4.166667E-1,5.833334E-1,2.916667E-1,5.833334E-1,7.9032254E-1,3.2092386E-5,5.4525895E-5,7.9032254E-1,1.7075224E-1,1.8877321E-1,1.6533701E-1,1.1290322E-1,5.833334E-1,8.3333336E-2,1.1290322E-1,4.166667E-1,4.3548387E-1,2.916667E-1,2.0844472E-4,2.0283634E-4,1.25E-1,-4.0000003E-2,4.0322578E-1,9.354838E-1,7.5E-1,-1.818182E-2,8.3333336E-2,-1.9954973E-1,-5E-2,-1.9626106E-1,-5E-2,-1.878301E-1,-5E-2,-1.7993982E-1,1.15135975E-1,1.1793122E-1,1.4852443E-1,4.677419E-1,3.8572136E-1,3.2932657E-1,4.0633175E-1,-1.643561E-1,5.9009176E-1,6.9547105E-1,6.666666E-1,6.666667E-2,-1.4285715E-1,5.833334E-1,2.2222223E-2,3.707761E-5,2.2222223E-2,1.2727273E-1,1.818182E-2,-8.0000006E-2,2.0833334E-1,9.997513E-1,1.1724138E-1,4.268599E-5,7.5E-1,8.333334E-1,-0E0,1.6666667E-1,1.2786886E-1,1.1290322E-1,8.3333336E-2,8.75E-1,4.583333E-1,2.0833334E-1,5E-2,-0E0,1.9348905E-4,6.935484E-1,1.9411219E-4,1.9598164E-4,1.9847427E-4,1.953585E-4,5E-1,-1.3333334E-1,2.0906786E-4,2.1031417E-4,2.0283634E-4,2.1218363E-4,-1.818182E-2,1.4285715E-1,2.0967741E-1,6.25E-1,1.1111112E-1,-0E0,-1.4736842E-1,5.967742E-1,2.2682773E-4,8.75E-1,-4.0000003E-2,-1.7680782E-1,1.1792062E-1,-1.616965E-1,1.3134526E-1,2.7379113E-1,3.2093757E-1,9.583334E-1,3.596486E-1,3.75E-1,3.2930923E-1,3.8277924E-1,-1.6022997E-1,5E-2,-1.6983876E-1,8.2258064E-1,-1.7392659E-1,-5E-2,-0E0,-6.666667E-2,-5.714286E-2,4.0000003E-2,-1.3E-1,-5.185185E-2,2.2222223E-2,-6.666667E-2,1E-1,-0E0,7.5E-2,-2.2222223E-2,5.8823533E-2,-4.4444446E-2,-9.677419E-2,-0E0,-0E0,1.2727273E-1,-0E0,8.0000006E-2,-5.185185E-2,5.8823533E-2,1.2222222E-1,-1.1764706E-2,2.2222223E-2,8.83721E-2,1.7777778E-1,1.416268E-1,6.666667E-2,1.7837839E-1,1.2566373E-1,8.085107E-2,-4.0000003E-2,3.3333335E-2,1.2380953E-1,5.2631583E-2,-1.1111112E-1,-2.2222223E-2,-1.818182E-2,8.571429E-2,4.0000003E-2,-5E-2,-2.5E-2,1.20000005E-1,1.1320755E-2,-7.826087E-2,-1.818182E-2,6.666667E-2,-7.826087E-2,6.666667E-2,-6.0000002E-2,4.0000003E-2,-0E0,-1.25E-1,-1E-1,-0E0,5E-2,-7.692308E-2,-1.6705883E-1,-7.5E-2,-1.1428572E-1,6.666667E-2,-1.5384616E-2,-1.4961147E-1,-1.4202584E-1,-1.4550796E-1,-0E0,-1.4133333E-1,-5.2380957E-2,-1.4666668E-1,-1.5438713E-1,-1.6035806E-1,-3.1578947E-2,-1.2222222E-1,-1.4520982E-1,-1.818182E-2,-1.5440427E-1,-1.4207526E-1,-1.137255E-1,-0E0],"split_indices":[0,0,0,0,0,0,0,0,1,0,0,2,0,0,0,0,0,0,2,0,0,2,4,0,0,0,0,0,0,0,0,2,0,2,1,0,1,1,0,0,0,1,1,0,2,0,1,1,2,0,0,0,0,0,0,3,0,0,0,0,0,0,4,0,0,0,0,4,4,2,4,1,0,0,1,0,0,0,1,4,4,1,4,1,2,0,0,0,0,1,1,4,0,4,0,0,0,0,0,0,0,0,0,0,1,0,0,0,0,0,0,2,0,0,4,0,0,0,0,0,0,2,3,0,0,4,4,0,4,0,1,4,2,2,2,0,0,0,1,0,0,0,0,2,0,0,0,0,0,0,0,1,2,0,0,0,1,0,2,0,0,0,0,0,0,0,2,0,2,0,0,0,0,0,1,0,0,0,0,0,0,0,0,0,0,0,0,0,0,0,0,0,0,0,0,0,0,0,0,0,0,0,0,0,0,0,0,0,0,0,0,0,0,0,0,0,0,0,0,0,0,0,0,0,0,0,0,0,0,0,0,0,0,0,0,0,0,0,0,0,0,0,0,0,0,0,0,0,0,0,0,0,0,0,0,0,0],"split_type":[0,0,0,0,0,0,0,0,0,0,0,0,0,0,0,0,0,0,0,0,0,0,0,0,0,0,0,0,0,0,0,0,0,0,0,0,0,0,0,0,0,0,0,0,0,0,0,0,0,0,0,0,0,0,0,0,0,0,0,0,0,0,0,0,0,0,0,0,0,0,0,0,0,0,0,0,0,0,0,0,0,0,0,0,0,0,0,0,0,0,0,0,0,0,0,0,0,0,0,0,0,0,0,0,0,0,0,0,0,0,0,0,0,0,0,0,0,0,0,0,0,0,0,0,0,0,0,0,0,0,0,0,0,0,0,0,0,0,0,0,0,0,0,0,0,0,0,0,0,0,0,0,0,0,0,0,0,0,0,0,0,0,0,0,0,0,0,0,0,0,0,0,0,0,0,0,0,0,0,0,0,0,0,0,0,0,0,0,0,0,0,0,0,0,0,0,0,0,0,0,0,0,0,0,0,0,0,0,0,0,0,0,0,0,0,0,0,0,0,0,0,0,0,0,0,0,0,0,0,0,0,0,0,0,0,0,0,0,0,0,0,0,0,0,0,0,0,0,0,0,0,0,0,0,0,0,0],"sum_hessian":[2.941535E5,7.47675E3,2.8667675E5,1.3775E2,7.339E3,2.2593475E5,6.0742E4,6.8E1,6.975E1,7.2035E3,1.355E2,3.475E1,2.259E5,3.751175E4,2.323025E4,3.8E1,3E1,3.075E1,3.9E1,2.26E2,6.9775E3,8.325E1,5.225E1,6.25E0,2.85E1,2.225995E5,3.3005E3,2.7512E4,9.99975E3,8.692E3,1.453825E4,5.5E0,2.45E1,2.45E1,6.25E0,1.65E1,2.25E1,8E1,1.46E2,6.47675E3,5.0075E2,5.025E1,3.3E1,2.875E1,2.35E1,1.75E0,4.5E0,1.475E1,1.375E1,2.0612425E5,1.647525E4,2.05425E3,1.24625E3,1.896E3,2.5616E4,9.998E3,1.75E0,8.6905E3,1.5E0,1.362975E4,9.085E2,1E0,4.5E0,6.5E0,1.8E1,1.75E0,2.275E1,3E0,3.25E0,6E0,1.05E1,1.875E1,3.75E0,1.675E1,6.325E1,4.7425E2,6.0025E3,3.625E2,1.3825E2,2E0,4.825E1,2.625E1,6.75E0,6E0,2.275E1,1.575E1,7.75E0,3E0,1.5E0,1.25E1,2.25E0,1.2E1,1.75E0,2.65E1,2.0609775E5,1E0,1.647425E4,1E0,2.05325E3,1E0,1.24525E3,3.8425E2,1.51175E3,2.5574E4,4.2E1,4.97925E3,5.01875E3,2.957E3,5.7335E3,1.074175E4,2.888E3,3.25E0,1.25E0,2.5E0,4E0,1.25E0,2.15E1,1.25E0,1.75E0,1.75E0,1.5E0,4E0,2E0,6.25E0,4.25E0,1.1E1,7.75E0,1E0,2.75E0,1.425E1,2.5E0,4.3E1,2.025E1,1.325E1,1.25E2,1E0,1E0,1.025E1,3.8E1,3.5E0,2.275E1,2.5E0,4.25E0,2.5E0,3.5E0,5.75E0,1.7E1,9E0,6.75E0,1.75E0,6E0,8E0,4.5E0,1.25E0,1E0,8.5E0,3.5E0,3.25E0,2.325E1,1.5E0,3.8275E2,3.75E0,1.508E3,1.67425E3,2.389975E4,1.925E1,2.275E1,4.9675E3,1.175E1,6.3225E2,4.3865E3,2.956E3,1E0,1.0728E4,1.375E1,2.887E3,1E0,2E0,1.25E0,2.5E0,1.5E0,9E0,1.25E1,1.25E0,2.75E0,1E0,1E0,3E0,1.25E0,7.5E0,3.5E0,6.75E0,1E0,1E0,1.75E0,1E0,1.5E0,5.75E0,3.725E1,1.7E1,3.25E0,3.5E0,9.75E0,2.15E1,1.035E2,2E0,8.25E0,2.725E1,1.075E1,1.5E0,2E0,9.5E0,1.325E1,1.25E0,1.25E0,1.75E0,2.5E0,1.5E0,1E0,3E0,2.75E0,1.225E1,4.75E0,1.75E0,7.25E0,4.75E0,2E0,4E0,4E0,1.5E0,3E0,2E0,1.5E0,1E0,2.25E0,2.025E1,3E0,2.5E0,1.25E0,2.25E0,1.672E3,1.658225E4,7.3175E3,1.5E0,1.775E1,2E1,2.75E0,3.0135E3,1.954E3,3.75E0,8E0,6.305E2,1.75E0,4.16825E3,2.1825E2,1.175E1,2E0],"tree_param":{"num_deleted":"0","num_feature":"5","num_nodes":"257","size_leaf_vector":"0"}},{"base_weights":[-1.640073E0,1.6004832E0,-1.7246648E0,-7.1568155E-1,1.6442467E0,-1.809778E0,-1.4068805E0,-1.3600168E0,-7.976688E-2,1.6637999E0,6.063322E-1,-1.812043E0,-1.6717463E0,-1.3285726E0,-1.5200001E0,-1.6332028E0,-9.739179E-1,-4.7029406E-1,2.3214562E-1,1.0247233E0,1.6844532E0,9.1267365E-1,1.1092043E-1,-5.007481E-1,-1.8122469E0,-1.7056942E0,-1.6273148E0,-1.3074613E0,-1.3957938E0,-1.4695191E0,-1.5552671E0,-2.9255772E-1,-1.1097598E0,-6.7744374E-1,3.2290593E-1,5.192256E-1,-9.614075E-2,6.9434667E-1,1.2002015E0,1.7028037E0,1.4447414E0,1.146962E0,5.3338695E-1,-1.7047675E-1,4.4835636E-1,1.8585043E-1,-6.525135E-1,-1.8143581E0,-1.7820922E0,-9.2730606E-1,-1.7068541E0,-1.1124498E0,-1.6297578E0,-1.464521E0,-1.2979981E0,-1.3960809E0,3.102024E-1,-1.4435556E0,-1.4893881E0,-1.547487E0,-1.6702781E0,-6.5393096E-1,1.467378E-1,-1.36626E0,-9.009785E-1,1.702572E-1,-7.47206E-1,9.391447E-1,-3.3240613E-1,-9.8187053E-1,7.2372854E-1,-2.5960553E-1,5.515077E-1,1.1057632E0,5.7007474E-1,1.4445785E0,1.1455855E0,1.5487529E0,1.7147324E0,1.4990324E0,1.292836E0,1.5111991E0,1.0192531E0,7.027308E-1,-1.500469E-2,-7.9390156E-1,2.0152733E-2,1.3667741E-1,9.950436E-1,-8.5239863E-1,6.715876E-1,-2.0244327E-1,-1.0897413E0,-1.35673E0,-1.8144189E0,-5.609633E-1,-1.7821579E0,-1.14908E0,-1.1875645E-1,-3.1389624E-1,-1.4538703E0,-1.5017413E0,-1.4264737E0,-1.2986528E0,-9.3419206E-1,-1.4139309E0,-1.3780464E0,-1.4440745E0,2.1798535E-1,-1.4896152E0,-3.7609342E-1,-1.5392774E0,-1.5774856E0,-1.0895116E0,-9.1867605E-6,6.5934336E-1,-3.7359205E-1,-2.3284216E-1,-1.072432E0,2.0989144E-1,-8.0982894E-1,2.0989144E-1,1.1949158E0,1.702572E-1,-7.5274736E-1,2.4625513E-1,8.8249665E-1,1.7558473E-1,-8.246565E-1,8.753912E-1,-2.5440786E-2,3.8912657E-1,9.186504E-1,6.092851E-1,1.1868973E0,1.7227967E0,1.6522601E0,1.4329337E0,1.614326E0,6.7187524E-1,1.3530351E0,6.226997E-1,1.6366603E0,1.1888782E0,7.710806E-1,-1.4823375E-3,8.12511E-1,-1.1073365E0,3.0422655E-1,-2.8588898E-3,-1.2340361E0,4.8153687E-1,-1.5379477E-1,4.5523944E-1,-2.9219434E-1,-1.7025717E-1,1.3120487E0,1.1597607E0,-3.7609342E-1,-4.11295E-1,7.274013E-1,-1.2008468E0,-1.7025717E-1,-3.243009E-1,-1.4645851E0,-1.817623E0,-1.8082474E0,-8.102656E-1,2.975419E-1,-1.3306722E-1,-1.4283772E0,-1.365081E0,-1.2954296E0,-1.2680262E0,-7.487755E-1,-1.3981366E0,-1.4516006E0,-1.3078835E0,-1.3887532E0,-1.4982113E0,-1.4346851E0,-1.540023E0,-8.948534E-1,2.791658E-1,-4.9561593E-1,-1.1509974E0,-1.7680039E-1,-1.1876681E0,-4.7081113E-1,-1.9025952E-1,8.7119913E-1,1.3596457E0,5.435531E-1,-2.5651547E-1,7.071587E-1,-9.977629E-1,-4.3421745E-1,-4.746299E-1,5.314135E-1,1.1108419E0,-1.0865353E-1,-2.1056516E-1,1.0622418E0,1.2152445E0,7.5589705E-1,2.0495865E-1,8.050454E-1,1.620518E0,1.2825792E0,9.247623E-1,1.4140702E0,-8.025123E-2,9.0098286E-1,-4.054107E-1,3.3563057E-1,1.1751131E0,4.9698094E-1,-3.7518165E-1,7.528647E-1,-2.3450123E-1,2.3006602E-1,-2.3127793E-1,1.1150422E0,1.02744386E-1,-7.1889985E-1,4.940794E-2,7.465145E-1,-7.1889985E-1,6.226997E-1,-4.7778197E-2,-7.681249E-1,1.051245E0,-0E0,-1.348594E0,-6.229502E-1,2.227642E-1,-6.265555E-1,-1.5260108E0,-7.6010954E-1,-1.1068048E0,-1.4373426E0,-1.4320143E-1,-1.3673346E0,-1.2897003E0,-1.3316497E0,-1.3519524E0,-1.4423299E-1,-4.7406146E-1,-1.0409459E0,-1.4034601E0,-1.1172622E0,-1.3143835E0,2.551276E-1,-1.4067557E0,-1.3332714E0,-1.0356412E0,-0E0],"categories":[],"categories_nodes":[],"categories_segments":[],"categories_sizes":[],"default_left":[true,true,true,true,true,true,true,true,true,true,true,true,true,true,true,false,true,true,true,true,true,true,true,true,true,true,true,true,true,true,true,true,true,true,true,true,true,true,true,true,true,true,true,true,true,true,true,true,true,true,false,true,false,true,true,true,false,true,true,true,false,true,true,false,true,false,true,true,true,false,true,true,true,false,true,false,true,false,true,true,true,true,true,true,true,true,true,true,true,false,true,true,true,true,true,false,false,false,false,true,false,false,true,true,true,true,true,true,false,false,false,true,false,false,false,false,false,true,true,false,true,false,false,false,false,true,true,true,true,false,false,true,true,true,true,false,false,false,false,true,true,false,false,true,true,true,true,false,true,true,false,true,true,true,true,false,false,false,false,true,true,true,false,true,true,false,false,false,false,false,true,true,true,true,true,true,false,true,true,false,false,false,true,false,false,false,false,false,false,false,false,false,false,false,false,false,false,false,false,false,false,false,false,false,false,false,false,false,false,false,false,false,false,false,false,false,false,false,false,false,false,false,false,false,false,false,false,false,false,false,false,false,false,false,false,false,false,false,false,false,false,false,false,false,false,false,false,false,false,false,false,false,false,false,false,false,false],"id":1,"left_children":[1,3,5,7,9,11,13,15,17,19,21,23,25,27,29,-1,31,33,35,37,39,41,43,45,47,49,51,53,55,57,59,61,63,65,67,69,71,73,75,77,79,81,83,85,87,89,91,93,95,97,-1,99,-1,101,103,105,-1,107,109,111,-1,113,115,-1,117,-1,119,121,123,-1,125,127,129,-1,131,-1,133,-1,135,137,139,141,143,145,147,149,151,153,155,-1,157,159,161,163,165,-1,-1,-1,-1,167,-1,-1,169,171,173,175,177,179,-1,-1,-1,181,-1,-1,-1,-1,-1,183,185,-1,187,-1,-1,-1,-1,189,191,193,195,-1,-1,197,199,201,203,-1,-1,-1,-1,205,207,-1,-1,209,211,213,215,-1,217,219,-1,221,223,225,227,-1,-1,-1,-1,229,231,233,-1,235,237,-1,-1,-1,-1,-1,239,241,243,245,247,249,-1,251,253,-1,-1,-1,255,-1,-1,-1,-1,-1,-1,-1,-1,-1,-1,-1,-1,-1,-1,-1,-1,-1,-1,-1,-1,-1,-1,-1,-1,-1,-1,-1,-1,-1,-1,-1,-1,-1,-1,-1,-1,-1,-1,-1,-1,-1,-1,-1,-1,-1,-1,-1,-1,-1,-1,-1,-1,-1,-1,-1,-1,-1,-1,-1,-1,-1,-1,-1,-1,-1,-1,-1,-1,-1,-1,-1,-1,-1,-1],"loss_changes":[7.99105E4,7.529219E2,7.68125E3,5.6529503E1,1.4671875E2,6.70625E1,5.296328E2,5.644821E0,8.712768E0,9.256836E1,2.0564415E1,5.80625E1,2.7001953E0,4.8515625E1,4.1410156E1,0E0,2.5355072E0,5.426365E0,3.8138003E0,1.2280319E1,2.797461E1,6.8528214E0,5.124821E0,3.8373442E0,1.08125E1,2.5634766E-1,1.9238281E-1,3.8246094E1,4.578125E0,3.0664062E0,1.0328125E1,1.1269923E0,1.2963676E-1,1.6324682E0,3.2359924E0,7.299015E0,2.2049835E0,3.502781E0,2.9855347E-1,9.142578E0,2.1738281E0,8.346863E-1,3.1628714E0,3.5474548E0,4.030341E0,4.2207346E0,5.5703535E0,3.25E0,1.6015625E-1,7.9972315E-1,0E0,2.4551659E0,0E0,2.0751953E-2,4.8554688E0,7.753906E-1,0E0,4.1220703E0,8.798828E-1,9.042969E-1,0E0,1.0671756E0,1.246022E0,0E0,1.6911602E0,0E0,1.5906763E0,4.9393797E-1,1.0256066E0,0E0,1.2582331E0,4.1359234E0,8.1549954E-1,0E0,3.6887646E0,0E0,2.0342407E0,0E0,1.5234375E-1,4.381714E-1,4.2698975E0,2.2739029E-1,8.0394745E-1,2.0078716E0,3.471073E0,2.4278026E0,1.9787076E0,2.4190257E0,3.4443684E0,0E0,3.242867E0,3.353794E0,1.2971821E0,3.0116692E0,8.125E-1,0E0,0E0,0E0,0E0,1.5988454E0,0E0,0E0,1.7183838E0,3.6796875E0,2.1051521E0,4.7851562E-1,1.3754883E0,9.5703125E-2,0E0,0E0,0E0,3.7480469E0,0E0,0E0,0E0,0E0,0E0,7.757162E-1,7.2571754E-1,0E0,2.3170185E0,0E0,0E0,0E0,0E0,1.8691593E0,1.560751E0,2.4767761E0,5.5894375E-2,0E0,0E0,5.655447E0,4.303753E0,4.292306E0,4.8031616E-1,0E0,0E0,0E0,0E0,7.198458E-1,2.8318787E-1,0E0,0E0,2.6620865E-2,2.2222357E0,7.486735E-1,1.9854231E0,0E0,2.6416297E0,2.4272813E-1,0E0,3.301324E0,2.682241E0,1.1442337E0,3.4694805E0,0E0,0E0,0E0,0E0,1.7122445E0,7.6467705E-1,2.6551437E-1,0E0,8.416711E-1,5.454254E-2,0E0,0E0,0E0,0E0,0E0,6.4038086E-1,2.9943848E0,3.3203125E0,1.331007E0,2.2490616E0,2.9125977E0,0E0,6.2246704E0,1.7905273E0,0E0,0E0,0E0,1.8534937E0,0E0,0E0,0E0,0E0,0E0,0E0,0E0,0E0,0E0,0E0,0E0,0E0,0E0,0E0,0E0,0E0,0E0,0E0,0E0,0E0,0E0,0E0,0E0,0E0,0E0,0E0,0E0,0E0,0E0,0E0,0E0,0E0,0E0,0E0,0E0,0E0,0E0,0E0,0E0,0E0,0E0,0E0,0E0,0E0,0E0,0E0,0E0,0E0,0E0,0E0,0E0,0E0,0E0,0E0,0E0,0E0,0E0,0E0,0E0,0E0,0E0,0E0,0E0,0E0,0E0,0E0,0E0,0E0,0E0,0E0,0E0,0E0,0E0,0E0],"parents":[2147483647,0,0,1,1,2,2,3,3,4,4,5,5,6,6,7,7,8,8,9,9,10,10,11,11,12,12,13,13,14,14,16,16,17,17,18,18,19,19,20,20,21,21,22,22,23,23,24,24,25,25,26,26,27,27,28,28,29,29,30,30,31,31,32,32,33,33,34,34,35,35,36,36,37,37,38,38,39,39,40,40,41,41,42,42,43,43,44,44,45,45,46,46,47,47,48,48,49,49,51,51,53,53,54,54,55,55,57,57,58,58,59,59,61,61,62,62,64,64,66,66,67,67,68,68,70,70,71,71,72,72,74,74,76,76,78,78,79,79,80,80,81,81,82,82,83,83,84,84,85,85,86,86,87,87,88,88,90,90,91,91,92,92,93,93,94,94,99,99,102,102,103,103,104,104,105,105,106,106,107,107,111,111,117,117,118,118,120,120,125,125,126,126,127,127,128,128,131,131,132,132,133,133,134,134,139,139,140,140,143,143,144,144,145,145,146,146,148,148,149,149,151,151,152,152,153,153,154,154,159,159,160,160,161,161,163,163,164,164,170,170,171,171,172,172,173,173,174,174,175,175,177,177,178,178,182,182],"right_children":[2,4,6,8,10,12,14,16,18,20,22,24,26,28,30,-1,32,34,36,38,40,42,44,46,48,50,52,54,56,58,60,62,64,66,68,70,72,74,76,78,80,82,84,86,88,90,92,94,96,98,-1,100,-1,102,104,106,-1,108,110,112,-1,114,116,-1,118,-1,120,122,124,-1,126,128,130,-1,132,-1,134,-1,136,138,140,142,144,146,148,150,152,154,156,-1,158,160,162,164,166,-1,-1,-1,-1,168,-1,-1,170,172,174,176,178,180,-1,-1,-1,182,-1,-1,-1,-1,-1,184,186,-1,188,-1,-1,-1,-1,190,192,194,196,-1,-1,198,200,202,204,-1,-1,-1,-1,206,208,-1,-1,210,212,214,216,-1,218,220,-1,222,224,226,228,-1,-1,-1,-1,230,232,234,-1,236,238,-1,-1,-1,-1,-1,240,242,244,246,248,250,-1,252,254,-1,-1,-1,256,-1,-1,-1,-1,-1,-1,-1,-1,-1,-1,-1,-1,-1,-1,-1,-1,-1,-1,-1,-1,-1,-1,-1,-1,-1,-1,-1,-1,-1,-1,-1,-1,-1,-1,-1,-1,-1,-1,-1,-1,-1,-1,-1,-1,-1,-1,-1,-1,-1,-1,-1,-1,-1,-1,-1,-1,-1,-1,-1,-1,-1,-1,-1,-1,-1,-1,-1,-1,-1,-1,-1,-1,-1,-1],"split_conditions":[2.1342994E-4,4.5801753E-5,1.1770918E-1,2.7730313E-5,1.9224273E-4,1.0043335E-1,3.758366E-1,1.6513557E-5,4.677419E-1,6.636581E-5,2.0159004E-4,2.2402353E-4,1.08083665E-1,3.211858E-1,4.5100194E-1,-1.6332029E-1,1.8383016E-5,4.330914E-5,5.416666E-1,5.57722E-5,1.6918607E-4,6.25E-1,5.833334E-1,2.0833334E-1,7.823843E-2,1.00442305E-1,1.081212E-1,1.3133116E-1,3.7582338E-1,4.0633625E-1,6.955112E-1,4.583333E-1,4.583333E-1,1.25E-1,2.0967741E-1,2.9599772E-5,9.193548E-1,2.0967741E-1,2.0833334E-1,8.319094E-5,1.8289543E-4,8.3333336E-2,7.580645E-1,2.034595E-4,7.916666E-1,2.1561098E-4,2.1841517E-4,2.3648661E-4,7.823905E-2,1.00440755E-1,-1.7068541E-1,5.833334E-1,-1.6297577E-1,1.2392162E-1,3.2088256E-1,9.997513E-1,3.1020239E-2,4.063308E-1,4.509874E-1,5.904118E-1,-1.6702782E-1,1.713671E-5,6.666666E-1,-1.36626E-1,5.416666E-1,1.702572E-2,2.897662E-5,4.166667E-1,5.833334E-1,-9.818705E-2,3.6454454E-5,7.9032254E-1,9.997513E-1,1.10576324E-1,7.9032254E-1,1.4445786E-1,2.916667E-1,1.548753E-1,1.5360725E-4,6.612903E-1,1.1290322E-1,1.9348905E-4,1.9660481E-4,1.1290322E-1,1.9411219E-4,4.3548387E-1,2.916667E-1,2.0844472E-4,2.0283634E-4,-8.5239865E-2,5.16129E-1,7.9032254E-1,8.75E-1,8.3333336E-2,4.4890393E-2,-5.6096327E-2,-1.7821579E-1,-1.14908E-1,-1.1875645E-2,1.0811351E-1,-1.4538704E-1,-1.5017413E-1,1.2393588E-1,1.432474E-1,3.7096775E-1,3.596486E-1,3.287384E-1,8.3333336E-2,2.1798534E-2,-1.4896153E-1,-3.7609342E-2,5.9009176E-1,-1.5774857E-1,-1.08951166E-1,-9.1867605E-7,6.593434E-2,-3.7359204E-2,4.166667E-1,8.548387E-1,2.0989144E-2,3.707761E-5,2.0989144E-2,1.1949158E-1,1.702572E-2,-7.5274736E-2,2.916667E-1,6.612903E-1,6.2903225E-1,4.081653E-5,8.753912E-2,-2.5440787E-3,8.3333336E-2,8.75E-1,2.9032257E-1,6.574266E-5,1.7227967E-1,1.6522601E-1,1.4329337E-1,1.6143261E-1,4.583333E-1,2.0833334E-1,6.2269967E-2,1.6366604E-1,9.997513E-1,1.9722796E-4,2.5E-1,1.9598164E-4,-1.1073365E-1,4.166667E-1,2.2580644E-1,-1.2340361E-1,2.0906786E-4,2.1031417E-4,6.2903225E-1,2.1218363E-4,-1.7025717E-2,1.3120487E-1,1.1597607E-1,-3.7609342E-2,3.548387E-1,9.354838E-1,7.5E-1,-1.7025717E-2,4.583333E-1,8.75E-1,-1.8176231E-1,-1.8082474E-1,-8.102656E-2,2.975419E-2,-1.3306722E-2,4.8387095E-2,1.3134526E-1,2.9962444E-1,3.2117036E-1,3.21065E-1,3.5892934E-1,-1.4516006E-1,3.2869786E-1,3.6356047E-1,-1.4982113E-1,-1.4346851E-1,-1.540023E-1,8.2258064E-1,2.791658E-2,-4.9561594E-2,-1.1509974E-1,-1.768004E-2,-1.1876681E-1,-4.7081113E-2,-1.9025952E-2,8.7119915E-2,1.3596457E-1,5.4355312E-2,-2.5651548E-2,7.071587E-2,-9.977629E-2,-4.3421745E-2,-4.7462992E-2,5.314135E-2,1.11084186E-1,-1.0865353E-2,-2.1056516E-2,1.0622418E-1,1.2152445E-1,7.558971E-2,2.0495865E-2,8.0504544E-2,1.620518E-1,1.2825792E-1,9.2476234E-2,1.4140703E-1,-8.025124E-3,9.0098284E-2,-4.054107E-2,3.356306E-2,1.1751131E-1,4.9698096E-2,-3.7518166E-2,7.528647E-2,-2.3450123E-2,2.3006601E-2,-2.3127792E-2,1.1150422E-1,1.0274439E-2,-7.188999E-2,4.9407943E-3,7.465145E-2,-7.188999E-2,6.2269967E-2,-4.77782E-3,-7.681249E-2,1.05124496E-1,-0E0,-1.348594E-1,-6.229502E-2,2.227642E-2,-6.265555E-2,-1.5260108E-1,-7.601096E-2,-1.1068048E-1,-1.4373426E-1,-1.4320143E-2,-1.3673346E-1,-1.2897003E-1,-1.3316497E-1,-1.3519524E-1,-1.4423299E-2,-4.740615E-2,-1.0409459E-1,-1.4034602E-1,-1.11726224E-1,-1.3143836E-1,2.551276E-2,-1.4067557E-1,-1.3332714E-1,-1.0356412E-1,-0E0],"split_indices":[0,0,0,0,0,0,0,0,1,0,0,0,0,0,0,0,0,0,2,0,0,2,4,2,0,0,0,0,0,0,0,2,2,2,1,0,1,1,2,0,0,4,1,0,2,0,0,0,0,0,0,4,0,0,0,3,0,0,0,0,0,0,2,0,2,0,0,4,4,0,0,1,3,0,1,0,2,0,0,1,1,0,0,1,0,1,2,0,0,0,1,1,2,4,0,0,0,0,0,0,0,0,0,0,1,0,0,4,0,0,0,0,0,0,0,0,0,4,1,0,0,0,0,0,0,2,1,1,0,0,0,4,2,1,0,0,0,0,0,2,2,0,0,3,0,4,0,0,4,1,0,0,0,1,0,0,0,0,0,1,1,4,0,2,2,0,0,0,0,0,1,0,0,0,0,0,0,0,0,0,0,0,1,0,0,0,0,0,0,0,0,0,0,0,0,0,0,0,0,0,0,0,0,0,0,0,0,0,0,0,0,0,0,0,0,0,0,0,0,0,0,0,0,0,0,0,0,0,0,0,0,0,0,0,0,0,0,0,0,0,0,0,0,0,0,0,0,0,0,0,0,0,0,0,0,0,0],"split_type":[0,0,0,0,0,0,0,0,0,0,0,0,0,0,0,0,0,0,0,0,0,0,0,0,0,0,0,0,0,0,0,0,0,0,0,0,0,0,0,0,0,0,0,0,0,0,0,0,0,0,0,0,0,0,0,0,0,0,0,0,0,0,0,0,0,0,0,0,0,0,0,0,0,0,0,0,0,0,0,0,0,0,0,0,0,0,0,0,0,0,0,0,0,0,0,0,0,0,0,0,0,0,0,0,0,0,0,0,0,0,0,0,0,0,0,0,0,0,0,0,0,0,0,0,0,0,0,0,0,0,0,0,0,0,0,0,0,0,0,0,0,0,0,0,0,0,0,0,0,0,0,0,0,0,0,0,0,0,0,0,0,0,0,0,0,0,0,0,0,0,0,0,0,0,0,0,0,0,0,0,0,0,0,0,0,0,0,0,0,0,0,0,0,0,0,0,0,0,0,0,0,0,0,0,0,0,0,0,0,0,0,0,0,0,0,0,0,0,0,0,0,0,0,0,0,0,0,0,0,0,0,0,0,0,0,0,0,0,0,0,0,0,0,0,0,0,0,0,0,0,0,0,0,0,0,0,0],"sum_hessian":[2.9150044E5,7.415325E3,2.8408512E5,1.3722835E2,7.278097E3,2.2406767E5,6.0017445E4,6.759728E1,6.963106E1,7.142928E3,1.3516858E2,2.2043823E5,3.6294333E3,3.5473445E4,2.4543998E4,3.7695587E1,2.9901693E1,3.069362E1,3.893744E1,2.2519958E2,6.917729E3,8.3001656E1,5.2166927E1,3.4662247E1,2.2040358E5,2.0362456E3,1.5931879E3,2.701086E4,8.462586E3,1.01121455E4,1.4431853E4,5.4947286E0,2.4406963E1,2.4453384E1,6.240236E0,2.0462107E1,1.8475334E1,7.9840004E1,1.4535959E2,6.420151E3,4.975782E2,5.005703E1,3.2944626E1,2.8715261E1,2.3451666E1,6.234101E0,2.8428144E1,2.0592742E5,1.4476151E4,4.2208776E0,2.0320247E3,9.678928E0,1.5835089E3,1.5262358E3,2.5484623E4,8.461344E3,1.242347E0,4.415692E3,5.6964536E3,1.3530995E4,9.00858E2,2.7466714E0,2.748057E0,8.464209E0,1.5942756E1,1.7498554E0,2.270353E1,2.992778E0,3.247458E0,1.9976519E0,1.8464455E1,1.5230382E1,3.2449517E0,1.6689512E1,6.315049E1,2.19035E1,1.2345609E2,4.7080988E2,5.949341E3,3.600339E2,1.375443E2,1.01825E1,3.987453E1,2.4956573E1,7.9880514E0,5.983266E0,2.2731997E1,1.573232E1,7.719347E0,1.7463892E0,4.487712E0,1.4729264E1,1.3698881E1,3.0311646E1,2.0589711E5,1.2380399E0,1.4474914E4,2.9818385E0,1.2390394E0,3.4736776E0,6.2052503E0,7.5205725E2,7.741786E2,2.5436273E4,4.8348923E1,4.213518E3,4.2478257E3,4.4144443E3,1.2477776E0,5.6949546E3,1.4994001E0,1.0664719E4,2.866276E3,1.2487521E0,1.4979194E0,1.2497225E0,1.4983345E0,3.7372274E0,1.2205528E1,1.2498457E0,2.1453684E1,1.2498457E0,1.7429323E0,1.7498554E0,1.4976026E0,5.2442193E0,1.3220236E1,8.993238E0,6.237143E0,1.746971E0,1.4979806E0,4.2963932E1,2.0186558E1,9.956137E0,1.13499954E2,5.245629E3,7.037121E2,2.3737407E2,1.2265983E2,1.32305565E1,1.24313736E2,1.9977795E0,8.18472E0,2.1433964E1,1.8440567E1,3.4988446E0,2.1457727E1,1.2482123E0,6.739839E0,2.4987755E0,3.4844906E0,5.739655E0,1.6992342E1,8.991806E0,6.7405133E0,1.7498553E0,5.9694915E0,2.9883118E0,1.4994001E0,1.2483114E1,2.24615E0,1.1949025E1,1.7498553E0,3.2460504E0,2.7065596E1,1.3533775E5,7.055937E4,1.7377672E0,1.7359105E0,1.2418649E0,7.729367E2,1.1575231E3,2.4278752E4,1.5179724E1,3.3169197E1,2.9956143E3,1.2179037E3,5.7869403E2,3.6691316E3,6.29038E2,3.7854062E3,1.0651007E4,1.371209E1,1.2463552E0,2.4908721E0,1.0959069E1,1.2464592E0,8.962082E0,1.2491602E1,3.4971008E0,1.7471185E0,4.239974E0,8.980262E0,5.246203E0,3.747036E0,3.2435715E0,2.9935715E0,5.7461367E0,3.7217796E1,1.693667E1,3.2498875E0,3.733551E0,6.222585E0,1.0478834E2,8.711619E0,3.499568E0,9.730989E0,2.1331015E1,1.0298272E2,1.2214623E1,9.219341E0,2.4918852E0,1.5948681E1,1.4995223E0,1.9993224E0,8.716554E0,1.2741175E1,2.745637E0,3.9942024E0,1.2494439E0,1.2493315E0,2.9995313E0,2.7401237E0,1.2249607E1,4.742734E0,4.2457952E0,4.746011E0,4.742734E0,1.9977795E0,6.7453027E0,5.7378116E0,1.2461499E0,1E0,8.454017E0,3.4950085E0,1.2487925E0,1.9972577E0,2.3822283E1,3.243313E0,2.4340553E1,7.485962E2,2.2498667E0,1.1552732E3,2.0994416E4,3.2843347E3,1.39359455E1,1.2437785E0,1.8446953E1,1.4722244E1,2.9359705E3,5.964389E1,5.764559E2,2.2381806E0,2.7518596E3,9.1727203E2,1.171209E1,2E0],"tree_param":{"num_deleted":"0","num_feature":"5","num_nodes":"257","size_leaf_vector":"0"}},{"base_weights":[-1.5134476E0,1.4738706E0,-1.5916018E0,-6.53947E-1,1.5145742E0,-1.6741832E0,-1.2886577E0,-1.251555E0,-7.066496E-2,1.5329489E0,5.5465394E-1,-1.6764717E0,-1.5680051E0,-1.219827E0,-1.4004033E0,-1.5063782E0,-8.9577144E-1,-4.2687508E-1,2.1336965E-1,9.606502E-1,1.5535207E0,8.355566E-1,1.0193056E-1,-4.5904508E-1,-1.6766663E0,-1.6014376E0,-1.5185809E0,-1.197449E0,-1.28143E0,-1.353554E0,-1.4283897E0,-6.9914734E-1,-1.5477235E0,-2.7614602E-1,-1.0197612E0,-6.179316E-1,3.032057E-1,5.3507805E-1,-3.483968E-2,6.3106984E-1,1.1148638E0,1.5712247E0,1.3245648E0,1.0535285E0,4.8478234E-1,-5.53257E-1,2.256791E-1,1.6748072E-1,-5.9730995E-1,-1.6787876E0,-1.6552253E0,-8.486646E-1,-1.6023918E0,-4.7795048E-1,-1.5189968E0,-1.367811E0,-1.1848606E0,-1.281732E0,2.6268104E-1,-1.3536887E0,-3.5377705E-1,-1.4207604E0,-1.536155E0,-6.187483E-1,1.398296E-1,-1.2595757E0,-8.2588226E-1,1.5944712E-1,-6.8236625E-1,8.8504803E-1,-3.1344807E-1,1.2863621E-2,8.077786E-1,-1.9866529E-1,6.5367246E-1,9.897432E-1,5.0965405E-1,9.749418E-1,1.1949089E0,1.4308194E0,1.5816294E0,1.3754531E0,1.1828573E0,1.4037036E0,9.325497E-1,6.2662673E-1,-7.563541E-2,-1.2608467E-1,-9.7620845E-1,-3.3254825E-2,5.3082955E-1,-8.012199E-1,6.2275875E-1,-1.810808E-1,-1.0048127E0,-1.2492281E0,-1.6788472E0,-5.869246E-1,-1.655275E0,-1.0382501E0,-1.8163651E-1,-1.4706669E0,-1.3408183E0,-1.1854203E0,-8.2715976E-1,-1.2988802E0,-1.2644751E0,-1.3296975E0,-1.3657945E0,-1.4209325E0,-3.4328794E-1,-1.0523567E0,1.8452011E-2,6.2326556E-1,-3.5144654E-1,-2.1447235E-1,-9.836474E-1,1.982711E-1,-7.405149E-1,1.982711E-1,1.1272982E0,1.5944712E-1,-7.0957786E-1,-3.4625834E-1,6.080139E-1,1.1617942E0,5.0848097E-1,2.0803808E-1,-7.353575E-1,7.888306E-1,1.5192004E-1,2.9340023E-1,1.0312381E0,3.8582426E-1,1.0013657E0,4.2588183E-1,1.0246011E0,1.2414562E0,7.0487744E-1,1.5892875E0,1.5223926E0,1.3132262E0,1.484395E0,6.1412877E-1,1.238563E0,5.824372E-1,1.5205624E0,7.3495036E-1,1.1491103E0,-2.8852816E-3,7.201101E-1,-7.797985E-1,4.0876693E-1,-5.426272E-1,7.175247E-1,4.2596996E-1,-2.0379396E-1,1.8016398E-1,1.2144246E0,1.0818031E0,-3.5377705E-1,-3.7685886E-1,6.894616E-1,-1.1077495E0,-1.5944707E-1,-3.0183807E-1,-1.3494912E0,-1.6819128E0,-1.6740113E0,-1.1254158E0,-1.4963225E0,-6.070882E-1,-1.344081E0,-1.2374009E0,-1.1817319E0,-1.0986162E0,-5.6276584E-1,-1.2999746E0,-7.7293706E-1,-1.1971794E0,-1.2739168E0,-1.3355824E0,-1.1952825E0,-1.4131064E0,-1.4500215E0,4.1098133E-1,-9.4266087E-1,2.6348773E-1,-4.613853E-1,-1.0553559E0,-1.6706881E-1,-1.0923113E0,-4.2795637E-1,2.2927514E-1,-5.996111E-1,-9.7429015E-2,8.913544E-1,5.097319E-1,-4.0745232E-1,-2.930908E-1,-8.885847E-1,1.0376984E0,1.8935813E-1,1.0937014E0,4.6062127E-1,-7.6657034E-2,4.6039563E-1,1.1347092E0,2.2248287E-1,8.126666E-1,-2.9867452E-1,4.895558E-1,1.0908872E0,9.552222E-1,4.510963E-1,1.3815877E0,1.2077441E0,3.1363443E-1,8.261102E-1,1.4966486E0,1.1714501E0,9.0387374E-1,-2.7099943E-1,-3.2266966E-1,3.8199902E-1,1.0437081E0,4.333759E-1,-1.0245208E0,-1.8913676E-1,-1.677069E-1,7.4582756E-1,-1.84017E-1,-7.207837E-1,-1.7710668E-1,1.0411234E0,-7.2564924E-1,5.7520967E-2,5.75829E-1,-2.651493E-1,3.396484E-1,-5.314304E-1,9.9787635E-1,-0E0,-1.1833743E0,-3.9254475E-1,2.1040766E-1,-5.859845E-1,-1.3879461E0,-5.683355E-1,-1.2317644E0,4.0325403E-1,-7.6908547E-1,1.5284569E-2,-1.3823144E0,-1.3062953E0,-1.3330312E-1,-1.2388343E0,-1.1532351E0,-1.1899161E0,-1.2049053E0,1.3671327E-1,-4.0164772E-1,-1.3178953E0,-1.2791827E0,-1.3314064E0,-1.7836614E-1,-1.0025254E0,-1.2001805E0,-8.126414E-2,-1.2788385E0,-1.145463E0,-1.3266195E0,-8.603814E-1,-1.4138027E0,-8.182675E-1],"categories":[],"categories_nodes":[],"categories_segments":[],"categories_sizes":[],"default_left":[true,true,true,true,true,true,true,true,true,true,true,true,true,true,true,true,true,true,true,true,true,true,true,true,true,true,true,true,true,true,true,false,false,true,true,true,true,true,true,true,true,true,true,true,true,true,true,true,true,true,true,true,false,false,false,true,true,true,false,true,false,true,false,true,true,false,true,false,true,true,true,true,true,true,true,true,true,true,true,false,true,true,true,true,true,true,true,true,false,true,true,false,true,true,true,true,true,false,false,false,false,true,true,true,true,true,true,true,false,true,true,false,false,false,false,true,true,false,true,false,false,false,false,true,false,false,true,true,true,true,false,false,true,true,true,true,true,false,true,false,false,true,false,true,true,false,false,true,false,true,true,true,true,true,false,true,true,true,false,false,false,true,true,true,false,true,true,false,false,true,false,true,true,true,true,true,true,true,true,true,true,false,true,true,false,false,false,false,false,false,false,false,false,false,false,false,false,false,false,false,false,false,false,false,false,false,false,false,false,false,false,false,false,false,false,false,false,false,false,false,false,false,false,false,false,false,false,false,false,false,false,false,false,false,false,false,false,false,false,false,false,false,false,false,false,false,false,false,false,false,false,false,false,false,false,false,false,false,false,false,false,false,false,false,false,false,false,false,false,false,false,false,false,false,false],"id":2,"left_children":[1,3,5,7,9,11,13,15,17,19,21,23,25,27,29,31,33,35,37,39,41,43,45,47,49,51,53,55,57,59,61,-1,-1,63,65,67,69,71,73,75,77,79,81,83,85,87,89,91,93,95,97,99,-1,-1,-1,101,103,105,-1,107,-1,109,-1,111,113,-1,115,-1,117,119,121,123,125,127,129,131,133,135,137,-1,139,141,143,145,147,149,151,153,-1,155,157,-1,159,161,163,165,167,-1,-1,-1,-1,169,171,173,175,177,179,181,-1,183,185,-1,-1,-1,-1,187,189,-1,191,-1,-1,-1,-1,193,-1,-1,195,197,199,201,-1,-1,203,205,207,209,211,-1,213,-1,-1,215,-1,217,219,-1,-1,221,-1,223,225,227,229,231,-1,233,235,237,-1,-1,-1,239,241,243,-1,245,247,-1,-1,249,-1,251,253,255,257,259,261,263,265,267,269,-1,271,273,-1,-1,-1,-1,-1,-1,-1,-1,-1,-1,-1,-1,-1,-1,-1,-1,-1,-1,-1,-1,-1,-1,-1,-1,-1,-1,-1,-1,-1,-1,-1,-1,-1,-1,-1,-1,-1,-1,-1,-1,-1,-1,-1,-1,-1,-1,-1,-1,-1,-1,-1,-1,-1,-1,-1,-1,-1,-1,-1,-1,-1,-1,-1,-1,-1,-1,-1,-1,-1,-1,-1,-1,-1,-1,-1,-1,-1,-1,-1,-1,-1,-1,-1,-1,-1,-1,-1,-1,-1,-1,-1],"loss_changes":[6.6459E4,6.295654E2,6.9374375E3,4.7639732E1,1.2476367E2,5.03125E1,4.5534375E2,4.776802E0,7.2090592E0,8.076953E1,1.7124668E1,4.975E1,5.192383E0,4.916797E1,2.7753906E1,1.8300629E-1,2.0744228E0,4.587331E0,3.1973839E0,1.1752274E1,2.5251953E1,5.863842E0,4.418415E0,3.1715055E0,7E0,6.040039E-1,8.7890625E-2,5.626953E1,4.899414E0,6.640625E-1,9.457031E0,0E0,0E0,1.0106766E0,1.3056946E-1,1.3776102E0,2.865585E0,2.4672832E0,2.7704148E0,2.9978561E0,6.903076E-1,6.8740234E0,1.9092407E0,8.332138E-1,2.7346168E0,1.4492602E0,3.5932515E0,3.6704457E0,4.7818737E0,2.8125E0,5.46875E-2,5.179777E-1,0E0,0E0,0E0,3.166748E0,4.0585938E0,1.2519531E0,0E0,6.4941406E-1,0E0,1.9648438E0,0E0,1.0528402E0,1.1083391E0,0E0,1.4123306E0,0E0,1.3543577E0,4.3749213E-1,9.0749514E-1,1.7034047E0,6.18588E-1,4.4480453E0,2.0111036E-1,2.5444984E-1,3.3975677E0,1.3552971E0,1.4272308E0,0E0,2.1777344E-1,4.5489502E-1,3.570465E0,1.7054558E-1,8.912239E-1,1.5959759E0,2.9521294E0,2.3143344E0,0E0,2.0776992E0,4.7748027E0,0E0,2.827873E0,2.9352E0,1.0910549E0,2.5226746E0,1.25E-1,0E0,0E0,0E0,0E0,1.6327515E0,2.7211914E0,3.3476562E0,2.4387798E0,1.7988281E0,1.5976562E0,6.850586E-1,0E0,9.6484375E-1,1.9392037E0,0E0,0E0,0E0,0E0,6.798476E-1,5.9065914E-1,0E0,1.988059E0,0E0,0E0,0E0,0E0,8.655729E-1,0E0,0E0,1.9341722E0,2.4311032E0,3.2937908E-1,3.2414746E-1,0E0,0E0,1.305027E-1,1.803484E0,9.8087597E-1,2.2497187E0,1.577919E0,0E0,2.723918E-1,0E0,0E0,2.1636963E-2,0E0,6.441088E-1,3.863678E-1,0E0,0E0,4.3205786E0,0E0,6.768792E-1,1.7361965E0,3.107462E-1,1.1412935E0,1.3804007E-1,0E0,2.858318E0,2.661877E0,2.785529E0,0E0,0E0,0E0,1.6714361E0,6.8799734E-1,2.2878456E-1,0E0,7.404603E-1,4.043579E-2,0E0,0E0,5.3632545E0,0E0,8.5512567E-1,3.1811523E-1,2.4335938E0,4.1015625E0,2.7863216E0,2.3453717E0,1.4726562E0,1.538569E0,1.9830933E0,1.2504883E0,0E0,4.5974884E0,3.1777344E0,0E0,0E0,0E0,0E0,0E0,0E0,0E0,0E0,0E0,0E0,0E0,0E0,0E0,0E0,0E0,0E0,0E0,0E0,0E0,0E0,0E0,0E0,0E0,0E0,0E0,0E0,0E0,0E0,0E0,0E0,0E0,0E0,0E0,0E0,0E0,0E0,0E0,0E0,0E0,0E0,0E0,0E0,0E0,0E0,0E0,0E0,0E0,0E0,0E0,0E0,0E0,0E0,0E0,0E0,0E0,0E0,0E0,0E0,0E0,0E0,0E0,0E0,0E0,0E0,0E0,0E0,0E0,0E0,0E0,0E0,0E0,0E0,0E0,0E0,0E0,0E0,0E0,0E0,0E0,0E0,0E0,0E0,0E0,0E0,0E0,0E0,0E0,0E0,0E0,0E0,0E0],"parents":[2147483647,0,0,1,1,2,2,3,3,4,4,5,5,6,6,7,7,8,8,9,9,10,10,11,11,12,12,13,13,14,14,15,15,16,16,17,17,18,18,19,19,20,20,21,21,22,22,23,23,24,24,25,25,26,26,27,27,28,28,29,29,30,30,33,33,34,34,35,35,36,36,37,37,38,38,39,39,40,40,41,41,42,42,43,43,44,44,45,45,46,46,47,47,48,48,49,49,50,50,51,51,55,55,56,56,57,57,59,59,61,61,63,63,64,64,66,66,68,68,69,69,70,70,71,71,72,72,73,73,74,74,75,75,76,76,77,77,78,78,80,80,81,81,82,82,83,83,84,84,85,85,86,86,87,87,89,89,90,90,92,92,93,93,94,94,95,95,96,96,101,101,102,102,103,103,104,104,105,105,106,106,107,107,109,109,110,110,115,115,116,116,118,118,123,123,126,126,127,127,128,128,129,129,132,132,133,133,134,134,135,135,136,136,138,138,141,141,143,143,144,144,147,147,149,149,150,150,151,151,152,152,153,153,155,155,156,156,157,157,161,161,162,162,163,163,165,165,166,166,169,169,171,171,172,172,173,173,174,174,175,175,176,176,177,177,178,178,179,179,180,180,182,182,183,183],"right_children":[2,4,6,8,10,12,14,16,18,20,22,24,26,28,30,32,34,36,38,40,42,44,46,48,50,52,54,56,58,60,62,-1,-1,64,66,68,70,72,74,76,78,80,82,84,86,88,90,92,94,96,98,100,-1,-1,-1,102,104,106,-1,108,-1,110,-1,112,114,-1,116,-1,118,120,122,124,126,128,130,132,134,136,138,-1,140,142,144,146,148,150,152,154,-1,156,158,-1,160,162,164,166,168,-1,-1,-1,-1,170,172,174,176,178,180,182,-1,184,186,-1,-1,-1,-1,188,190,-1,192,-1,-1,-1,-1,194,-1,-1,196,198,200,202,-1,-1,204,206,208,210,212,-1,214,-1,-1,216,-1,218,220,-1,-1,222,-1,224,226,228,230,232,-1,234,236,238,-1,-1,-1,240,242,244,-1,246,248,-1,-1,250,-1,252,254,256,258,260,262,264,266,268,270,-1,272,274,-1,-1,-1,-1,-1,-1,-1,-1,-1,-1,-1,-1,-1,-1,-1,-1,-1,-1,-1,-1,-1,-1,-1,-1,-1,-1,-1,-1,-1,-1,-1,-1,-1,-1,-1,-1,-1,-1,-1,-1,-1,-1,-1,-1,-1,-1,-1,-1,-1,-1,-1,-1,-1,-1,-1,-1,-1,-1,-1,-1,-1,-1,-1,-1,-1,-1,-1,-1,-1,-1,-1,-1,-1,-1,-1,-1,-1,-1,-1,-1,-1,-1,-1,-1,-1,-1,-1,-1,-1,-1,-1],"split_conditions":[2.1342994E-4,4.5801753E-5,1.1512844E-1,2.7730313E-5,1.9224273E-4,9.6548975E-2,3.858639E-1,1.6513557E-5,4.677419E-1,6.761211E-5,2.0159004E-4,2.2402353E-4,1.05197564E-1,3.211858E-1,4.5100194E-1,1.25E-1,1.8383016E-5,4.330914E-5,4.583333E-1,5.57722E-5,1.6918607E-4,6.25E-1,2.0283634E-4,2.0833334E-1,7.281014E-2,9.656039E-2,1.0519935E-1,1.3133116E-1,3.858509E-1,4.509874E-1,6.925302E-1,-6.9914736E-2,-1.5477236E-1,4.583333E-1,4.583333E-1,1.25E-1,2.0967741E-1,3.6454454E-5,9.193548E-1,2.4193548E-1,6.138058E-5,8.319094E-5,1.8289543E-4,8.3333336E-2,7.9032254E-1,6.935484E-1,5.833334E-1,2.1561098E-4,2.1841517E-4,2.3648661E-4,7.281159E-2,9.166666E-1,-1.6023919E-1,-4.779505E-2,-1.5189968E-1,1.17903575E-1,3.2092738E-1,9.997513E-1,2.6268104E-2,4.0628844E-1,-3.5377707E-2,6.922415E-1,-1.536155E-1,9.997513E-1,6.666666E-1,-1.2595758E-1,5.416666E-1,1.5944712E-2,2.897662E-5,4.166667E-1,5.833334E-1,2.916667E-1,6.612903E-1,7.9032254E-1,5.833334E-1,4.704806E-5,8.8709676E-1,8.064516E-2,8.8709676E-1,1.4308195E-1,1.5360725E-4,6.612903E-1,1.1290322E-1,1.9348905E-4,3.75E-1,1.1290322E-1,4.166667E-1,6.2903225E-1,-9.7620845E-2,2.916667E-1,7.916666E-1,-8.012199E-2,5.16129E-1,7.9032254E-1,8.75E-1,8.3333336E-2,4.0566333E-2,-5.8692463E-2,-1.6552751E-1,-1.0382501E-1,-1.8163651E-2,1.1533704E-1,1.1795525E-1,1.4852443E-1,4.677419E-1,3.8572136E-1,3.2932657E-1,4.0531108E-1,-1.3657945E-1,5.904118E-1,3.7096775E-1,-1.0523567E-1,1.8452011E-3,6.2326558E-2,-3.5144653E-2,4.166667E-1,8.548387E-1,1.982711E-2,3.707761E-5,1.982711E-2,1.12729825E-1,1.5944712E-2,-7.095779E-2,2.0833334E-1,6.0801394E-2,1.1617942E-1,7.9032254E-1,7.5E-1,8.548387E-1,9.997513E-1,1.5192004E-2,2.9340023E-2,5.4525895E-5,8.3333336E-2,5.3902746E-5,5.888797E-5,8.3333336E-2,1.2414562E-1,4.166667E-1,1.5892875E-1,1.5223926E-1,4.0322578E-1,1.4843951E-1,6.25E-1,2.0833334E-1,5.824372E-2,1.5205625E-1,1.9972058E-4,1.14911035E-1,4.166667E-1,1.9598164E-4,1.9847427E-4,1.953585E-4,4.1935483E-1,7.175247E-2,2.0906786E-4,4.583333E-1,2.0844472E-4,1.2144246E-1,1.0818031E-1,-3.5377707E-2,3.75E-1,9.354838E-1,2.230888E-4,-1.5944708E-2,4.583333E-1,9.583334E-1,-1.6819128E-1,-1.6740113E-1,1.15327746E-1,-1.4963226E-1,1.17944896E-1,1.2398271E-1,1.3134526E-1,1.9634047E-1,9.583334E-1,9.583334E-1,3.596486E-1,3.75E-1,3.2930923E-1,3.8341546E-1,-1.3355824E-1,6.935484E-1,5.9009176E-1,-1.4500216E-1,4.1098133E-2,-9.426609E-2,2.6348773E-2,-4.6138532E-2,-1.0553559E-1,-1.6706882E-2,-1.0923113E-1,-4.279564E-2,2.2927513E-2,-5.996111E-2,-9.742902E-3,8.913544E-2,5.0973188E-2,-4.0745232E-2,-2.9309079E-2,-8.885847E-2,1.0376984E-1,1.8935813E-2,1.09370135E-1,4.6062127E-2,-7.6657035E-3,4.6039563E-2,1.1347093E-1,2.2248289E-2,8.1266664E-2,-2.9867454E-2,4.8955582E-2,1.0908872E-1,9.552222E-2,4.510963E-2,1.3815878E-1,1.2077441E-1,3.1363443E-2,8.261102E-2,1.4966486E-1,1.1714502E-1,9.0387374E-2,-2.7099943E-2,-3.2266967E-2,3.81999E-2,1.0437081E-1,4.333759E-2,-1.0245208E-1,-1.8913677E-2,-1.677069E-2,7.4582756E-2,-1.8401701E-2,-7.207837E-2,-1.7710669E-2,1.0411234E-1,-7.256492E-2,5.752097E-3,5.7582904E-2,-2.651493E-2,3.396484E-2,-5.3143043E-2,9.978764E-2,-0E0,-1.1833743E-1,-3.9254475E-2,2.1040766E-2,-5.8598455E-2,-1.3879462E-1,-5.6833547E-2,-1.2317645E-1,4.0325403E-2,-7.690855E-2,1.5284569E-3,-1.3823144E-1,-1.3062952E-1,-1.3330312E-2,-1.23883426E-1,-1.1532351E-1,-1.1899161E-1,-1.2049053E-1,1.3671326E-2,-4.0164772E-2,-1.3178954E-1,-1.2791827E-1,-1.3314064E-1,-1.7836614E-2,-1.0025255E-1,-1.2001806E-1,-8.126414E-3,-1.2788385E-1,-1.145463E-1,-1.3266195E-1,-8.603814E-2,-1.4138028E-1,-8.1826754E-2],"split_indices":[0,0,0,0,0,0,0,0,1,0,0,0,0,0,0,2,0,0,2,0,0,2,0,2,0,0,0,0,0,0,0,0,0,2,2,2,1,0,1,1,0,0,0,4,1,1,4,0,0,0,0,4,0,0,0,0,0,3,0,0,0,0,0,3,2,0,2,0,0,4,4,2,1,1,4,0,1,1,1,0,0,1,1,0,2,1,4,1,0,2,2,0,1,1,2,4,0,0,0,0,0,0,0,0,1,0,0,0,0,0,1,0,0,0,0,4,1,0,0,0,0,0,0,2,0,0,1,4,1,3,0,0,0,4,0,0,4,0,4,0,0,1,0,2,2,0,0,0,0,4,0,0,0,1,0,0,2,0,0,0,0,2,1,0,0,2,2,0,0,0,0,0,0,0,0,2,2,0,2,0,0,0,1,0,0,0,0,0,0,0,0,0,0,0,0,0,0,0,0,0,0,0,0,0,0,0,0,0,0,0,0,0,0,0,0,0,0,0,0,0,0,0,0,0,0,0,0,0,0,0,0,0,0,0,0,0,0,0,0,0,0,0,0,0,0,0,0,0,0,0,0,0,0,0,0,0,0,0,0,0,0,0,0,0,0,0,0,0,0,0,0,0,0,0,0],"split_type":[0,0,0,0,0,0,0,0,0,0,0,0,0,0,0,0,0,0,0,0,0,0,0,0,0,0,0,0,0,0,0,0,0,0,0,0,0,0,0,0,0,0,0,0,0,0,0,0,0,0,0,0,0,0,0,0,0,0,0,0,0,0,0,0,0,0,0,0,0,0,0,0,0,0,0,0,0,0,0,0,0,0,0,0,0,0,0,0,0,0,0,0,0,0,0,0,0,0,0,0,0,0,0,0,0,0,0,0,0,0,0,0,0,0,0,0,0,0,0,0,0,0,0,0,0,0,0,0,0,0,0,0,0,0,0,0,0,0,0,0,0,0,0,0,0,0,0,0,0,0,0,0,0,0,0,0,0,0,0,0,0,0,0,0,0,0,0,0,0,0,0,0,0,0,0,0,0,0,0,0,0,0,0,0,0,0,0,0,0,0,0,0,0,0,0,0,0,0,0,0,0,0,0,0,0,0,0,0,0,0,0,0,0,0,0,0,0,0,0,0,0,0,0,0,0,0,0,0,0,0,0,0,0,0,0,0,0,0,0,0,0,0,0,0,0,0,0,0,0,0,0,0,0,0,0,0,0,0,0,0,0,0,0,0,0,0,0,0,0,0,0,0,0,0,0],"sum_hessian":[2.8464434E5,7.2565566E3,2.7738778E5,1.3592406E2,7.1206323E3,2.1796647E5,5.942131E4,6.657164E1,6.935242E1,6.9863047E3,1.3432806E2,2.1335323E5,4.613239E3,3.677897E4,2.264234E4,3.6905098E1,2.9666546E1,3.0544018E1,3.8808403E1,2.4406947E2,6.742235E3,8.237251E1,5.1955547E1,3.4456436E1,2.1331878E5,2.7330776E3,1.8801614E3,2.6993588E4,9.785383E3,8.486042E3,1.4156298E4,2.6707635E0,3.4234333E1,5.484669E0,2.4181877E1,2.433052E1,6.2134967E0,1.6398401E1,2.2410002E1,7.942244E1,1.6464703E2,6.252868E3,4.89367E2,4.956764E1,3.2804874E1,7.7027044E0,4.4252846E1,6.1911044E0,2.8265333E1,1.9404352E5,1.927526E4,4.58729E0,2.7284905E3,1.2106783E0,1.8789507E3,1.8499528E3,2.5143635E4,9.78364E3,1.743049E0,8.484544E3,1.4977436E0,1.32336E4,9.2269824E2,2.7402802E0,2.744389E0,8.353042E0,1.5828835E1,1.7494578E0,2.2581062E1,2.9730442E0,3.2404528E0,5.9848123E0,1.0413589E1,1.8677343E1,3.7326581E0,1.827746E1,6.114498E1,6.471053E1,9.99365E1,4.409573E2,5.8119106E3,3.536588E2,1.357082E2,1.0005038E1,3.95626E1,2.6084595E1,6.7202787E0,4.4780607E0,3.2246437E0,2.4421295E1,1.9831549E1,1.736495E0,4.4546094E0,1.4697482E1,1.3567852E1,2.9845905E1,1.9401367E5,1.4470252E0,1.9273812E4,3.1386719E0,1.4486178E0,3.7344678E2,1.476506E3,2.5102041E4,4.1594135E1,4.8700005E3,4.9136396E3,2.882619E3,5.6019253E3,1.3231167E4,2.432486E0,1.24294E0,1.4973401E0,1.2478182E0,1.4965708E0,3.7305892E0,1.2098246E1,1.2494167E0,2.1331646E1,1.2494167E0,1.7236276E0,1.7494578E0,1.4909948E0,3.9933624E0,1.99145E0,3.4505126E0,6.9630756E0,1.0973805E1,7.703539E0,2.4898195E0,1.2428386E0,1.481784E0,1.6795675E1,5.0269947E1,1.0875035E1,6.1615143E0,5.854902E1,8.986679E1,1.0069704E1,5.1236978E3,6.8821295E2,2.333978E2,1.2026101E2,1.3179217E1,1.2252899E2,1.9917107E0,8.013328E0,2.2984386E1,1.6578213E1,3.4980488E0,2.2586546E1,2.4903321E0,4.2299466E0,3.2366862E0,1.2413746E0,6.2076526E0,1.8213642E1,1.3942819E1,5.8887305E0,2.956866E0,1.4977436E0,1.2461981E1,2.2355013E0,1.1818394E1,1.7494577E0,3.2401423E0,2.6605762E1,1.1852833E5,7.548534E4,2.8934704E1,3.4451205E2,7.3648896E0,1.4691411E3,1.640984E3,2.3461057E4,1.8966139E1,2.2627995E1,4.8584194E3,1.1580976E1,6.203003E2,4.2933394E3,2.753145E3,1.294739E2,1.0465187E4,2.76598E3,1.216243E0,1.216243E0,1.247882E0,2.482707E0,1.0852788E1,1.2454576E0,8.862183E0,1.2469463E1,1.2496371E0,2.7437253E0,2.9849012E0,3.9781744E0,7.479446E0,3.4943588E0,2.7316983E0,4.971841E0,1.242841E0,1.2469784E0,1.43122635E1,2.4834118E0,6.9762497E0,4.3293697E1,8.895328E0,1.9797078E0,3.9378135E0,2.223701E0,7.3783474E0,5.117067E1,3.6777718E0,6.3919325E0,1.3427698E2,9.912082E1,6.4771156E0,6.7021017E0,2.0891027E1,1.0163797E2,1.9766571E1,3.2178147E0,1.9988949E0,1.4991537E0,9.370899E0,1.3215646E1,1.2414467E0,1.2488853E0,1.7460778E0,2.4838688E0,1.74901E0,1.4876763E0,3.4941719E0,2.7134805E0,5.484328E0,1.2729314E1,7.2277803E0,6.715039E0,1.9988902E0,1.046309E1,1.2355013E0,1E0,1.0096237E1,1.7221574E0,1.2486483E0,1.991494E0,2.461712E1,1.988641E0,2.7234259E1,1.7004455E0,5.656762E0,1.7081277E0,7.125584E2,7.5658264E2,2.2495039E0,1.6387345E3,5.2662207E3,1.8194836E4,1.7486233E1,1.4799063E0,1.9911476E1,2.716518E0,2.9492266E3,1.9091927E3,3.7211397E0,7.8598356E0,6.185613E2,1.7390057E0,4.126289E3,1.6705006E2,9.0874664E1,3.8599243E1,1.0451574E4,1.3612391E1],"tree_param":{"num_deleted":"0","num_feature":"5","num_nodes":"275","size_leaf_vector":"0"}},{"base_weights":[-1.4129514E0,1.3716618E0,-1.4860449E0,-6.0015243E-1,1.4100657E0,-1.5689868E0,-1.190425E0,-1.1615068E0,-6.1007112E-2,1.4277489E0,5.07917E-1,-5.408578E-1,-1.5691957E0,-1.126463E0,-1.2967542E0,-1.4619777E0,-8.766422E-1,-3.8831672E-1,1.9936208E-1,8.8069177E-1,1.4477998E0,7.667918E-1,9.335552E-2,-1.4328274E-1,-7.594752E-1,-1.5713156E0,-1.491145E0,-1.3323916E0,-1.1164463E0,-1.2509638E0,-1.3240714E0,-7.536384E-1,-1.2477078E0,-5.3971994E-1,3.882197E-1,4.4984317E-1,-8.597604E-2,5.7636774E-1,1.0246364E0,1.4652485E0,1.2243795E0,9.7038084E-1,4.418874E-1,-5.1339686E-1,2.0807698E-1,6.0554093E-1,-2.691597E-1,-2.8715566E-1,-1.1128764E0,-1.5730689E0,-1.5518208E0,-1.5130271E0,-1.4418463E0,-1.375049E0,-1.2735156E0,-1.0919758E0,-1.1812961E0,-1.2511505E0,2.4247652E-2,-1.3168352E0,-1.4345056E0,-9.1652197E-1,-3.642878E-1,-4.838364E-1,-1.4274141E0,-8.0225796E-1,-2.2715716E-1,8.5608184E-1,-3.3277795E-1,-9.069283E-1,6.364374E-1,-2.2897072E-1,4.805298E-1,9.3448085E-1,4.6979606E-1,8.9404356E-1,1.0996997E0,1.3265175E0,1.475601E0,1.2732321E0,1.0893364E0,1.8772179E-1,9.987481E-1,5.89954E-1,-3.344617E-2,-1.1712072E-1,-9.074338E-1,-8.038147E-2,4.433551E-1,-5.831577E-1,1.6529378E-1,-4.8431018E-1,5.6683373E-1,-1.2556705E0,-3.1674114E-1,-1.2149367E0,-1.5731014E0,-3.3047608E-1,-1.5135164E0,-3.4310642E-1,-1.4428389E0,-1.1301045E-1,-1.3767711E0,-5.442741E-1,-1.2751455E0,-1.1727139E0,-1.0855635E0,-1.1815822E0,2.4574462E-1,-1.2279617E0,-1.2629619E0,-1.3169637E0,5.4141793E-2,-6.16001E-1,-1.1561642E0,-1.0002903E0,-1.3241522E-1,-6.0844768E-2,-1.0163171E0,-5.0589544E-1,1.8334022E-1,1.0792545E0,3.092691E-1,2.3874637E-1,7.6708305E-1,1.4240871E-1,-7.131159E-1,-4.7929563E-2,7.8781694E-1,9.897736E-1,4.291199E-1,3.1176546E-1,7.788103E-1,3.928842E-1,9.3965536E-1,1.1423777E0,6.5306973E-1,1.483127E0,1.4175543E0,1.2133548E0,1.3787487E0,5.636867E-1,1.1416376E0,1.3146844E0,8.834884E-1,1.9305256E-1,7.4923617E-1,-1.0451912E0,2.6553077E-1,-5.1091665E-1,6.770643E-1,4.6437776E-1,-6.530034E-1,5.218486E-2,8.462117E-1,-2.2210975E-1,-7.6293546E-1,5.9416664E-1,-2.7863857E-1,-2.795611E-1,-9.202917E-1,2.5072497E-1,-7.0266974E-1,-1.2640347E0,-4.1818354E-1,-1.5757716E0,-1.5676339E0,-9.6399075E-1,-1.3817616E0,-1.1870809E0,-1.0041376E0,-1.0861478E0,-7.8011006E-1,-1.1601365E0,-1.1946477E0,-1.228728E0,2.8208598E-1,-1.4251351E0,-1.2603556E0,-1.3090961E0,-1.345708E0,-7.67524E-1,3.354879E-1,-6.1645005E-3,-1.3089345E0,-5.2631706E-1,3.7602133E-1,-4.5613214E-1,3.9738336E-1,-1.237863E0,-2.5581393E-1,2.8331015E-1,-6.828157E-1,-4.568694E-1,5.34628E-1,-1.4769047E-1,7.861344E-1,1.1954358E0,4.6809065E-1,-2.4876945E-1,6.286502E-1,-9.019246E-1,-3.3221972E-1,4.8003262E-1,1.1126547E0,5.5674547E-1,1.0962688E-1,-4.2986128E-1,4.349539E-1,9.570194E-1,-1.4318272E-1,-2.0132753E-1,8.588319E-1,4.4925895E-1,1.0009222E0,3.518554E-1,8.1719834E-1,1.4286953E0,1.4919637E0,1.2783891E0,1.1134299E0,2.869414E-1,7.6021105E-1,1.395978E0,1.0766112E0,5.454092E-1,1.4264472E0,9.794799E-1,5.7802695E-1,4.8808277E-1,-6.2565726E-1,1.0380449E0,4.419807E-1,8.498351E-1,-2.2633728E-1,-1.7231525E-1,-6.803244E-1,1.1446917E-1,7.654047E-1,-2.968997E-1,-1.0799497E0,2.8796363E-1,-6.5316504E-1,4.1684568E-1,1.1308575E0,-5.882423E-1,1.0227593E-1,-9.319781E-1,-7.925607E-2,4.498191E-2,9.0365857E-1,3.5439745E-1,-7.5212145E-1,1.15058785E-2,-7.6175404E-1,-5.9556997E-1,-1.5676498E0,5.110043E-1,-1.3160806E0,-1.1804668E0,-1.5626683E0,-1.0537162E0,-6.806442E-1,-1.0770874E0,-1.1071993E0,-1.0783737E0,-6.179647E-1,-1.16308E0,-7.022084E-1,-1.3500943E0,-1.192377E0,-1.2334541E0,-1.1241503E0,-5.195462E-1,-1.2608181E0,-1.3097643E0,-7.4875844E-1],"categories":[],"categories_nodes":[],"categories_segments":[],"categories_sizes":[],"default_left":[true,true,true,true,true,true,true,true,true,true,true,true,true,true,true,false,true,true,true,true,true,true,true,true,true,true,true,true,true,true,true,true,true,true,true,true,true,true,true,true,true,true,true,true,true,false,true,true,true,true,false,true,true,true,true,true,true,true,false,true,false,true,true,false,false,true,true,true,false,false,true,true,true,true,true,true,true,false,true,true,true,false,true,true,true,true,false,true,true,true,true,true,false,false,true,true,true,false,false,false,false,false,true,false,false,true,true,true,false,true,true,true,false,true,true,false,true,true,true,true,true,false,false,true,true,true,true,false,false,true,true,true,true,true,true,false,true,true,false,true,false,true,true,true,true,true,true,false,true,true,false,true,true,true,true,true,true,true,true,true,false,false,false,false,false,false,true,true,false,true,true,true,true,true,true,true,false,false,true,true,false,false,false,false,false,false,false,false,false,false,false,false,false,false,false,false,false,false,false,false,false,false,false,false,false,false,false,false,false,false,false,false,false,false,false,false,false,false,false,false,false,false,false,false,false,false,false,false,false,false,false,false,false,false,false,false,false,false,false,false,false,false,false,false,false,false,false,false,false,false,false,false,false,false,false,false,false,false,false,false,false,false,false,false,false,false,false,false,false,false,false,false,false,false,false,false,false],"id":3,"left_children":[1,3,5,7,9,11,13,15,17,19,21,23,25,27,29,-1,31,33,35,37,39,41,43,45,47,49,51,53,55,57,59,61,63,65,67,69,71,73,75,77,79,81,83,85,87,-1,89,91,93,95,-1,97,99,101,103,105,107,109,-1,111,-1,113,115,-1,-1,117,119,121,-1,-1,123,125,127,129,131,133,135,-1,137,139,141,-1,143,145,147,149,-1,151,153,155,157,159,-1,-1,161,163,165,-1,-1,-1,-1,-1,167,-1,-1,169,171,173,-1,175,177,179,-1,181,183,-1,185,187,189,191,193,-1,-1,195,197,199,201,-1,-1,203,205,207,209,211,213,-1,215,217,-1,219,-1,221,223,225,227,229,231,-1,233,235,-1,237,239,241,243,245,247,249,251,253,-1,-1,-1,-1,-1,-1,255,257,-1,259,261,263,265,267,269,271,-1,-1,273,275,-1,-1,-1,-1,-1,-1,-1,-1,-1,-1,-1,-1,-1,-1,-1,-1,-1,-1,-1,-1,-1,-1,-1,-1,-1,-1,-1,-1,-1,-1,-1,-1,-1,-1,-1,-1,-1,-1,-1,-1,-1,-1,-1,-1,-1,-1,-1,-1,-1,-1,-1,-1,-1,-1,-1,-1,-1,-1,-1,-1,-1,-1,-1,-1,-1,-1,-1,-1,-1,-1,-1,-1,-1,-1,-1,-1,-1,-1,-1,-1,-1,-1,-1,-1,-1,-1,-1,-1,-1,-1,-1,-1,-1,-1,-1,-1,-1],"loss_changes":[5.5956312E4,5.333506E2,6.5663125E3,4.080043E1,1.0931836E2,4.40625E1,3.9773438E2,4.3764343E0,6.0378056E0,7.292871E1,1.4326744E1,3.7182446E0,3.228125E1,7.4125E1,2.5910156E1,0E0,7.2247505E-1,3.892529E0,2.8699694E0,9.998779E0,2.3639648E1,5.0250893E0,3.7759862E0,1.7516675E0,4.3836956E0,4.53125E0,3.8046875E0,2.5061035E0,5.4195312E1,1.9941406E0,9.128906E0,1.5614834E0,3.4501553E-1,2.0032692E0,2.2052228E0,5.958505E0,1.6781738E0,2.6107044E0,6.129303E-1,6.7265625E0,1.7710571E0,9.1934204E-1,2.384419E0,1.2475433E0,3.0925448E0,0E0,2.159176E0,2.53188E0,1.3950367E0,2.5E-1,0E0,1.7128906E0,1.388916E0,1.9533691E0,1.6870117E-1,1.1875E1,4.196289E0,7.089844E-1,0E0,2.3515625E0,0E0,7.5779533E-1,1.4122769E0,0E0,0E0,2.1727371E0,1.6435306E0,1.2169552E-1,0E0,0E0,8.1826353E-1,3.002451E0,7.2372276E-1,5.9113503E-2,2.8627176E0,1.1115494E0,1.1419144E0,0E0,3.5253906E-1,5.105591E-1,3.0429077E0,0E0,5.819359E-1,1.4783182E0,2.9776776E0,2.0569584E0,0E0,6.8791847E0,3.8893714E0,4.14603E-1,1.5216928E0,7.6320696E-1,0E0,0E0,9.9428666E-1,3.0527878E-1,2.8125E-1,0E0,0E0,0E0,0E0,0E0,6.641846E-1,0E0,0E0,3.303711E0,3.3535156E0,1.2939453E0,0E0,3.6113281E0,5.0097656E-1,1.1679688E0,0E0,1.8716455E0,1.7866783E0,0E0,1.9660802E0,9.4528747E-1,1.5134115E0,1.3576665E0,1.6420283E0,0E0,0E0,1.4313734E0,1.240632E0,2.0515697E0,2.1601176E-1,0E0,0E0,3.95586E-1,8.05825E-2,4.1833744E0,3.5628824E0,2.1448617E0,1.3126106E0,0E0,2.549796E-1,2.5097656E-1,0E0,6.359863E-2,0E0,5.4925203E-1,4.9795532E-1,1.4615059E-1,5.518322E-1,2.406596E0,1.136075E0,0E0,2.4018085E0,1.2525928E-1,0E0,1.1118624E0,1.3051162E0,2.471482E0,1.0234728E0,5.829575E-1,5.729146E-1,6.2939227E-1,1.5196567E0,1.3021014E0,0E0,0E0,0E0,0E0,0E0,0E0,1.5625E-2,8.401593E0,0E0,2.3903809E0,1.724823E0,3.2871094E0,1.6787205E0,4.11084E0,4.765625E-1,7.3242188E-3,0E0,0E0,1.1796875E0,2.8398438E0,0E0,0E0,0E0,0E0,0E0,0E0,0E0,0E0,0E0,0E0,0E0,0E0,0E0,0E0,0E0,0E0,0E0,0E0,0E0,0E0,0E0,0E0,0E0,0E0,0E0,0E0,0E0,0E0,0E0,0E0,0E0,0E0,0E0,0E0,0E0,0E0,0E0,0E0,0E0,0E0,0E0,0E0,0E0,0E0,0E0,0E0,0E0,0E0,0E0,0E0,0E0,0E0,0E0,0E0,0E0,0E0,0E0,0E0,0E0,0E0,0E0,0E0,0E0,0E0,0E0,0E0,0E0,0E0,0E0,0E0,0E0,0E0,0E0,0E0,0E0,0E0,0E0,0E0,0E0,0E0,0E0,0E0,0E0,0E0,0E0,0E0,0E0,0E0,0E0,0E0,0E0,0E0,0E0,0E0,0E0,0E0,0E0],"parents":[2147483647,0,0,1,1,2,2,3,3,4,4,5,5,6,6,7,7,8,8,9,9,10,10,11,11,12,12,13,13,14,14,16,16,17,17,18,18,19,19,20,20,21,21,22,22,23,23,24,24,25,25,26,26,27,27,28,28,29,29,30,30,31,31,32,32,33,33,34,34,35,35,36,36,37,37,38,38,39,39,40,40,41,41,42,42,43,43,44,44,46,46,47,47,48,48,49,49,51,51,52,52,53,53,54,54,55,55,56,56,57,57,59,59,61,61,62,62,65,65,66,66,67,67,70,70,71,71,72,72,73,73,74,74,75,75,76,76,78,78,79,79,80,80,82,82,83,83,84,84,85,85,87,87,88,88,89,89,90,90,91,91,94,94,95,95,96,96,102,102,105,105,106,106,107,107,109,109,110,110,111,111,113,113,114,114,116,116,117,117,118,118,119,119,120,120,123,123,124,124,125,125,126,126,129,129,130,130,131,131,132,132,133,133,134,134,136,136,137,137,139,139,141,141,142,142,143,143,144,144,145,145,146,146,148,148,149,149,151,151,152,152,153,153,154,154,155,155,156,156,157,157,158,158,159,159,166,166,167,167,169,169,170,170,171,171,172,172,173,173,174,174,175,175,178,178,179,179],"right_children":[2,4,6,8,10,12,14,16,18,20,22,24,26,28,30,-1,32,34,36,38,40,42,44,46,48,50,52,54,56,58,60,62,64,66,68,70,72,74,76,78,80,82,84,86,88,-1,90,92,94,96,-1,98,100,102,104,106,108,110,-1,112,-1,114,116,-1,-1,118,120,122,-1,-1,124,126,128,130,132,134,136,-1,138,140,142,-1,144,146,148,150,-1,152,154,156,158,160,-1,-1,162,164,166,-1,-1,-1,-1,-1,168,-1,-1,170,172,174,-1,176,178,180,-1,182,184,-1,186,188,190,192,194,-1,-1,196,198,200,202,-1,-1,204,206,208,210,212,214,-1,216,218,-1,220,-1,222,224,226,228,230,232,-1,234,236,-1,238,240,242,244,246,248,250,252,254,-1,-1,-1,-1,-1,-1,256,258,-1,260,262,264,266,268,270,272,-1,-1,274,276,-1,-1,-1,-1,-1,-1,-1,-1,-1,-1,-1,-1,-1,-1,-1,-1,-1,-1,-1,-1,-1,-1,-1,-1,-1,-1,-1,-1,-1,-1,-1,-1,-1,-1,-1,-1,-1,-1,-1,-1,-1,-1,-1,-1,-1,-1,-1,-1,-1,-1,-1,-1,-1,-1,-1,-1,-1,-1,-1,-1,-1,-1,-1,-1,-1,-1,-1,-1,-1,-1,-1,-1,-1,-1,-1,-1,-1,-1,-1,-1,-1,-1,-1,-1,-1,-1,-1,-1,-1,-1,-1,-1,-1,-1,-1,-1,-1],"split_conditions":[2.1342994E-4,4.5801753E-5,1.1108616E-1,2.7730313E-5,1.9224273E-4,2.2651616E-4,3.858639E-1,1.4020945E-5,4.677419E-1,6.761211E-5,2.0159004E-4,3.75E-1,9.26386E-2,1.2398271E-1,4.5080075E-1,-1.4619778E-1,7.9032254E-1,4.3932298E-5,5.416666E-1,5.57722E-5,1.6918607E-4,6.25E-1,2.0283634E-4,8.3333336E-2,2.1841517E-4,7.279137E-2,1.031083E-1,1.1770918E-1,3.211858E-1,4.5079774E-1,6.970005E-1,5E-1,9.997513E-1,5.833334E-1,5.833334E-1,2.9599772E-5,9.193548E-1,2.0967741E-1,6.138058E-5,8.319094E-5,1.8289543E-4,4.8387095E-2,7.580645E-1,6.935484E-1,4.583333E-1,6.0554095E-2,5.833334E-1,8.2258064E-1,8.75E-1,2.3648661E-4,-1.5518208E-1,9.264215E-2,1.0311222E-1,1.1109075E-1,1.1772883E-1,1.432474E-1,3.858509E-1,4.0633625E-1,2.4247651E-3,6.969563E-1,-1.4345056E-1,2.1498783E-5,1.6513557E-5,-4.8383642E-2,-1.4274141E-1,3.75E-1,3.770076E-5,2.5E-1,-3.3277795E-2,-9.069283E-2,3.6454454E-5,7.9032254E-1,3.9570223E-5,5.4525895E-5,7.9032254E-1,8.064516E-2,8.8709676E-1,1.3265175E-1,1.5360725E-4,6.612903E-1,1.1290322E-1,1.877218E-2,8.3333336E-2,2.0967741E-1,1.9411219E-4,6.2903225E-1,-9.0743385E-2,2.916667E-1,5.833334E-1,3.548387E-1,9.166666E-1,5.4838705E-1,5.6683373E-2,-1.2556706E-1,2.230888E-4,9.583334E-1,4.4331357E-2,-3.304761E-2,-1.5135165E-1,-3.4310643E-2,-1.4428389E-1,-1.1301045E-2,1.1118555E-1,-5.442741E-2,-1.2751456E-1,9.193548E-1,3.2088256E-1,3.4540814E-1,2.4574462E-2,4.063308E-1,4.069386E-1,5.904118E-1,5.4141795E-3,2.0875628E-5,2.0833334E-1,-1.0002903E-1,5.833334E-1,2.5E-1,8.75E-1,2.9599772E-5,3.75E-1,1.0792545E-1,3.0926911E-2,2.916667E-1,6.612903E-1,6.2903225E-1,7.916666E-1,-4.792956E-3,7.8781694E-2,2.916667E-1,3.333333E-1,8.3333336E-2,8.75E-1,4.166667E-1,8.3333336E-2,1.1423778E-1,5.416666E-1,9.8146615E-5,1.4175543E-1,4.0322578E-1,1.3787487E-1,6.25E-1,2.0833334E-1,1.9348905E-4,6.935484E-1,7.5E-1,1.9598164E-4,-1.0451912E-1,1.9660481E-4,4.1935483E-1,6.770643E-2,9.997513E-1,9.997513E-1,7.580645E-1,7.916666E-1,1.9354838E-1,7.9032254E-1,2.1966148E-4,5.16129E-1,7.916666E-1,-9.202918E-2,2.5072498E-2,-7.026698E-2,-1.2640348E-1,-4.1818354E-2,-1.5757716E-1,4.433205E-2,2.916667E-1,-1.3817616E-1,1.4295831E-1,1.4031872E-1,2.7379113E-1,3.7096775E-1,3.4526122E-1,3.458999E-1,4.0531108E-1,2.8208598E-2,-1.4251351E-1,4.069676E-1,5.9009176E-1,-1.345708E-1,-7.67524E-2,3.354879E-2,-6.1645004E-4,-1.3089345E-1,-5.2631706E-2,3.7602134E-2,-4.5613214E-2,3.973834E-2,-1.2378629E-1,-2.5581393E-2,2.8331015E-2,-6.828157E-2,-4.568694E-2,5.34628E-2,-1.47690475E-2,7.8613445E-2,1.19543575E-1,4.6809066E-2,-2.4876945E-2,6.286502E-2,-9.019246E-2,-3.322197E-2,4.8003264E-2,1.1126547E-1,5.567455E-2,1.0962688E-2,-4.298613E-2,4.349539E-2,9.570194E-2,-1.43182725E-2,-2.0132754E-2,8.588319E-2,4.4925895E-2,1.00092225E-1,3.5185542E-2,8.171984E-2,1.4286953E-1,1.4919637E-1,1.2783891E-1,1.1134299E-1,2.8694142E-2,7.6021105E-2,1.395978E-1,1.0766112E-1,5.454092E-2,1.4264472E-1,9.794799E-2,5.7802696E-2,4.8808277E-2,-6.256573E-2,1.0380449E-1,4.419807E-2,8.498351E-2,-2.263373E-2,-1.7231526E-2,-6.8032436E-2,1.1446917E-2,7.654047E-2,-2.9689971E-2,-1.0799497E-1,2.8796364E-2,-6.5316506E-2,4.1684568E-2,1.1308575E-1,-5.882423E-2,1.0227594E-2,-9.3197815E-2,-7.925607E-3,4.498191E-3,9.036586E-2,3.5439745E-2,-7.521214E-2,1.1505879E-3,-7.617541E-2,-5.9557E-2,-1.5676498E-1,5.1100433E-2,-1.3160805E-1,-1.1804668E-1,-1.5626684E-1,-1.0537162E-1,-6.806442E-2,-1.07708745E-1,-1.10719934E-1,-1.0783737E-1,-6.1796468E-2,-1.16307996E-1,-7.022084E-2,-1.3500944E-1,-1.192377E-1,-1.2334541E-1,-1.1241503E-1,-5.1954623E-2,-1.2608181E-1,-1.3097642E-1,-7.487585E-2],"split_indices":[0,0,0,0,0,0,0,0,1,0,0,2,0,0,0,0,1,0,2,0,0,2,0,4,0,0,0,0,0,0,0,1,3,4,4,0,1,1,0,0,0,1,1,1,2,0,4,1,2,0,0,0,0,0,0,0,0,0,0,0,0,0,0,0,0,2,0,4,0,0,0,1,0,0,1,1,1,0,0,1,1,0,4,1,0,1,0,2,4,1,4,1,0,0,0,2,0,0,0,0,0,0,0,0,0,1,0,0,0,0,0,0,0,0,2,0,4,4,2,0,2,0,0,2,1,1,2,0,0,2,2,4,2,4,4,0,2,0,0,1,0,2,2,0,1,4,0,0,0,1,0,3,3,1,2,1,1,0,1,2,0,0,0,0,0,0,0,2,0,0,0,0,1,0,0,0,0,0,0,0,0,0,0,0,0,0,0,0,0,0,0,0,0,0,0,0,0,0,0,0,0,0,0,0,0,0,0,0,0,0,0,0,0,0,0,0,0,0,0,0,0,0,0,0,0,0,0,0,0,0,0,0,0,0,0,0,0,0,0,0,0,0,0,0,0,0,0,0,0,0,0,0,0,0,0,0,0,0,0,0,0,0,0,0,0,0,0,0,0,0,0,0,0,0,0,0,0],"split_type":[0,0,0,0,0,0,0,0,0,0,0,0,0,0,0,0,0,0,0,0,0,0,0,0,0,0,0,0,0,0,0,0,0,0,0,0,0,0,0,0,0,0,0,0,0,0,0,0,0,0,0,0,0,0,0,0,0,0,0,0,0,0,0,0,0,0,0,0,0,0,0,0,0,0,0,0,0,0,0,0,0,0,0,0,0,0,0,0,0,0,0,0,0,0,0,0,0,0,0,0,0,0,0,0,0,0,0,0,0,0,0,0,0,0,0,0,0,0,0,0,0,0,0,0,0,0,0,0,0,0,0,0,0,0,0,0,0,0,0,0,0,0,0,0,0,0,0,0,0,0,0,0,0,0,0,0,0,0,0,0,0,0,0,0,0,0,0,0,0,0,0,0,0,0,0,0,0,0,0,0,0,0,0,0,0,0,0,0,0,0,0,0,0,0,0,0,0,0,0,0,0,0,0,0,0,0,0,0,0,0,0,0,0,0,0,0,0,0,0,0,0,0,0,0,0,0,0,0,0,0,0,0,0,0,0,0,0,0,0,0,0,0,0,0,0,0,0,0,0,0,0,0,0,0,0,0,0,0,0,0,0,0,0,0,0,0,0,0,0,0,0,0,0,0,0,0,0],"sum_hessian":[2.7490812E5,7.0310645E3,2.6787706E5,1.3404404E2,6.89702E3,2.0918255E5,5.8694523E4,6.5103935E1,6.894011E1,6.763857E3,1.331632E2,4.303134E1,2.0913952E5,3.665587E4,2.2038654E4,2.9673046E1,3.5430885E1,3.0325975E1,3.8614132E1,2.4073346E2,6.5231235E3,8.1451065E1,5.171213E1,1.58543005E1,2.7177042E1,2.0359086E5,5.548661E3,1.6941821E3,3.4961688E4,8.252374E3,1.378628E4,2.8886398E1,6.544488E0,2.5633177E1,4.692799E0,2.0256046E1,1.8358086E1,7.8909386E1,1.6182408E2,6.0454297E3,4.7769373E2,4.8852707E1,3.259836E1,7.6701546E0,4.4041977E1,1.7331955E0,1.4121105E1,1.24072895E1,1.47697525E1,1.8671873E5,1.6872117E4,3.8223572E3,1.7263038E3,9.694389E2,7.247433E2,2.5396426E4,9.565263E3,8.251185E3,1.1888219E0,1.2950611E4,8.3566907E2,1.9411629E1,9.47477E0,1.9496306E0,4.5948577E0,1.3079938E1,1.2553238E1,2.732377E0,1.9604223E0,1.9822441E0,1.8273802E1,1.51338825E1,3.2242026E0,1.6315565E1,6.2593815E1,6.3777096E1,9.804698E1,4.2876694E2,5.616663E3,3.4460327E2,1.3309045E2,1.9751632E0,4.6877544E1,2.467191E1,7.9264474E0,4.4709907E0,3.1991644E0,2.0080727E1,2.396125E1,7.9981923E0,6.1229124E0,1.0431848E1,1.9754422E0,1.2034116E1,2.7356372E0,2.0316387E1,1.8669842E5,1.8610016E0,3.8204963E3,1.8712593E0,1.7244326E3,1.4118049E0,9.680271E2,2.3632314E0,7.2238007E2,1.8551996E3,2.3541225E4,9.563517E3,1.7456367E0,2.8199329E3,5.431252E3,1.29494375E4,1.1736925E0,1.0195972E1,9.215657E0,1.6459992E0,7.82877E0,3.2180786E0,9.861859E0,7.33809E0,5.215148E0,1.2489285E0,1.4834486E0,5.217856E0,1.3055947E1,8.963778E0,6.1701045E0,1.4958048E0,1.7283978E0,1.384248E1,2.4730864E0,4.2743565E1,1.9850254E1,6.1222734E0,5.7654823E1,8.807331E1,9.973672E0,4.9502773E3,6.663855E2,2.278213E2,1.1678196E2,1.3109717E1,1.1998074E2,9.748856E0,3.712869E1,7.699128E0,1.697278E1,1.2387148E0,6.6877327E0,3.2273767E0,1.243614E0,1.03876E1,9.693127E0,1.2730033E1,1.1231217E1,3.401807E0,4.5963855E0,2.9421508E0,3.1807616E0,8.215053E0,2.2167952E0,1.2491827E0,1.4864545E0,1.8584667E1,1.7317194E0,1.2524471E5,6.1453707E4,1.3882749E1,9.5414435E2,1.7039384E3,1.5126117E2,2.3493734E4,4.7490868E1,3.6546143E3,5.908903E3,2.8186885E3,1.2442837E0,7.727343E1,5.3539785E3,1.0203277E4,2.7461602E3,8.962115E0,1.2338572E0,1.2026788E0,8.012979E0,4.391426E0,3.437344E0,1.7301503E0,1.4879282E0,7.150984E0,2.7108757E0,1.2336559E0,6.104434E0,1.7412412E0,3.473907E0,3.4866168E0,1.7312391E0,4.134469E0,8.921478E0,5.2381234E0,3.7256541E0,3.2106814E0,2.959423E0,3.641816E0,1.0200664E1,1.2365432E0,1.2365432E0,5.733988E0,3.7009575E1,1.6603104E1,3.24715E0,2.9403875E0,3.1818862E0,7.32848E0,5.0326344E1,4.626586E0,5.347086E0,7.1413074E2,4.2361465E3,1.3086005E2,9.696126E1,6.46533E0,6.6443872E0,2.0261862E1,9.971888E1,1.9825835E0,7.766272E0,2.6571894E1,1.0556795E1,5.9564877E0,1.7426404E0,7.5229983E0,9.449782E0,2.7240198E0,3.9637127E0,1.7489161E0,1.4784604E0,5.4420805E0,4.94552E0,6.2094264E0,3.4837008E0,9.984303E0,2.7457302E0,5.459869E0,5.7713485E0,1.2159578E0,2.1858494E0,3.3940196E0,1.2023658E0,1.4732504E0,1.4689004E0,1.4686794E0,1.7120821E0,5.731485E0,2.4835675E0,1.6246135E0,6.1452082E4,2.588309E0,1.1294439E1,1.6785227E3,2.5415636E1,1.2920232E2,2.2058853E1,1.646116E4,7.032574E3,1.4735154E1,3.275571E1,3.6297424E3,2.4871658E1,7.652869E1,5.832374E3,2.686486E3,1.3220235E2,4.0419946E0,5.3499365E3,1.018979E4,1.3487706E1],"tree_param":{"num_deleted":"0","num_feature":"5","num_nodes":"277","size_leaf_vector":"0"}},{"base_weights":[-1.3309461E0,1.2867146E0,-1.3999511E0,-5.540281E-1,1.3234185E0,-1.4845723E0,-1.1040492E0,-1.0841588E0,-5.4640625E-2,1.3407491E0,4.654207E-1,-4.9961084E-1,-1.4847801E0,-1.0415262E0,-1.2087977E0,-1.3755833E0,-8.1454134E-1,-3.5459122E-1,1.8395385E-1,8.506377E-1,1.3623673E0,7.0576614E-1,8.378346E-2,-1.3169801E-1,-7.038695E-1,-1.4869598E0,-1.4048755E0,-1.2445707E0,-1.031749E0,-1.1635039E0,-1.236033E0,-6.9749653E-1,-1.1708754E0,-4.9654964E-1,3.6880237E-1,4.1490903E-1,-7.834627E-2,5.275303E-1,9.749803E-1,1.3801956E0,1.1384943E0,8.9728945E-1,4.034576E-1,-1.4346074E-1,3.5922694E-1,5.664819E-1,-2.4986935E-1,-2.6789418E-1,-1.0352954E0,-1.4887758E0,-1.4667947E0,-1.4273658E0,-1.3544494E0,-1.2864795E0,-1.1837964E0,-1.0080036E0,-1.0949247E0,-1.20575E0,-1.1564381E0,-1.2287074E0,-1.345921E0,-8.473196E-1,-3.4125426E-1,-4.541982E-1,-1.3413525E0,2.9260033E-1,-5.726928E-1,9.0876573E-1,-2.3550199E-1,-8.517785E-1,5.895859E-1,-2.1236002E-1,4.518311E-1,8.48557E-1,4.2081496E-1,8.226875E-1,1.038964E0,1.253741E0,1.3887604E0,1.1861587E0,1.0079488E0,1.2393177E0,7.8432786E-1,6.597549E-2,5.972033E-1,-6.89455E-1,2.19619E-2,1.1122417E-1,8.0960554E-1,-5.4510295E-1,1.566629E-1,-4.5243856E-1,5.311107E-1,-1.1699013E0,-2.9805392E-1,-1.4918818E0,-1.4838779E0,-5.16811E-1,-1.4668541E0,-3.1087953E-1,-1.4278442E0,-3.2272488E-1,-1.3554095E0,-1.0657682E-1,-1.2881061E0,-2.1589205E-1,-1.1886134E0,-1.0866584E0,-1.0017811E0,-1.0951983E0,2.2995427E-1,-1.2192433E0,-1.0258472E0,-1.1566161E0,-8.807614E-2,-1.2210777E0,-1.2567393E0,-7.588404E-2,-9.004928E-1,-9.545198E-1,-1.21287376E-1,-6.4525855E-1,2.4306946E-1,6.052327E-1,-9.7677714E-1,2.2592182E-1,7.0911366E-1,1.3230883E-1,-6.6384476E-1,7.4530494E-1,-4.8353687E-2,2.3406722E-1,8.8676894E-1,3.1144512E-1,8.645167E-1,1.2172719E0,7.474511E-1,1.085256E0,7.755565E-1,1.3963436E0,1.3305076E0,1.1275283E0,1.2903974E0,5.180872E-1,1.057658E0,5.112296E-1,1.3484308E0,5.9824663E-1,9.936048E-1,2.7126783E-1,-1.0685118E0,-2.2724073E-1,6.606179E-1,1.0734696E-2,-1.0910274E0,1.8409851E-1,-3.9369747E-1,3.8534054E-1,-2.5605565E-1,-8.84825E-2,1.058001E0,-2.1133614E-1,-7.112099E-1,5.5764586E-1,-2.6179162E-1,-2.6026872E-1,-8.650247E-1,2.3673248E-1,-6.636168E-1,-1.1329265E0,-1.4919367E0,-8.9694613E-1,-1.2927645E0,-8.45977E-1,8.3501554E-1,-6.0238314E-1,-1.1908016E0,-1.1003397E0,-9.2692506E-1,-7.780947E-1,-1.0025759E0,-1.1125318E0,-1.0778146E0,-1.0937754E0,-2.26733E-1,-1.1483237E0,-1.2016854E0,-1.221733E0,-6.866027E-1,-1.2572029E0,-5.5551827E-1,-6.264359E-1,-1.0759054E0,-4.8652396E-1,3.459838E-1,-8.9342606E-1,-3.2545435E-1,-1.3629852E-1,7.4093854E-1,1.1689122E0,4.3170422E-1,-2.2788607E-1,5.8168566E-1,-8.4101385E-1,-3.083711E-1,9.631569E-1,4.892433E-1,3.8199624E-1,-1.9180882E-1,9.895315E-1,1.6442482E-1,5.621577E-1,1.3769726E0,1.8008107E-1,8.0339044E-1,1.0950198E0,2.656242E-1,1.2001566E0,5.052712E-1,1.3620645E0,1.4105818E0,1.1512613E0,9.0309215E-1,1.4264841E-1,6.289672E-1,1.3120108E0,9.939159E-1,7.578976E-1,-3.146501E-1,-1.6136186E-1,3.9773437E-1,7.836982E-1,5.583112E-2,2.2465736E-1,-2.0797405E-1,-1.8617424E-1,1.4959595E0,2.3422112E-1,-7.9144853E-1,2.1484017E-2,6.5163326E-1,-6.5548646E-1,5.926818E-1,-5.5768245E-1,9.528796E-2,-8.697586E-1,-7.49738E-2,4.2298187E-2,8.4722054E-1,3.3367586E-1,-7.098679E-1,1.0525625E-2,-7.109942E-1,-1.2033587E0,-5.2319574E-1,4.6990862E-1,-1.237376E0,-1.0408467E0,9.526526E-2,-1.0939504E0,-1.4667559E0,-1.1875637E0,-8.556779E-1,-8.0213916E-1,5.175883E-1,-9.977203E-1,-1.0410603E0,-1.1135424E0,-5.869592E-1,-1.0084612E0,-1.0867237E0,-1.1829814E0,-7.644965E-1,7.727643E-1,-5.56731E-1,-1.1504198E0,-8.087829E-1,-1.2037023E0,-6.757004E-1,-1.329632E0,-1.2201719E0,-8.5454637E-1,2.4254203E-2,-1.2722201E0,-1.2155573E0,8.991444E-2,-9.058903E-1],"categories":[],"categories_nodes":[],"categories_segments":[],"categories_sizes":[],"default_left":[true,true,true,true,true,true,true,true,true,true,true,true,true,true,true,false,true,true,true,true,true,true,true,true,true,true,true,true,true,true,true,true,true,true,true,true,true,true,true,true,true,true,true,true,true,false,true,true,true,true,true,true,true,true,true,true,true,true,true,true,false,true,true,false,false,false,true,false,true,false,true,true,true,true,true,true,true,false,true,true,true,true,true,true,true,true,true,true,true,true,true,true,false,false,true,true,false,false,false,false,false,false,false,false,true,true,true,true,true,true,false,false,true,true,false,true,true,false,true,false,true,true,false,false,false,true,true,true,true,false,false,false,true,true,true,true,true,true,true,true,false,true,false,true,true,false,false,true,false,true,false,false,true,true,false,true,true,true,true,false,false,true,true,true,true,true,false,false,false,true,false,true,false,false,false,true,false,true,true,true,true,true,true,true,true,true,true,true,true,true,true,false,false,false,false,false,false,false,false,false,false,false,false,false,false,false,false,false,false,false,false,false,false,false,false,false,false,false,false,false,false,false,false,false,false,false,false,false,false,false,false,false,false,false,false,false,false,false,false,false,false,false,false,false,false,false,false,false,false,false,false,false,false,false,false,false,false,false,false,false,false,false,false,false,false,false,false,false,false,false,false,false,false,false,false,false,false,false,false,false,false,false,false,false,false,false,false],"id":4,"left_children":[1,3,5,7,9,11,13,15,17,19,21,23,25,27,29,-1,31,33,35,37,39,41,43,45,47,49,51,53,55,57,59,61,63,65,67,69,71,73,75,77,79,81,83,85,87,-1,89,91,93,95,97,99,101,103,105,107,109,111,113,115,-1,117,119,-1,-1,-1,121,-1,123,-1,125,127,129,131,133,135,137,-1,139,141,143,145,147,149,151,153,155,157,159,161,163,165,-1,-1,167,169,-1,-1,-1,-1,-1,-1,-1,-1,171,173,175,177,179,181,-1,-1,183,185,-1,187,189,-1,191,-1,193,195,-1,-1,-1,197,199,201,203,-1,-1,-1,205,207,209,211,213,215,217,219,-1,221,-1,223,225,-1,-1,227,-1,229,-1,-1,231,233,-1,235,237,239,241,-1,-1,243,245,247,249,251,-1,-1,-1,253,-1,255,-1,-1,-1,257,-1,259,261,263,265,267,269,271,273,275,277,279,281,283,285,-1,-1,-1,-1,-1,-1,-1,-1,-1,-1,-1,-1,-1,-1,-1,-1,-1,-1,-1,-1,-1,-1,-1,-1,-1,-1,-1,-1,-1,-1,-1,-1,-1,-1,-1,-1,-1,-1,-1,-1,-1,-1,-1,-1,-1,-1,-1,-1,-1,-1,-1,-1,-1,-1,-1,-1,-1,-1,-1,-1,-1,-1,-1,-1,-1,-1,-1,-1,-1,-1,-1,-1,-1,-1,-1,-1,-1,-1,-1,-1,-1,-1,-1,-1,-1,-1,-1,-1,-1,-1,-1,-1,-1,-1,-1,-1],"loss_changes":[4.755797E4,4.5763086E2,6.4214062E3,3.5128277E1,9.797168E1,4.009375E1,3.7235938E2,3.9411316E0,5.038687E0,6.769824E1,1.2123024E1,3.1823044E0,3.265625E1,6.964844E1,2.4859375E1,0E0,6.8115616E-1,3.3799195E0,2.4171748E0,1.0622818E1,2.3265625E1,4.348442E0,3.3348913E0,1.526613E0,3.7384424E0,4.9375E0,4.0927734E0,2.645752E0,5.0046875E1,1E0,9.048828E0,1.285737E0,2.9563522E-1,1.7568698E0,2.0676043E0,5.1689644E0,1.4652852E0,2.3566322E0,1.0843201E0,4.495117E0,1.6959839E0,9.206276E-1,2.1424885E0,2.675717E0,2.5904605E0,0E0,1.8919089E0,2.209074E0,1.1835442E0,5E-1,1.484375E-1,1.5092773E0,1.2055664E0,1.699707E0,2.9161987E0,1.1046875E1,3.625E0,1.482544E0,1.2099609E0,1.1328125E0,0E0,7.560396E-1,1.2885215E0,0E0,0E0,0E0,1.6047888E0,0E0,2.7567132E0,0E0,6.7118883E-1,2.5876253E0,6.53786E-1,2.333765E-1,2.7120113E0,9.80484E-1,8.205719E-1,0E0,5.214844E-1,5.909424E-1,2.640686E0,1.398983E-1,9.457016E-1,3.3861601E0,1.2519574E0,1.9463325E0,1.661407E0,1.7734966E0,1.9592066E0,3.454802E-1,1.3388188E0,6.7767835E-1,0E0,0E0,8.8546693E-1,4.53125E-1,0E0,0E0,0E0,0E0,0E0,0E0,0E0,0E0,5.8203125E-1,3.7469954E0,1.5106201E-1,2.9267578E0,3.3066406E0,1.6025391E0,0E0,0E0,4.3586426E0,1.1972656E0,0E0,2.609375E0,1.5820312E-1,0E0,2.2541618E-1,0E0,1.6714439E0,1.5136395E0,0E0,0E0,0E0,1.2573954E0,1.2718806E0,1.7420511E0,1.8910718E-1,0E0,0E0,0E0,5.4743767E-2,1.8786645E0,8.512831E-1,1.2629604E-1,1.6348705E0,6.169739E-1,2.134203E0,3.935547E-1,0E0,1.437378E-1,0E0,4.940784E-1,6.078491E-1,0E0,0E0,3.6558437E0,0E0,7.237424E-1,0E0,0E0,1.4320183E0,2.1038547E-1,0E0,8.848175E0,1.9173193E0,9.4767404E-1,3.0024154E0,0E0,0E0,5.198146E-1,4.944613E-1,5.5358946E-1,1.3466043E0,1.1302354E0,0E0,0E0,0E0,2.6159477E-1,0E0,7.33539E0,0E0,0E0,0E0,1.4882666E0,0E0,2.2773438E0,1.7473831E0,3.089981E0,3.2421875E0,1.8037109E0,1.7929688E0,1.3854141E0,3.0392516E0,3.230957E0,3.0065918E-1,3.3203125E-2,1.7322493E0,1.00097656E-1,8.8042307E-1,0E0,0E0,0E0,0E0,0E0,0E0,0E0,0E0,0E0,0E0,0E0,0E0,0E0,0E0,0E0,0E0,0E0,0E0,0E0,0E0,0E0,0E0,0E0,0E0,0E0,0E0,0E0,0E0,0E0,0E0,0E0,0E0,0E0,0E0,0E0,0E0,0E0,0E0,0E0,0E0,0E0,0E0,0E0,0E0,0E0,0E0,0E0,0E0,0E0,0E0,0E0,0E0,0E0,0E0,0E0,0E0,0E0,0E0,0E0,0E0,0E0,0E0,0E0,0E0,0E0,0E0,0E0,0E0,0E0,0E0,0E0,0E0,0E0,0E0,0E0,0E0,0E0,0E0,0E0,0E0,0E0,0E0,0E0,0E0,0E0,0E0,0E0,0E0,0E0,0E0,0E0,0E0,0E0,0E0,0E0,0E0],"parents":[2147483647,0,0,1,1,2,2,3,3,4,4,5,5,6,6,7,7,8,8,9,9,10,10,11,11,12,12,13,13,14,14,16,16,17,17,18,18,19,19,20,20,21,21,22,22,23,23,24,24,25,25,26,26,27,27,28,28,29,29,30,30,31,31,32,32,33,33,34,34,35,35,36,36,37,37,38,38,39,39,40,40,41,41,42,42,43,43,44,44,46,46,47,47,48,48,49,49,50,50,51,51,52,52,53,53,54,54,55,55,56,56,57,57,58,58,59,59,61,61,62,62,66,66,68,68,70,70,71,71,72,72,73,73,74,74,75,75,76,76,78,78,79,79,80,80,81,81,82,82,83,83,84,84,85,85,86,86,87,87,88,88,89,89,90,90,91,91,94,94,95,95,104,104,105,105,106,106,107,107,108,108,109,109,112,112,113,113,115,115,116,116,118,118,120,120,121,121,125,125,126,126,127,127,128,128,132,132,133,133,134,134,135,135,136,136,137,137,138,138,139,139,141,141,143,143,144,144,147,147,149,149,152,152,153,153,155,155,156,156,157,157,158,158,161,161,162,162,163,163,164,164,165,165,169,169,171,171,175,175,177,177,178,178,179,179,180,180,181,181,182,182,183,183,184,184,185,185,186,186,187,187,188,188,189,189,190,190],"right_children":[2,4,6,8,10,12,14,16,18,20,22,24,26,28,30,-1,32,34,36,38,40,42,44,46,48,50,52,54,56,58,60,62,64,66,68,70,72,74,76,78,80,82,84,86,88,-1,90,92,94,96,98,100,102,104,106,108,110,112,114,116,-1,118,120,-1,-1,-1,122,-1,124,-1,126,128,130,132,134,136,138,-1,140,142,144,146,148,150,152,154,156,158,160,162,164,166,-1,-1,168,170,-1,-1,-1,-1,-1,-1,-1,-1,172,174,176,178,180,182,-1,-1,184,186,-1,188,190,-1,192,-1,194,196,-1,-1,-1,198,200,202,204,-1,-1,-1,206,208,210,212,214,216,218,220,-1,222,-1,224,226,-1,-1,228,-1,230,-1,-1,232,234,-1,236,238,240,242,-1,-1,244,246,248,250,252,-1,-1,-1,254,-1,256,-1,-1,-1,258,-1,260,262,264,266,268,270,272,274,276,278,280,282,284,286,-1,-1,-1,-1,-1,-1,-1,-1,-1,-1,-1,-1,-1,-1,-1,-1,-1,-1,-1,-1,-1,-1,-1,-1,-1,-1,-1,-1,-1,-1,-1,-1,-1,-1,-1,-1,-1,-1,-1,-1,-1,-1,-1,-1,-1,-1,-1,-1,-1,-1,-1,-1,-1,-1,-1,-1,-1,-1,-1,-1,-1,-1,-1,-1,-1,-1,-1,-1,-1,-1,-1,-1,-1,-1,-1,-1,-1,-1,-1,-1,-1,-1,-1,-1,-1,-1,-1,-1,-1,-1,-1,-1,-1,-1,-1,-1],"split_conditions":[2.1342994E-4,4.5801753E-5,1.1108616E-1,2.7730313E-5,1.9224273E-4,2.2651616E-4,3.858639E-1,1.4020945E-5,4.677419E-1,6.948157E-5,2.0159004E-4,3.75E-1,9.26386E-2,1.2398271E-1,4.5100194E-1,-1.3755833E-1,7.9032254E-1,4.3932298E-5,5.416666E-1,5.57722E-5,1.6918607E-4,6.25E-1,5.833334E-1,8.3333336E-2,2.1841517E-4,7.279137E-2,1.031083E-1,1.17903575E-1,3.211858E-1,8.3333336E-2,6.955112E-1,5E-1,9.997513E-1,1.25E-1,2.0967741E-1,2.9599772E-5,9.193548E-1,2.4193548E-1,6.138058E-5,8.319094E-5,1.8289543E-4,8.3333336E-2,7.916666E-1,2.034595E-4,7.916666E-1,5.664819E-2,5.833334E-1,8.2258064E-1,8.75E-1,4.0566333E-2,7.2792694E-2,9.264215E-2,1.0311222E-1,1.1109075E-1,1.1793122E-1,1.432474E-1,3.858509E-1,4.4523424E-1,4.509874E-1,5.904118E-1,-1.345921E-1,1.5267251E-5,1.6513557E-5,-4.5419823E-2,-1.3413525E-1,2.9260034E-2,9.583334E-1,9.087657E-2,5.833334E-1,-8.517785E-2,3.6454454E-5,7.9032254E-1,9.997513E-1,4.704806E-5,8.8709676E-1,2.0833334E-1,9.166666E-1,1.2537411E-1,1.5360725E-4,6.612903E-1,1.1290322E-1,1.9348905E-4,3.75E-1,8.548387E-1,1.1290322E-1,4.3548387E-1,7.580645E-1,2.0844472E-4,2.0283634E-4,3.548387E-1,9.166666E-1,5.4838705E-1,5.3111073E-2,-1.1699013E-1,2.230888E-4,2.3648661E-4,-1.4838779E-1,-5.16811E-2,-1.466854E-1,-3.1087954E-2,-1.4278442E-1,-3.2272488E-2,-1.3554095E-1,-1.0657682E-2,1.1118555E-1,1.1792062E-1,1.1795525E-1,9.193548E-1,1.4424433E-1,9.997513E-1,2.2995427E-2,-1.2192433E-1,9.583334E-1,4.3998727E-1,-8.8076135E-3,5.9009176E-1,6.953405E-1,-7.5884038E-3,2.1498783E-5,-9.545198E-2,5.833334E-1,5.833334E-1,2.4306946E-2,6.052327E-2,-9.7677715E-2,2.916667E-1,4.0193372E-5,6.2903225E-1,7.916666E-1,7.45305E-2,-4.8353686E-3,2.3406722E-2,7.916666E-1,9.166666E-1,5.3902746E-5,5.7641664E-5,2.916667E-1,9.83871E-1,6.4496344E-5,1.0936337E-4,1.3305077E-1,5.967742E-1,1.2903975E-1,4.583333E-1,2.0833334E-1,5.112296E-2,1.3484308E-1,1.9972058E-4,9.936048E-2,1.9411219E-4,-1.0685118E-1,-2.2724073E-2,9.166666E-1,3.75E-1,-1.0910274E-1,6.612903E-1,3.75E-1,6.2903225E-1,2.1218363E-4,-8.84825E-3,1.0580011E-1,1.9354838E-1,7.9032254E-1,2.1966148E-4,5.16129E-1,7.916666E-1,-8.650247E-2,2.367325E-2,-6.636168E-2,8.75E-1,-1.4919367E-1,2.916667E-1,-1.2927645E-1,-8.45977E-2,8.3501555E-2,1.17944896E-1,-1.1908016E-1,1.4295831E-1,1.274046E-1,1.4423403E-1,8.8709676E-1,3.8573784E-1,3.287384E-1,7.9032254E-1,4.4682705E-1,4.3956453E-1,4.509282E-1,4.5221734E-1,7.9032254E-1,7.258065E-1,4.166667E-1,-6.264359E-2,-1.0759055E-1,-4.8652396E-2,3.459838E-2,-8.934261E-2,-3.2545436E-2,-1.3629853E-2,7.4093856E-2,1.1689122E-1,4.3170422E-2,-2.2788607E-2,5.8168568E-2,-8.410139E-2,-3.083711E-2,9.631569E-2,4.892433E-2,3.8199626E-2,-1.9180883E-2,9.895315E-2,1.6442483E-2,5.621577E-2,1.3769726E-1,1.8008107E-2,8.0339044E-2,1.0950198E-1,2.656242E-2,1.2001566E-1,5.0527122E-2,1.3620645E-1,1.4105819E-1,1.1512613E-1,9.030922E-2,1.4264842E-2,6.289672E-2,1.3120107E-1,9.9391595E-2,7.5789765E-2,-3.146501E-2,-1.6136186E-2,3.9773438E-2,7.836982E-2,5.583112E-3,2.2465736E-2,-2.0797405E-2,-1.8617425E-2,1.4959596E-1,2.3422113E-2,-7.914486E-2,2.1484017E-3,6.516333E-2,-6.554865E-2,5.9268184E-2,-5.5768248E-2,9.528796E-3,-8.6975865E-2,-7.49738E-3,4.229819E-3,8.472206E-2,3.3367585E-2,-7.098679E-2,1.0525625E-3,-7.109942E-2,-1.2033587E-1,-5.2319575E-2,4.6990864E-2,-1.23737596E-1,-1.0408467E-1,9.526527E-3,-1.0939504E-1,-1.4667559E-1,-1.1875637E-1,-8.5567795E-2,-8.021392E-2,5.1758833E-2,-9.977203E-2,-1.0410603E-1,-1.1135425E-1,-5.869592E-2,-1.0084613E-1,-1.0867237E-1,-1.18298136E-1,-7.6449655E-2,7.727643E-2,-5.56731E-2,-1.15041986E-1,-8.087829E-2,-1.2037023E-1,-6.7570046E-2,-1.3296321E-1,-1.220172E-1,-8.5454635E-2,2.4254203E-3,-1.2722202E-1,-1.2155574E-1,8.9914445E-3,-9.058903E-2],"split_indices":[0,0,0,0,0,0,0,0,1,0,0,2,0,0,0,0,1,0,2,0,0,2,4,4,0,0,0,0,0,4,0,1,3,2,1,0,1,1,0,0,0,4,2,0,2,0,4,1,2,0,0,0,0,0,0,0,0,0,0,0,0,0,0,0,0,0,2,0,4,0,0,1,3,0,1,2,4,0,0,1,1,0,2,1,1,1,1,0,0,1,4,1,0,0,0,0,0,0,0,0,0,0,0,0,0,0,0,1,0,3,0,0,2,0,0,0,0,0,0,0,4,4,0,0,0,2,0,1,2,0,0,0,2,4,0,0,2,1,0,0,0,1,0,2,2,0,0,0,0,0,0,0,4,2,0,1,2,1,0,0,0,1,1,0,1,2,0,0,0,2,0,2,0,0,0,0,0,0,0,0,1,0,0,1,0,0,0,0,1,1,4,0,0,0,0,0,0,0,0,0,0,0,0,0,0,0,0,0,0,0,0,0,0,0,0,0,0,0,0,0,0,0,0,0,0,0,0,0,0,0,0,0,0,0,0,0,0,0,0,0,0,0,0,0,0,0,0,0,0,0,0,0,0,0,0,0,0,0,0,0,0,0,0,0,0,0,0,0,0,0,0,0,0,0,0,0,0,0,0,0,0,0,0,0,0,0,0],"split_type":[0,0,0,0,0,0,0,0,0,0,0,0,0,0,0,0,0,0,0,0,0,0,0,0,0,0,0,0,0,0,0,0,0,0,0,0,0,0,0,0,0,0,0,0,0,0,0,0,0,0,0,0,0,0,0,0,0,0,0,0,0,0,0,0,0,0,0,0,0,0,0,0,0,0,0,0,0,0,0,0,0,0,0,0,0,0,0,0,0,0,0,0,0,0,0,0,0,0,0,0,0,0,0,0,0,0,0,0,0,0,0,0,0,0,0,0,0,0,0,0,0,0,0,0,0,0,0,0,0,0,0,0,0,0,0,0,0,0,0,0,0,0,0,0,0,0,0,0,0,0,0,0,0,0,0,0,0,0,0,0,0,0,0,0,0,0,0,0,0,0,0,0,0,0,0,0,0,0,0,0,0,0,0,0,0,0,0,0,0,0,0,0,0,0,0,0,0,0,0,0,0,0,0,0,0,0,0,0,0,0,0,0,0,0,0,0,0,0,0,0,0,0,0,0,0,0,0,0,0,0,0,0,0,0,0,0,0,0,0,0,0,0,0,0,0,0,0,0,0,0,0,0,0,0,0,0,0,0,0,0,0,0,0,0,0,0,0,0,0,0,0,0,0,0,0,0,0,0,0,0,0,0,0,0,0,0,0],"sum_hessian":[2.6327638E5,6.7615967E3,2.5651478E5,1.3191318E2,6.629683E3,1.9946756E5,5.7047203E4,6.341901E1,6.849418E1,6.497871E3,1.3181206E2,4.2579903E1,1.9942498E5,3.573084E4,2.1316365E4,2.850572E1,3.491329E1,3.0129948E1,3.8364227E1,2.762089E2,6.221662E3,8.035635E1,5.1455708E1,1.5787698E1,2.6792202E1,1.9411219E5,5.312797E3,1.6356951E3,3.4095145E4,8.020887E3,1.3295478E4,2.8507029E1,6.40626E0,2.544936E1,4.680588E0,2.009169E1,1.8272537E1,7.821303E1,1.9799586E2,5.7579565E3,4.6370557E2,4.7986843E1,3.236951E1,2.8457275E1,2.299843E1,1.7361921E0,1.4051506E1,1.2352011E1,1.4440191E1,1.7800767E5,1.6104517E4,3.6552393E3,1.6575574E3,9.561707E2,6.795243E2,2.4793246E4,9.301899E3,1.1249875E3,6.8959E3,1.247597E4,8.195077E2,1.9097004E1,9.410026E0,1.9351716E0,4.4710884E0,1.9893118E0,2.3460049E1,2.2058108E0,2.4747767E0,1.9651182E0,1.8126572E1,1.5064193E1,3.208345E0,1.777868E1,6.043435E1,6.267528E1,1.3532059E2,3.7459985E2,5.383357E3,3.3375845E2,1.299471E2,9.438263E0,3.854858E1,1.229449E1,2.007502E1,5.880441E0,2.2576834E1,1.5635589E1,7.3628426E0,7.942563E0,6.108943E0,1.0386753E1,1.9652581E0,1.1714491E1,2.7257004E0,1.087438E5,6.9263875E4,1.5504439E0,1.6102967E4,1.8443913E0,3.6533948E3,1.8545313E0,1.6557029E3,1.4078993E0,9.547628E2,3.5919218E0,6.759324E2,1.8049163E3,2.298833E4,9.300152E3,1.7475163E0,1.0411233E3,8.386426E1,6.894668E3,1.2315836E0,9.841773E3,2.634196E3,1.3879367E0,1.7709066E1,1.6026036E0,7.8074226E0,2.1735582E1,1.7244657E0,1.2455883E0,1.2291886E0,5.1989255E0,1.2927646E1,8.943538E0,6.1206555E0,1.7131358E0,1.495209E0,1.4579968E0,1.6320683E1,4.984883E1,1.0585517E1,7.605937E0,5.5069344E1,1.1244003E2,2.2880552E1,4.742967E3,6.4039026E2,2.2117342E2,1.12585045E2,1.302399E1,1.1692311E2,1.9710675E0,7.4671955E0,2.2447626E1,1.6100954E1,1.1054924E1,1.2395658E0,1.2493225E0,1.8825697E1,2.498053E0,3.3823879E0,1.6642265E1,5.93457E0,8.925179E0,6.71041E0,1.7347046E0,5.6281376E0,3.394373E0,4.54819E0,2.949735E0,3.159208E0,8.198819E0,2.1879337E0,1.2497876E0,1.4759129E0,1.9752039E1,1.0872405E5,1.3514665E1,9.4124817E2,2.3674753E0,1.2244464E0,3.5411577E0,6.7239124E2,1.657096E3,1.4782028E2,8.485757E1,2.2903473E4,4.6252705E3,4.674882E3,7.695408E1,6.9101753E0,5.8455938E3,1.0490741E3,9.8284375E3,1.3336296E1,2.631663E3,2.5330546E0,8.695236E0,9.013831E0,4.3590355E0,3.4483871E0,1.1228566E1,1.0507016E1,3.4839518E0,1.7149734E0,3.6553438E0,9.272303E0,5.237966E0,3.7055714E0,3.1732187E0,2.947437E0,1.2496494E1,3.8241887E0,4.3931084E1,5.917747E0,8.630877E0,1.9546402E0,2.3766515E0,5.2292857E0,5.3208933E0,4.974845E1,1.1078433E2,1.6557015E0,7.561543E0,1.531901E1,1.4202805E3,3.3226863E3,1.962874E2,2.4886017E1,3.4907737E0,9.5332155E0,1.9505636E1,9.741748E1,1.9250765E1,3.1968615E0,2.43819E0,8.616734E0,1.539652E1,3.4291768E0,1.2490944E0,1.2489588E0,1.3648156E1,2.9941082E0,2.4608426E0,3.4737275E0,4.228342E0,4.696836E0,4.7178154E0,1.9925945E0,1.2094548E0,2.1849184E0,3.3470695E0,1.2011204E0,1.4734855E0,1.4762495E0,1.466126E0,1.6930821E0,5.731813E0,2.4670064E0,1.6833906E1,2.9181337E0,2.618964E0,1.08957E1,1.8724254E0,1.6687323E0,1.6326133E3,2.4482681E1,2.8369585E1,1.1945069E2,8.36855E1,1.1720659E0,2.0361426E4,2.5420469E3,4.615277E3,9.993763E0,5.451691E2,4.1297124E3,5.851025E1,1.844383E1,1.3821619E0,5.528013E0,5.807354E3,3.823981E1,1.0437831E3,5.290995E0,1.2803171E2,9.700405E3,1.062415E1,2.712146E0,1.9124813E3,7.191817E2,1.1528053E0,1.3802491E0],"tree_param":{"num_deleted":"0","num_feature":"5","num_nodes":"287","size_leaf_vector":"0"}},{"base_weights":[-1.2624532E0,1.214438E0,-1.3280826E0,-6.2896013E-1,1.2475883E0,-1.4158362E0,-1.0281231E0,-1.023871E0,-1.6914791E-1,1.2685498E0,5.7371974E-1,-4.627301E-1,-1.4160461E0,-9.664296E-1,-1.1324258E0,-1.3029515E0,-7.65289E-1,-4.6065837E-1,1.2980357E-1,6.9690835E-1,1.2904537E0,7.5099844E-1,7.8414544E-2,-1.2131813E-1,-6.543006E-1,-1.4183282E0,-1.3328338E0,-1.1688008E0,-9.5679986E-1,-1.0868855E0,-1.1598096E0,-5.7255155E-1,-9.304369E-1,-5.433027E-1,4.048946E-1,-5.3936756E-1,2.5394815E-1,4.598646E-1,8.556011E-1,1.3040578E0,1.09224E0,2.4541602E-3,7.7493745E-1,-4.555484E-1,1.7922391E-1,-7.7307916E-1,3.993514E-3,-2.502764E-1,-9.6718144E-1,-1.4202411E0,-1.3971224E0,-1.3562903E0,-1.2805321E0,-1.2127591E0,-1.1089946E0,-9.3178177E-1,-1.0146586E0,-1.0870727E0,8.880661E-2,-1.1522305E0,-1.2690063E0,-7.1252173E-1,7.5637236E-2,-3.5573617E-1,-9.784911E-1,2.9703078E-1,-6.1560893E-1,-9.140115E-1,2.7868772E-1,5.3470844E-1,-1.2143783E-1,8.3918214E-1,3.5494575E-1,1.102751E0,8.0320317E-1,1.1555798E0,1.3159235E0,1.0391998E0,1.1893644E0,-5.808749E-1,5.873253E-1,8.707743E-1,5.740339E-1,-9.032354E-2,-8.2591367E-1,-7.500536E-2,3.8884628E-1,3.699228E-1,-3.8565007E-1,-4.1978467E-1,5.670758E-1,-1.095225E0,-2.8079414E-1,-1.4230131E0,-1.4143361E0,-4.9100867E-1,-1.3971807E0,-2.9248914E-1,-1.3567663E0,-3.0360702E-1,-1.2814758E0,-1.0051022E-1,-1.2143935E0,-1.1645327E0,-1.060348E0,-1.0108904E0,-9.252671E-1,-1.0148954E0,2.1522212E-1,-1.0628519E0,-1.0994245E0,-1.1525506E0,-4.610665E-1,-7.971056E-1,-2.7972713E-1,3.6305025E-1,-2.6981258E-1,-1.2628886E0,-5.4082245E-1,1.5355591E-1,-6.8292874E-1,7.109765E-1,-2.0964183E-1,-3.392794E-1,5.869235E-1,8.888555E-1,3.450465E-1,2.3063858E-1,5.903211E-1,1.2804221E0,7.467241E-1,5.8385235E-1,8.900526E-1,9.0274763E-1,1.1756662E0,1.3236994E0,1.2564777E0,1.0946692E0,9.538638E-1,1.2125638E0,6.199069E-1,1.0807067E0,7.827767E-1,6.419731E-1,2.9209588E-2,-4.6454144E-1,6.5292734E-1,4.226596E-1,-5.9828746E-1,5.1049303E-2,7.450424E-1,5.6925887E-1,-4.5339182E-1,3.0075237E-1,-6.296971E-1,-9.915448E-2,-6.4605826E-1,2.235594E-1,-6.2755805E-1,-1.1343874E0,-1.4230815E0,-8.3818316E-1,-1.2190374E0,-4.3244877E-1,-1.0712723E0,-1.0240663E0,-8.5807604E-1,-9.2578423E-1,-5.033428E-1,-9.929121E-1,-1.0322155E0,-1.0666876E0,-8.8037413E-1,-1.2511021E0,-1.0967128E0,-1.1447213E0,-1.1819698E0,6.237017E-1,-7.616307E-1,-6.0404587E-1,-1.1295334E0,4.4044235E-1,-7.346606E-1,-1.349539E0,-3.8822457E-1,2.3995581E-1,-9.46823E-1,-1.1596434E0,-5.055446E-1,4.309919E-1,1.0975312E0,-3.701881E-1,4.5505915E-2,-1.9837154E-2,-7.580861E-1,1.2467314E0,7.1489316E-1,5.0422776E-2,4.8455352E-1,2.9666278E-1,-4.081104E-1,7.739044E-1,-2.2527908E-1,5.2768314E-1,1.3997847E0,8.5150087E-1,8.128532E-2,6.7150915E-1,-2.7012086E-1,4.5979714E-1,9.3919617E-1,-4.9916822E-1,1.0133829E0,1.2687789E0,1.3326634E0,1.3039583E0,1.0414544E0,9.131335E-1,1.3528768E0,1.0433513E0,2.1382263E-1,6.953597E-1,1.1845239E0,6.187103E-1,9.781564E-1,6.8629265E-1,1.3481778E-1,-6.466203E-1,5.4726523E-1,-1.0274444E-1,-5.7793605E-1,7.235421E-1,7.852132E-2,-2.743821E-1,-9.8638755E-1,2.508538E-1,-5.5017114E-1,3.7887418E-1,9.9347633E-1,-2.4541479E-2,8.903256E-1,-9.150598E-1,-1.9494952E-1,-3.765196E-1,4.4339886E-1,-8.8664865E-1,1.1521584E-1,-1.1942542E0,-2.619227E-1,4.3267196E-1,-1.1692549E0,-8.734696E-1,1.5854634E-2,-1.0178102E0,-1.3880216E0,-1.111291E0,-7.896888E-1,-7.1618295E-1,-9.265686E-1,-1.1051413E0,-3.3424088E-1,-9.951415E-1,-5.563862E-1,-1.0365996E0,-9.5634705E-1,-1.2018182E0,-1.0619321E0,-1.1056674E0,-3.9439172E-1,5.927154E-1,-1.0972139E0,-1.1453656E0,-6.3239014E-1,-1.198446E0,-1.1365962E0,-3.8492892E-2,-9.611625E-1],"categories":[],"categories_nodes":[],"categories_segments":[],"categories_sizes":[],"default_left":[true,true,true,true,true,true,true,true,true,true,true,true,true,true,true,false,true,true,true,true,true,true,true,true,true,true,true,true,true,true,true,true,true,true,false,true,true,true,true,true,true,true,true,true,true,false,true,true,true,true,true,true,true,true,true,true,true,true,false,true,false,true,true,false,true,false,true,false,false,true,true,true,true,true,true,true,true,true,true,false,false,true,true,true,false,true,true,true,true,true,false,false,true,true,false,false,false,false,false,false,false,false,true,false,true,true,true,true,false,true,true,true,true,true,true,false,false,true,true,false,true,true,true,true,false,true,true,true,true,true,true,true,true,true,false,true,false,true,true,false,true,true,true,true,true,true,false,true,true,true,true,true,false,false,true,true,true,false,false,true,false,true,false,true,false,true,true,true,true,true,true,true,true,false,true,true,true,false,true,false,false,false,false,false,false,false,false,false,false,false,false,false,false,false,false,false,false,false,false,false,false,false,false,false,false,false,false,false,false,false,false,false,false,false,false,false,false,false,false,false,false,false,false,false,false,false,false,false,false,false,false,false,false,false,false,false,false,false,false,false,false,false,false,false,false,false,false,false,false,false,false,false,false,false,false,false,false,false,false,false,false,false,false,false,false,false,false,false,false,false,false,false,false,false,false,false,false],"id":5,"left_children":[1,3,5,7,9,11,13,15,17,19,21,23,25,27,29,-1,31,33,35,37,39,41,43,45,47,49,51,53,55,57,59,61,63,65,-1,67,69,71,73,75,77,79,81,83,85,-1,87,89,91,93,95,97,99,101,103,105,107,109,-1,111,-1,113,115,-1,117,-1,119,-1,-1,121,123,125,127,129,131,133,135,137,139,-1,-1,141,143,145,-1,147,149,151,153,155,-1,-1,157,159,-1,-1,-1,-1,-1,-1,-1,-1,161,-1,163,165,167,169,-1,171,173,175,177,179,181,-1,-1,183,185,-1,187,189,191,193,-1,195,197,199,201,203,205,207,209,211,-1,213,-1,215,217,-1,219,221,223,225,227,229,-1,231,233,235,237,239,-1,-1,241,243,245,-1,-1,247,-1,249,-1,251,-1,253,255,257,259,261,263,265,267,-1,269,271,273,-1,275,-1,-1,-1,-1,-1,-1,-1,-1,-1,-1,-1,-1,-1,-1,-1,-1,-1,-1,-1,-1,-1,-1,-1,-1,-1,-1,-1,-1,-1,-1,-1,-1,-1,-1,-1,-1,-1,-1,-1,-1,-1,-1,-1,-1,-1,-1,-1,-1,-1,-1,-1,-1,-1,-1,-1,-1,-1,-1,-1,-1,-1,-1,-1,-1,-1,-1,-1,-1,-1,-1,-1,-1,-1,-1,-1,-1,-1,-1,-1,-1,-1,-1,-1,-1,-1,-1,-1,-1,-1,-1,-1,-1,-1,-1,-1,-1,-1,-1],"loss_changes":[4.0719812E4,3.9593164E2,6.4217812E3,2.0689983E1,8.900098E1,3.7125E1,3.5432812E2,3.449089E0,4.7904396E0,7.623047E1,1.6928478E1,2.7359238E0,3.39375E1,6.653125E1,2.4333984E1,0E0,5.623512E-1,2.201695E0,2.428129E0,8.239479E0,1.4569336E1,2.5489807E0,2.8865995E0,1.3669612E0,3.2147007E0,5.46875E0,4.463867E0,2.7885742E0,4.7027344E1,1.7958984E0,9.1328125E0,1.7301283E0,1.1941624E-1,1.7453852E0,0E0,1.6755666E0,2.5884452E0,3.4507065E0,8.7942505E-1,8.249023E0,7.581787E-1,2.188494E0,2.1560135E0,1.0829974E0,2.4033964E0,0E0,2.2815459E0,2.0784528E0,1.0162134E0,7.5E-1,1.19140625E-1,1.3613281E0,1.0703125E0,1.5058594E0,5.9625244E-1,1.0996094E1,3.1289062E0,1.1416016E0,0E0,2.1191406E0,0E0,3.3677197E-1,5.1348394E-1,0E0,1.1903858E0,0E0,1.3477917E0,0E0,0E0,1.9706309E0,1.9058471E0,1.7623901E-1,2.0733528E0,3.8245583E-1,1.6929169E0,1.064331E0,7.0703125E-1,1.784668E-1,9.632416E-1,0E0,0E0,8.43544E-1,1.7388592E0,1.8140552E0,0E0,5.7143188E0,2.9194179E0,1.6114597E0,1.4884114E0,7.758167E-1,0E0,0E0,7.896289E-1,6.40625E-1,0E0,0E0,0E0,0E0,0E0,0E0,0E0,0E0,5.402832E-1,0E0,2.0916138E0,2.645874E0,4.201172E0,2.7783203E0,0E0,9.0722656E-1,7.192383E-1,1.4052734E0,2.8267126E0,1.0389614E-1,1.6473377E0,0E0,0E0,1.1072159E-1,2.6607585E0,0E0,1.2957249E0,7.665181E-1,1.5736954E-1,1.2014108E0,0E0,1.8224907E-1,1.1661756E-1,2.2743573E0,3.986064E0,4.0401077E-1,5.892372E-1,2.8649244E0,1.287056E0,5.951973E0,0E0,5.3271484E-1,0E0,3.0996704E-1,5.4467773E-1,0E0,1.0024827E0,1.5186882E-1,1.5767975E0,8.5536003E-1,2.5639417E0,1.1280495E-1,0E0,1.1168706E0,1.0664749E0,1.78244E0,7.0524645E-1,1.3720915E0,0E0,0E0,5.714297E-1,1.0654827E0,1.3120027E0,0E0,0E0,1.361393E0,0E0,6.4396296E0,0E0,1.6047113E0,0E0,2.244995E0,1.6354523E0,2.8515625E0,2.5192862E0,3.756836E0,8.59375E-1,3.8085938E-1,6.1364784E0,0E0,4.8862305E0,2.4091797E0,4.963379E-1,0E0,8.428941E-1,0E0,0E0,0E0,0E0,0E0,0E0,0E0,0E0,0E0,0E0,0E0,0E0,0E0,0E0,0E0,0E0,0E0,0E0,0E0,0E0,0E0,0E0,0E0,0E0,0E0,0E0,0E0,0E0,0E0,0E0,0E0,0E0,0E0,0E0,0E0,0E0,0E0,0E0,0E0,0E0,0E0,0E0,0E0,0E0,0E0,0E0,0E0,0E0,0E0,0E0,0E0,0E0,0E0,0E0,0E0,0E0,0E0,0E0,0E0,0E0,0E0,0E0,0E0,0E0,0E0,0E0,0E0,0E0,0E0,0E0,0E0,0E0,0E0,0E0,0E0,0E0,0E0,0E0,0E0,0E0,0E0,0E0,0E0,0E0,0E0,0E0,0E0,0E0,0E0,0E0,0E0,0E0,0E0,0E0,0E0,0E0,0E0,0E0],"parents":[2147483647,0,0,1,1,2,2,3,3,4,4,5,5,6,6,7,7,8,8,9,9,10,10,11,11,12,12,13,13,14,14,16,16,17,17,18,18,19,19,20,20,21,21,22,22,23,23,24,24,25,25,26,26,27,27,28,28,29,29,30,30,31,31,32,32,33,33,35,35,36,36,37,37,38,38,39,39,40,40,41,41,42,42,43,43,44,44,46,46,47,47,48,48,49,49,50,50,51,51,52,52,53,53,54,54,55,55,56,56,57,57,59,59,61,61,62,62,64,64,66,66,69,69,70,70,71,71,72,72,73,73,74,74,75,75,76,76,77,77,78,78,81,81,82,82,83,83,85,85,86,86,87,87,88,88,89,89,92,92,93,93,102,102,104,104,105,105,106,106,107,107,109,109,110,110,111,111,112,112,113,113,114,114,117,117,118,118,120,120,121,121,122,122,123,123,125,125,126,126,127,127,128,128,129,129,130,130,131,131,132,132,133,133,135,135,137,137,138,138,140,140,141,141,142,142,143,143,144,144,145,145,147,147,148,148,149,149,150,150,151,151,154,154,155,155,156,156,159,159,161,161,163,163,165,165,166,166,167,167,168,168,169,169,170,170,171,171,172,172,174,174,175,175,176,176,178,178],"right_children":[2,4,6,8,10,12,14,16,18,20,22,24,26,28,30,-1,32,34,36,38,40,42,44,46,48,50,52,54,56,58,60,62,64,66,-1,68,70,72,74,76,78,80,82,84,86,-1,88,90,92,94,96,98,100,102,104,106,108,110,-1,112,-1,114,116,-1,118,-1,120,-1,-1,122,124,126,128,130,132,134,136,138,140,-1,-1,142,144,146,-1,148,150,152,154,156,-1,-1,158,160,-1,-1,-1,-1,-1,-1,-1,-1,162,-1,164,166,168,170,-1,172,174,176,178,180,182,-1,-1,184,186,-1,188,190,192,194,-1,196,198,200,202,204,206,208,210,212,-1,214,-1,216,218,-1,220,222,224,226,228,230,-1,232,234,236,238,240,-1,-1,242,244,246,-1,-1,248,-1,250,-1,252,-1,254,256,258,260,262,264,266,268,-1,270,272,274,-1,276,-1,-1,-1,-1,-1,-1,-1,-1,-1,-1,-1,-1,-1,-1,-1,-1,-1,-1,-1,-1,-1,-1,-1,-1,-1,-1,-1,-1,-1,-1,-1,-1,-1,-1,-1,-1,-1,-1,-1,-1,-1,-1,-1,-1,-1,-1,-1,-1,-1,-1,-1,-1,-1,-1,-1,-1,-1,-1,-1,-1,-1,-1,-1,-1,-1,-1,-1,-1,-1,-1,-1,-1,-1,-1,-1,-1,-1,-1,-1,-1,-1,-1,-1,-1,-1,-1,-1,-1,-1,-1,-1,-1,-1,-1,-1,-1,-1,-1],"split_conditions":[2.1342994E-4,4.330914E-5,1.1108616E-1,2.710716E-5,1.8725751E-4,2.2651616E-4,3.858639E-1,1.4020945E-5,5.3225803E-1,6.636581E-5,2.0159004E-4,3.75E-1,9.26386E-2,1.2398271E-1,4.5080075E-1,-1.3029514E-1,2.1498783E-5,9.583334E-1,2.9599772E-5,5.57722E-5,1.6918607E-4,4.8387095E-2,2.0283634E-4,1.7741935E-1,2.1841517E-4,7.279137E-2,1.031083E-1,1.1770918E-1,3.1421292E-1,4.5079774E-1,6.925302E-1,2.0252475E-5,2.0833334E-1,2.897662E-5,4.048946E-2,5.416666E-1,5.416666E-1,2.0967741E-1,2.0833334E-1,8.319094E-5,6.612903E-1,2.5E-1,1.953585E-4,6.935484E-1,4.583333E-1,-7.730792E-2,5.16129E-1,9.583334E-1,8.75E-1,4.4901993E-2,7.2792694E-2,9.264215E-2,1.0311222E-1,1.1109075E-1,4.677419E-1,1.432474E-1,3.858509E-1,4.0628844E-1,8.880661E-3,6.9195986E-1,-1.2690063E-1,7.5E-1,4.677419E-1,-3.5573617E-2,5E-1,2.9703079E-2,1.25E-1,-9.140115E-2,2.7868772E-2,4.143968E-5,8.8709676E-1,5.4525895E-5,7.9032254E-1,6.3873194E-5,4.583333E-1,1.25E-1,1.5360725E-4,4.0322578E-1,1.860112E-4,-5.8087494E-2,5.873253E-2,2.916667E-1,9.166666E-1,6.2903225E-1,-8.259137E-2,2.916667E-1,5.833334E-1,2.2371198E-4,1.25E-1,6.25E-1,5.670758E-2,-1.095225E-1,2.230888E-4,2.4334129E-4,-1.4143361E-1,-4.910087E-2,-1.3971807E-1,-2.9248914E-2,-1.3567664E-1,-3.0360702E-2,-1.2814759E-1,-1.0051022E-2,1.1118555E-1,-1.1645327E-1,1.1780787E-1,9.193548E-1,3.140031E-1,3.4540814E-1,2.1522213E-2,4.0585536E-1,4.0696323E-1,5.904118E-1,2.916667E-1,1.8383016E-5,9.997513E-1,3.6305025E-2,-2.6981259E-2,2.6484007E-5,5.645161E-1,1.5355592E-2,3.3338692E-5,3.75E-1,9.997513E-1,7.9032254E-1,5.8692347E-2,2.5E-1,4.166667E-1,7.258065E-1,8.75E-1,5.7641664E-5,9.166666E-1,6.574266E-5,8.3333336E-2,6.823527E-5,1.1756662E-1,9.8146615E-5,1.2564777E-1,2.0833334E-1,1.8538805E-4,1.21256374E-1,3.75E-1,2.5E-1,7.083334E-1,9.193548E-1,3.3870965E-1,2.916667E-1,6.529274E-2,4.516129E-1,9.997513E-1,7.580645E-1,7.916666E-1,2.1654571E-4,-4.5339182E-2,3.0075237E-2,7.5E-1,4.0322578E-1,2.1716885E-4,2.235594E-2,-6.275581E-2,9.583334E-1,-1.4230816E-1,2.916667E-1,-1.2190374E-1,9.997513E-1,-1.0712723E-1,1.4295831E-1,1.274046E-1,