{"learner":{"attributes":{"best_iteration":"1599","best_ntree_limit":"1600"},"feature_names":[],"feature_types":[],"gradient_booster":{"model":{"gbtree_model_param":{"num_trees":"1600","size_leaf_vector":"0"},"tree_info":[0,0,0,0,0,0,0,0,0,0,0,0,0,0,0,0,0,0,0,0,0,0,0,0,0,0,0,0,0,0,0,0,0,0,0,0,0,0,0,0,0,0,0,0,0,0,0,0,0,0,0,0,0,0,0,0,0,0,0,0,0,0,0,0,0,0,0,0,0,0,0,0,0,0,0,0,0,0,0,0,0,0,0,0,0,0,0,0,0,0,0,0,0,0,0,0,0,0,0,0,0,0,0,0,0,0,0,0,0,0,0,0,0,0,0,0,0,0,0,0,0,0,0,0,0,0,0,0,0,0,0,0,0,0,0,0,0,0,0,0,0,0,0,0,0,0,0,0,0,0,0,0,0,0,0,0,0,0,0,0,0,0,0,0,0,0,0,0,0,0,0,0,0,0,0,0,0,0,0,0,0,0,0,0,0,0,0,0,0,0,0,0,0,0,0,0,0,0,0,0,0,0,0,0,0,0,0,0,0,0,0,0,0,0,0,0,0,0,0,0,0,0,0,0,0,0,0,0,0,0,0,0,0,0,0,0,0,0,0,0,0,0,0,0,0,0,0,0,0,0,0,0,0,0,0,0,0,0,0,0,0,0,0,0,0,0,0,0,0,0,0,0,0,0,0,0,0,0,0,0,0,0,0,0,0,0,0,0,0,0,0,0,0,0,0,0,0,0,0,0,0,0,0,0,0,0,0,0,0,0,0,0,0,0,0,0,0,0,0,0,0,0,0,0,0,0,0,0,0,0,0,0,0,0,0,0,0,0,0,0,0,0,0,0,0,0,0,0,0,0,0,0,0,0,0,0,0,0,0,0,0,0,0,0,0,0,0,0,0,0,0,0,0,0,0,0,0,0,0,0,0,0,0,0,0,0,0,0,0,0,0,0,0,0,0,0,0,0,0,0,0,0,0,0,0,0,0,0,0,0,0,0,0,0,0,0,0,0,0,0,0,0,0,0,0,0,0,0,0,0,0,0,0,0,0,0,0,0,0,0,0,0,0,0,0,0,0,0,0,0,0,0,0,0,0,0,0,0,0,0,0,0,0,0,0,0,0,0,0,0,0,0,0,0,0,0,0,0,0,0,0,0,0,0,0,0,0,0,0,0,0,0,0,0,0,0,0,0,0,0,0,0,0,0,0,0,0,0,0,0,0,0,0,0,0,0,0,0,0,0,0,0,0,0,0,0,0,0,0,0,0,0,0,0,0,0,0,0,0,0,0,0,0,0,0,0,0,0,0,0,0,0,0,0,0,0,0,0,0,0,0,0,0,0,0,0,0,0,0,0,0,0,0,0,0,0,0,0,0,0,0,0,0,0,0,0,0,0,0,0,0,0,0,0,0,0,0,0,0,0,0,0,0,0,0,0,0,0,0,0,0,0,0,0,0,0,0,0,0,0,0,0,0,0,0,0,0,0,0,0,0,0,0,0,0,0,0,0,0,0,0,0,0,0,0,0,0,0,0,0,0,0,0,0,0,0,0,0,0,0,0,0,0,0,0,0,0,0,0,0,0,0,0,0,0,0,0,0,0,0,0,0,0,0,0,0,0,0,0,0,0,0,0,0,0,0,0,0,0,0,0,0,0,0,0,0,0,0,0,0,0,0,0,0,0,0,0,0,0,0,0,0,0,0,0,0,0,0,0,0,0,0,0,0,0,0,0,0,0,0,0,0,0,0,0,0,0,0,0,0,0,0,0,0,0,0,0,0,0,0,0,0,0,0,0,0,0,0,0,0,0,0,0,0,0,0,0,0,0,0,0,0,0,0,0,0,0,0,0,0,0,0,0,0,0,0,0,0,0,0,0,0,0,0,0,0,0,0,0,0,0,0,0,0,0,0,0,0,0,0,0,0,0,0,0,0,0,0,0,0,0,0,0,0,0,0,0,0,0,0,0,0,0,0,0,0,0,0,0,0,0,0,0,0,0,0,0,0,0,0,0,0,0,0,0,0,0,0,0,0,0,0,0,0,0,0,0,0,0,0,0,0,0,0,0,0,0,0,0,0,0,0,0,0,0,0,0,0,0,0,0,0,0,0,0,0,0,0,0,0,0,0,0,0,0,0,0,0,0,0,0,0,0,0,0,0,0,0,0,0,0,0,0,0,0,0,0,0,0,0,0,0,0,0,0,0,0,0,0,0,0,0,0,0,0,0,0,0,0,0,0,0,0,0,0,0,0,0,0,0,0,0,0,0,0,0,0,0,0,0,0,0,0,0,0,0,0,0,0,0,0,0,0,0,0,0,0,0,0,0,0,0,0,0,0,0,0,0,0,0,0,0,0,0,0,0,0,0,0,0,0,0,0,0,0,0,0,0,0,0,0,0,0,0,0,0,0,0,0,0,0,0,0,0,0,0,0,0,0,0,0,0,0,0,0,0,0,0,0,0,0,0,0,0,0,0,0,0,0,0,0,0,0,0,0,0,0,0,0,0,0,0,0,0,0,0,0,0,0,0,0,0,0,0,0,0,0,0,0,0,0,0,0,0,0,0,0,0,0,0,0,0,0,0,0,0,0,0,0,0,0,0,0,0,0,0,0,0,0,0,0,0,0,0,0,0,0,0,0,0,0,0,0,0,0,0,0,0,0,0,0,0,0,0,0,0,0,0,0,0,0,0,0,0,0,0,0,0,0,0,0,0,0,0,0,0,0,0,0,0,0,0,0,0,0,0,0,0,0,0,0,0,0,0,0,0,0,0,0,0,0,0,0,0,0,0,0,0,0,0,0,0,0,0,0,0,0,0,0,0,0,0,0,0,0,0,0,0,0,0,0,0,0,0,0,0,0,0,0,0,0,0,0,0,0,0,0,0,0,0,0,0,0,0,0,0,0,0,0,0,0,0,0,0,0,0,0,0,0,0,0,0,0,0,0,0,0,0,0,0,0,0,0,0,0,0,0,0,0,0,0,0,0,0,0,0,0,0,0,0,0,0,0,0,0,0,0,0,0,0,0,0,0,0,0,0,0,0,0,0,0,0,0,0,0,0,0,0,0,0,0,0,0,0,0,0,0,0,0,0,0,0,0,0,0,0,0,0,0,0,0,0,0,0,0,0,0,0,0,0,0,0,0,0,0,0,0,0,0,0,0,0,0,0,0,0,0,0,0,0,0,0,0,0,0,0,0,0,0,0,0,0,0,0,0,0,0,0,0,0,0,0,0,0,0,0,0,0,0,0,0,0,0,0,0,0,0,0,0,0,0,0,0,0,0,0,0,0,0,0,0,0,0,0,0,0,0,0,0,0,0,0,0,0,0,0,0,0,0,0,0,0,0,0,0,0,0,0,0,0,0,0,0,0,0,0,0,0,0,0,0,0,0,0,0,0,0,0,0,0,0,0,0,0,0,0,0,0,0,0,0,0,0,0,0,0,0,0,0,0,0,0,0,0,0,0,0,0,0,0,0,0,0,0,0,0,0,0,0,0,0,0,0,0,0,0,0,0,0,0,0,0,0,0,0,0,0,0,0,0,0,0,0,0,0,0,0,0,0,0,0,0,0,0,0,0,0,0,0,0,0,0,0,0,0,0,0,0,0,0,0,0,0,0,0,0,0,0,0,0,0,0,0,0,0,0,0,0,0,0,0,0,0,0,0,0,0,0,0,0],"trees":[{"base_weights":[-1.8056837E0,1.766921E0,-1.8983225E0,-8.767677E-1,1.8114188E0,-1.990303E0,-1.5533669E0,-1.4980989E0,-1.6949153E-1,1.8337637E0,7.2483224E-1,-1.9930087E0,-1.8425081E0,-1.4648626E0,-1.6778703E0],"categories":[],"categories_nodes":[],"categories_segments":[],"categories_sizes":[],"default_left":[true,true,true,true,true,true,true,false,false,false,false,false,false,false,false],"id":0,"left_children":[1,3,5,7,9,11,13,-1,-1,-1,-1,-1,-1,-1,-1],"loss_changes":[9.735719E4,8.7625586E2,9.094375E3,5.4128365E1,1.762168E2,8.68125E1,6.626719E2,0E0,0E0,0E0,0E0,0E0,0E0,0E0,0E0],"parents":[2147483647,0,0,1,1,2,2,3,3,4,4,5,5,6,6],"right_children":[2,4,6,8,10,12,14,-1,-1,-1,-1,-1,-1,-1,-1],"split_conditions":[3.4250002E0,7.05E-1,1.8889736E3,4.5499998E-1,3.065E0,1.5932577E3,5.9849565E3,-1.4980988E-1,-1.6949153E-2,1.8337637E-1,7.248323E-2,-1.9930087E-1,-1.8425082E-1,-1.4648627E-1,-1.6778703E-1],"split_indices":[5,5,5,5,5,5,5,0,0,0,0,0,0,0,0],"split_type":[0,0,0,0,0,0,0,0,0,0,0,0,0,0,0],"sum_hessian":[2.941535E5,7.43425E3,2.8671925E5,1.2275E2,7.3115E3,2.263575E5,6.036175E4,6.475E1,5.8E1,7.1635E3,1.48E2,2.2227575E5,4.08175E3,3.5289E4,2.507275E4],"tree_param":{"num_deleted":"0","num_feature":"9","num_nodes":"15","size_leaf_vector":"0"}},{"base_weights":[-1.6404628E0,1.6037707E0,-1.7246639E0,-4.5531607E-1,1.6516163E0,-1.8106723E0,-1.4103012E0,-1.35832E0,1.17538385E-1,1.6713886E0,5.98011E-1,-3.098458E-1,-1.810904E0,-1.3383952E0,-1.5292795E0],"categories":[],"categories_nodes":[],"categories_segments":[],"categories_sizes":[],"default_left":[true,true,true,true,true,true,true,false,false,false,false,false,false,false,false],"id":1,"left_children":[1,3,5,7,9,11,13,-1,-1,-1,-1,-1,-1,-1,-1],"loss_changes":[7.963194E4,7.2730273E2,7.6796875E3,8.719656E1,1.4915039E2,7.70625E1,5.201719E2,0E0,0E0,0E0,0E0,0E0,0E0,0E0,0E0],"parents":[2147483647,0,0,1,1,2,2,3,3,4,4,5,5,6,6],"right_children":[2,4,6,8,10,12,14,-1,-1,-1,-1,-1,-1,-1,-1],"split_conditions":[3.4250002E0,8.25E-1,1.7826567E3,4.5499998E-1,3.085E0,3.5949998E0,6.1920254E3,-1.35832E-1,1.17538385E-2,1.6713886E-1,5.98011E-2,-3.098458E-2,-1.810904E-1,-1.3383953E-1,-1.5292795E-1],"split_indices":[5,5,5,5,5,5,5,0,0,0,0,0,0,0,0],"split_type":[0,0,0,0,0,0,0,0,0,0,0,0,0,0,0],"sum_hessian":[2.9150162E5,7.3738037E3,2.841278E5,1.672556E2,7.2065483E3,2.230872E5,6.1040598E4,6.4388054E1,1.02867546E2,7.0732236E3,1.333248E2,3.4654728E1,2.2305256E5,3.8054258E4,2.2986342E4],"tree_param":{"num_deleted":"0","num_feature":"9","num_nodes":"15","size_leaf_vector":"0"}},{"base_weights":[-1.5137794E0,1.4762721E0,-1.5915718E0,-6.493043E-1,1.5159858E0,-1.6738852E0,-1.286952E0,-1.2433382E0,-9.030691E-2,1.5356226E0,5.863766E-1,-1.676366E0,-1.5399675E0,-1.1990155E0,-1.3858153E0],"categories":[],"categories_nodes":[],"categories_segments":[],"categories_sizes":[],"default_left":[true,true,true,true,true,true,true,false,false,false,false,false,false,false,false],"id":2,"left_children":[1,3,5,7,9,11,13,-1,-1,-1,-1,-1,-1,-1,-1],"loss_changes":[6.6212875E4,6.103301E2,6.9543125E3,4.4083668E1,1.2845801E2,7E1,5.1146875E2,0E0,0E0,0E0,0E0,0E0,0E0,0E0,0E0],"parents":[2147483647,0,0,1,1,2,2,3,3,4,4,5,5,6,6],"right_children":[2,4,6,8,10,12,14,-1,-1,-1,-1,-1,-1,-1,-1],"split_conditions":[3.4250002E0,7.35E-1,1.8923218E3,4.5499998E-1,3.065E0,1.593245E3,5.635209E3,-1.2433382E-1,-9.030691E-3,1.5356226E-1,5.863766E-2,-1.676366E-1,-1.5399675E-1,-1.1990155E-1,-1.3858153E-1],"split_indices":[5,5,5,5,5,5,5,0,0,0,0,0,0,0,0],"split_type":[0,0,0,0,0,0,0,0,0,0,0,0,0,0,0],"sum_hessian":[2.846492E5,7.2174917E3,2.774317E5,1.3209492E2,7.0853965E3,2.1840925E5,5.902243E4,6.3447E1,6.864793E1,6.938185E3,1.472115E2,2.1442561E5,3.983653E3,3.1244404E4,2.7778023E4],"tree_param":{"num_deleted":"0","num_feature":"9","num_nodes":"15","size_leaf_vector":"0"}},{"base_weights":[-1.4132303E0,1.3687909E0,-1.4861151E0,-2.2294544E-1,1.4167862E0,-1.568258E0,-1.1867002E0,-1.0159527E0,2.605875E-1,1.4375418E0,3.0058894E-1,-1.5706397E0,-1.4277266E0,-1.1022933E0,-1.2821736E0],"categories":[],"categories_nodes":[],"categories_segments":[],"categories_sizes":[],"default_left":[true,true,true,true,true,true,true,false,false,false,false,false,false,false,false],"id":3,"left_children":[1,3,5,7,9,11,13,-1,-1,-1,-1,-1,-1,-1,-1],"loss_changes":[5.5746375E4,5.365459E2,6.587125E3,7.937516E1,1.5742676E2,6.809375E1,4.6339844E2,0E0,0E0,0E0,0E0,0E0,0E0,0E0,0E0],"parents":[2147483647,0,0,1,1,2,2,3,3,4,4,5,5,6,6],"right_children":[2,4,6,8,10,12,14,-1,-1,-1,-1,-1,-1,-1,-1],"split_conditions":[3.5349998E0,8.95E-1,1.8923218E3,5.3499997E-1,3.1350002E0,1.6099949E3,5.635209E3,-1.01595275E-1,2.6058752E-2,1.4375418E-1,3.0058894E-2,-1.5706398E-1,-1.4277266E-1,-1.1022933E-1,-1.2821737E-1],"split_indices":[5,5,5,5,5,5,5,0,0,0,0,0,0,0,0],"split_type":[0,0,0,0,0,0,0,0,0,0,0,0,0,0,0],"sum_hessian":[2.7491744E5,7.0180933E3,2.6789934E5,2.0531482E2,6.8127783E3,2.102218E5,5.767755E4,7.7352875E1,1.2796194E2,6.688125E3,1.2465343E2,2.0670838E5,3.5134153E3,3.0619615E4,2.7057938E4],"tree_param":{"num_deleted":"0","num_feature":"9","num_nodes":"15","size_leaf_vector":"0"}},{"base_weights":[-1.3311766E0,1.2830132E0,-1.3999945E0,-2.0322041E-1,1.3291941E0,-1.4838194E0,-1.1004332E0,-1.071127E0,1.7077252E-1,1.3563339E0,4.9126086E-1,-1.4863707E0,-1.3469472E0,-1.0350811E0,-1.2207144E0],"categories":[],"categories_nodes":[],"categories_segments":[],"categories_sizes":[],"default_left":[true,true,true,true,true,true,true,false,false,false,false,false,false,false,false],"id":4,"left_children":[1,3,5,7,9,11,13,-1,-1,-1,-1,-1,-1,-1,-1],"loss_changes":[4.7368688E4,4.6382227E2,6.4402188E3,6.6529396E1,1.4829883E2,6.796875E1,4.3967188E2,0E0,0E0,0E0,0E0,0E0,0E0,0E0,0E0],"parents":[2147483647,0,0,1,1,2,2,3,3,4,4,5,5,6,6],"right_children":[2,4,6,8,10,12,14,-1,-1,-1,-1,-1,-1,-1,-1],"split_conditions":[3.5349998E0,8.95E-1,1.8889736E3,4.5499998E-1,3.0149999E0,1.5932577E3,6.3741885E3,-1.07112706E-1,1.7077252E-2,1.356334E-1,4.9126085E-2,-1.4863707E-1,-1.3469473E-1,-1.03508115E-1,-1.22071445E-1],"split_indices":[5,5,5,5,5,5,5,0,0,0,0,0,0,0,0],"split_type":[0,0,0,0,0,0,0,0,0,0,0,0,0,0,0],"sum_hessian":[2.632902E5,6.7528164E3,2.5653736E5,2.0340027E2,6.549416E3,2.0044408E5,5.609328E4,6.0691807E1,1.4270845E2,6.343343E3,2.0607318E2,1.9676655E5,3.677538E3,3.63519E4,1.9741385E4],"tree_param":{"num_deleted":"0","num_feature":"9","num_nodes":"15","size_leaf_vector":"0"}},{"base_weights":[-1.2626355E0,1.209859E0,-1.3280973E0,-5.015881E-2,1.2600282E0,-1.4164343E0,-1.0291667E0,-8.250732E-1,3.3591104E-1,1.29235E0,5.5015045E-1,-1.41915E0,-1.3526874E0,-9.6616626E-1,-1.1374322E0],"categories":[],"categories_nodes":[],"categories_segments":[],"categories_sizes":[],"default_left":[true,true,true,true,true,true,true,false,false,false,false,false,false,false,false],"id":5,"left_children":[1,3,5,7,9,11,13,-1,-1,-1,-1,-1,-1,-1,-1],"loss_changes":[4.0546812E4,4.08542E2,6.4429062E3,7.459E1,1.4187598E2,3.071875E1,3.786172E2,0E0,0E0,0E0,0E0,0E0,0E0,0E0,0E0],"parents":[2147483647,0,0,1,1,2,2,3,3,4,4,5,5,6,6],"right_children":[2,4,6,8,10,12,14,-1,-1,-1,-1,-1,-1,-1,-1],"split_conditions":[3.5349998E0,9.75E-1,1.7398911E3,5.85E-1,2.935E0,1.3897E3,6.1920254E3,-8.250732E-2,3.3591103E-2,1.2923501E-1,5.5015046E-2,-1.4191501E-1,-1.3526873E-1,-9.6616626E-2,-1.1374322E-1],"split_indices":[5,5,5,5,5,5,5,0,0,0,0,0,0,0,0],"split_type":[0,0,0,0,0,0,0,0,0,0,0,0,0,0,0],"sum_hessian":[2.5050364E5,6.460826E3,2.4404283E5,2.4739581E2,6.2134307E3,1.8837302E5,5.566981E4,8.189005E1,1.6550575E2,5.942059E3,2.7137155E2,1.806557E5,7.717308E3,3.5197867E4,2.0471941E4],"tree_param":{"num_deleted":"0","num_feature":"9","num_nodes":"15","size_leaf_vector":"0"}},{"base_weights":[-1.2041962E0,1.1507951E0,-1.2667197E0,-4.605143E-2,1.2005044E0,-1.357952E0,-9.559938E-1,-7.5918293E-1,3.0493966E-1,1.2282493E0,5.5853957E-1,-1.3607484E0,-1.2121879E0,-8.6372006E-1,-1.040909E0],"categories":[],"categories_nodes":[],"categories_segments":[],"categories_sizes":[],"default_left":[true,true,true,true,true,true,true,false,false,false,false,false,false,false,false],"id":6,"left_children":[1,3,5,7,9,11,13,-1,-1,-1,-1,-1,-1,-1,-1],"loss_changes":[3.4914125E4,3.649248E2,6.5465312E3,6.1686916E1,1.0419336E2,7.115625E1,4.0989844E2,0E0,0E0,0E0,0E0,0E0,0E0,0E0,0E0],"parents":[2147483647,0,0,1,1,2,2,3,3,4,4,5,5,6,6],"right_children":[2,4,6,8,10,12,14,-1,-1,-1,-1,-1,-1,-1,-1],"split_conditions":[3.4250002E0,9.75E-1,1.8923218E3,5.85E-1,2.935E0,1.5932577E3,5.286022E3,-7.5918294E-2,3.0493965E-2,1.2282493E-1,5.585396E-2,-1.3607484E-1,-1.2121879E-1,-8.637201E-2,-1.0409091E-1],"split_indices":[5,5,5,5,5,5,5,0,0,0,0,0,0,0,0],"split_type":[0,0,0,0,0,0,0,0,0,0,0,0,0,0,0],"sum_hessian":[2.3710942E5,6.1318413E3,2.3097758E5,2.4452425E2,5.887317E3,1.7855006E5,5.242752E4,8.0270485E1,1.6425375E2,5.6425396E3,2.4477748E2,1.7518105E5,3.3690125E3,2.5130494E4,2.7297025E4],"tree_param":{"num_deleted":"0","num_feature":"9","num_nodes":"15","size_leaf_vector":"0"}},{"base_weights":[-1.1534669E0,1.0886394E0,-1.2137567E0,-4.230647E-2,1.1373478E0,-1.3116486E0,-8.984021E-1,-8.890654E-1,2.1579506E-1,1.1637112E0,2.3642868E-1,-1.3143301E0,-1.2171152E0,-8.404261E-1,-1.0226873E0],"categories":[],"categories_nodes":[],"categories_segments":[],"categories_sizes":[],"default_left":[true,true,true,true,true,true,true,false,false,false,false,false,false,false,false],"id":7,"left_children":[1,3,5,7,9,11,13,-1,-1,-1,-1,-1,-1,-1,-1],"loss_changes":[3.0215E4,3.2249072E2,6.7181875E3,5.3223507E1,1.3301074E2,4.05E1,3.706875E2,0E0,0E0,0E0,0E0,0E0,0E0,0E0,0E0],"parents":[2147483647,0,0,1,1,2,2,3,3,4,4,5,5,6,6],"right_children":[2,4,6,8,10,12,14,-1,-1,-1,-1,-1,-1,-1,-1],"split_conditions":[3.5949998E0,9.75E-1,1.7647598E3,4.5499998E-1,3.085E0,1.475095E3,6.523229E3,-8.890654E-2,2.1579506E-2,1.1637112E-1,2.3642868E-2,-1.3143301E-1,-1.21711515E-1,-8.404261E-2,-1.0226873E-1],"split_indices":[5,5,5,5,5,5,5,0,0,0,0,0,0,0,0],"split_type":[0,0,0,0,0,0,0,0,0,0,0,0,0,0,0],"sum_hessian":[2.2351275E5,5.852376E3,2.1766038E5,2.4165251E2,5.6107236E3,1.6609747E5,5.1562906E4,5.5880287E1,1.8577223E2,5.4509224E3,1.5980116E2,1.615033E5,4.5941714E3,3.5166406E4,1.63965E4],"tree_param":{"num_deleted":"0","num_feature":"9","num_nodes":"15","size_leaf_vector":"0"}},{"base_weights":[-1.1086819E0,1.037594E0,-1.1668727E0,-3.910158E-2,1.0860884E0,-1.2698528E0,-8.372927E-1,-8.309472E-1,1.9525146E-1,1.1220628E0,4.0565392E-1,-1.2730336E0,-1.107512E0,-7.5486743E-1,-9.3537813E-1],"categories":[],"categories_nodes":[],"categories_segments":[],"categories_sizes":[],"default_left":[true,true,true,true,true,true,true,false,false,false,false,false,false,false,false],"id":8,"left_children":[1,3,5,7,9,11,13,-1,-1,-1,-1,-1,-1,-1,-1],"loss_changes":[2.6230844E4,2.8953027E2,6.9387812E3,4.4684155E1,1.2941064E2,7.9046875E1,3.92875E2,0E0,0E0,0E0,0E0,0E0,0E0,0E0,0E0],"parents":[2147483647,0,0,1,1,2,2,3,3,4,4,5,5,6,6],"right_children":[2,4,6,8,10,12,14,-1,-1,-1,-1,-1,-1,-1,-1],"split_conditions":[3.5949998E0,9.75E-1,1.8889736E3,4.5499998E-1,2.935E0,1.5932577E3,5.6420684E3,-8.309472E-2,1.9525146E-2,1.1220628E-1,4.0565394E-2,-1.2730336E-1,-1.10751204E-1,-7.548674E-2,-9.3537815E-2],"split_indices":[5,5,5,5,5,5,5,0,0,0,0,0,0,0,0],"split_type":[0,0,0,0,0,0,0,0,0,0,0,0,0,0,0],"sum_hessian":[2.1001475E5,5.543277E3,2.0447147E5,2.3891791E2,5.304359E3,1.5579058E5,4.8680895E4,5.398033E1,1.8493758E2,5.0373853E3,2.669737E2,1.5279E5,3.0005688E3,2.6456836E4,2.2224057E4],"tree_param":{"num_deleted":"0","num_feature":"9","num_nodes":"15","size_leaf_vector":"0"}},{"base_weights":[-1.0685326E0,9.913375E-1,-1.1248614E0,-2.178123E-2,1.0407122E0,-1.2367533E0,-7.898189E-1,-4.841905E-1,3.3879334E-1,1.0817764E0,4.4246894E-1,-1.2410564E0,-1.1697303E0,-7.3007005E-1,-9.1122854E-1],"categories":[],"categories_nodes":[],"categories_segments":[],"categories_sizes":[],"default_left":[true,true,true,true,true,true,true,false,false,false,false,false,false,false,false],"id":9,"left_children":[1,3,5,7,9,11,13,-1,-1,-1,-1,-1,-1,-1,-1],"loss_changes":[2.2839406E4,2.621289E2,7.1815156E3,4.0926E1,1.2226172E2,3.996875E1,3.473047E2,0E0,0E0,0E0,0E0,0E0,0E0,0E0,0E0],"parents":[2147483647,0,0,1,1,2,2,3,3,4,4,5,5,6,6],"right_children":[2,4,6,8,10,12,14,-1,-1,-1,-1,-1,-1,-1,-1],"split_conditions":[3.565E0,9.85E-1,1.7398911E3,6.95E-1,2.8649998E0,1.3083842E3,6.390123E3,-4.841905E-2,3.3879336E-2,1.0817764E-1,4.4246893E-2,-1.2410565E-1,-1.16973035E-1,-7.300701E-2,-9.112286E-2],"split_indices":[5,5,5,5,5,5,5,0,0,0,0,0,0,0,0],"split_type":[0,0,0,0,0,0,0,0,0,0,0,0,0,0,0],"sum_hessian":[1.968298E5,5.2387573E3,1.9159105E5,2.4347441E2,4.995283E3,1.436234E5,4.796764E4,1.0652344E2,1.3695097E2,4.6736685E3,3.2161456E2,1.3494203E5,8.681379E3,3.2151875E4,1.5815764E4],"tree_param":{"num_deleted":"0","num_feature":"9","num_nodes":"15","size_leaf_vector":"0"}},{"base_weights":[-1.0319773E0,9.648033E-1,-1.0862201E0,8.4749855E-2,1.0234531E0,-1.2041873E0,-7.348319E-1,-4.411998E-1,3.640865E-1,1.0595521E0,6.5999985E-1,-1.2727523E-1,-1.2049708E0,-6.6123813E-1,-8.473084E-1],"categories":[],"categories_nodes":[],"categories_segments":[],"categories_sizes":[],"default_left":[true,true,true,true,true,true,true,false,false,false,false,false,false,false,false],"id":10,"left_children":[1,3,5,7,9,11,13,-1,-1,-1,-1,-1,-1,-1,-1],"loss_changes":[1.9942812E4,2.5126807E2,7.4293125E3,4.502221E1,5.9200195E1,1.13078125E2,3.7238086E2,0E0,0E0,0E0,0E0,0E0,0E0,0E0,0E0],"parents":[2147483647,0,0,1,1,2,2,3,3,4,4,5,5,6,6],"right_children":[2,4,6,8,10,12,14,-1,-1,-1,-1,-1,-1,-1,-1],"split_conditions":[3.2350001E0,1.085E0,1.8923218E3,6.95E-1,2.7150002E0,3.7649999E0,5.9849565E3,-4.411998E-2,3.640865E-2,1.05955206E-1,6.5999985E-2,-1.2727523E-2,-1.20497085E-1,-6.612381E-2,-8.473084E-2],"split_indices":[5,5,5,5,5,5,5,0,0,0,0,0,0,0,0],"split_type":[0,0,0,0,0,0,0,0,0,0,0,0,0,0,0],"sum_hessian":[1.8411486E5,4.868788E3,1.7924606E5,3.0435315E2,4.5644346E3,1.341928E5,4.5053273E4,1.0537262E2,1.9898053E2,4.1503022E3,4.1413223E2,9.76961E1,1.340951E5,2.7238135E4,1.7815137E4],"tree_param":{"num_deleted":"0","num_feature":"9","num_nodes":"15","size_leaf_vector":"0"}},{"base_weights":[-9.9824965E-1,9.241833E-1,-1.0509748E0,7.741982E-2,9.8339474E-1,-1.1800175E0,-6.940373E-1,-7.1769047E-1,2.3832639E-1,-3.538866E0,9.86311E-1,-1.147602E-1,-1.1808633E0,-6.438698E-1,-8.413695E-1],"categories":[],"categories_nodes":[],"categories_segments":[],"categories_sizes":[],"default_left":[true,true,true,true,true,true,true,false,false,false,false,false,false,false,false],"id":11,"left_children":[1,3,5,7,9,11,13,-1,-1,-1,-1,-1,-1,-1,-1],"loss_changes":[1.7431922E4,2.3011401E2,7.708703E3,3.8699093E1,6.0080566E1,1.10609375E2,3.2797656E2,0E0,0E0,0E0,0E0,0E0,0E0,0E0,0E0],"parents":[2147483647,0,0,1,1,2,2,3,3,4,4,5,5,6,6],"right_children":[2,4,6,8,10,12,14,-1,-1,-1,-1,-1,-1,-1,-1],"split_conditions":[3.2350001E0,1.085E0,1.7329084E3,4.5499998E-1,5.65E2,3.7649999E0,6.939162E3,-7.176905E-2,2.383264E-2,-3.538866E-1,9.863111E-2,-1.147602E-2,-1.1808633E-1,-6.4386986E-2,-8.4136955E-2],"split_indices":[5,5,5,5,0,5,5,0,0,0,0,0,0,0,0],"split_type":[0,0,0,0,0,0,0,0,0,0,0,0,0,0,0],"sum_hessian":[1.7196831E5,4.5901157E3,1.6737819E5,3.0014514E2,4.28997E3,1.2293246E5,4.444573E4,4.9934834E1,2.5021033E2,1.9833052E0,4.2879873E3,9.762797E1,1.22834836E5,3.3159938E4,1.1285795E4],"tree_param":{"num_deleted":"0","num_feature":"9","num_nodes":"15","size_leaf_vector":"0"}},{"base_weights":[-9.666961E-1,8.662517E-1,-1.0185577E0,1.1181043E-1,9.270845E-1,-1.1578147E0,-6.500497E-1,-3.776099E-1,3.4372392E-1,9.780558E-1,3.0036414E-1,-1.1623198E0,-1.0535822E0,-5.934882E-1,-7.8012234E-1],"categories":[],"categories_nodes":[],"categories_segments":[],"categories_sizes":[],"default_left":[true,true,true,true,true,true,true,false,false,false,false,false,false,false,false],"id":12,"left_children":[1,3,5,7,9,11,13,-1,-1,-1,-1,-1,-1,-1,-1],"loss_changes":[1.5254281E4,2.0255493E2,8.0071562E3,3.7656498E1,1.302356E2,5.1953125E1,3.144121E2,0E0,0E0,0E0,0E0,0E0,0E0,0E0,0E0],"parents":[2147483647,0,0,1,1,2,2,3,3,4,4,5,5,6,6],"right_children":[2,4,6,8,10,12,14,-1,-1,-1,-1,-1,-1,-1,-1],"split_conditions":[3.6350002E0,1.125E0,1.7329084E3,7.05E-1,2.8649998E0,1.3897219E3,6.523229E3,-3.776099E-2,3.4372393E-2,9.780558E-2,3.0036414E-2,-1.1623198E-1,-1.0535822E-1,-5.934882E-2,-7.8012235E-2],"split_indices":[5,5,5,5,5,5,5,0,0,0,0,0,0,0,0],"split_type":[0,0,0,0,0,0,0,0,0,0,0,0,0,0,0],"sum_hessian":[1.6046056E5,4.4147256E3,1.5604584E5,3.2962253E2,4.085103E3,1.1324792E5,4.279792E4,1.0577379E2,2.2384874E2,3.7773315E3,3.077715E2,1.0854631E5,4.7016035E3,2.9831418E4,1.2966502E4],"tree_param":{"num_deleted":"0","num_feature":"9","num_nodes":"15","size_leaf_vector":"0"}},{"base_weights":[-9.368385E-1,8.48817E-1,-9.8689246E-1,1.3490033E-1,9.164114E-1,-1.1374918E0,-6.103822E-1,-1.0247276E0,2.2268069E-1,9.6063536E-1,5.0943935E-1,-1.1988256E-1,-1.138439E0,-5.641489E-1,-7.62956E-1],"categories":[],"categories_nodes":[],"categories_segments":[],"categories_sizes":[],"default_left":[true,true,true,true,true,true,true,false,false,false,false,false,false,false,false],"id":13,"left_children":[1,3,5,7,9,11,13,-1,-1,-1,-1,-1,-1,-1,-1],"loss_changes":[1.33740625E4,1.9677832E2,8.252E3,3.6271442E1,6.659277E1,1.000625E2,2.929121E2,0E0,0E0,0E0,0E0,0E0,0E0,0E0,0E0],"parents":[2147483647,0,0,1,1,2,2,3,3,4,4,5,5,6,6],"right_children":[2,4,6,8,10,12,14,-1,-1,-1,-1,-1,-1,-1,-1],"split_conditions":[3.2350001E0,1.165E0,1.688737E3,2.65E-1,2.7150002E0,3.7649999E0,7.0598604E3,-1.0247276E-1,2.226807E-2,9.606354E-2,5.0943937E-2,-1.1988256E-2,-1.1384391E-1,-5.641489E-2,-7.629561E-2],"split_indices":[5,5,5,5,5,5,5,0,0,0,0,0,0,0,0],"split_type":[0,0,0,0,0,0,0,0,0,0,0,0,0,0,0],"sum_hessian":[1.4962261E5,4.0792966E3,1.4554331E5,3.5308548E2,3.7262112E3,1.0395899E5,4.1584316E4,2.4095575E1,3.289899E2,3.3597593E3,3.664519E2,9.679911E1,1.03862195E5,3.1917344E4,9.666975E3],"tree_param":{"num_deleted":"0","num_feature":"9","num_nodes":"15","size_leaf_vector":"0"}},{"base_weights":[-9.082364E-1,8.128067E-1,-9.57062E-1,9.004457E-2,8.786702E-1,-1.1193597E0,-5.706185E-1,-9.793941E-1,1.7468244E-1,9.23296E-1,4.6640423E-1,-1.0808594E-1,-1.1203839E0,-4.9841842E-1,-6.676908E-1],"categories":[],"categories_nodes":[],"categories_segments":[],"categories_sizes":[],"default_left":[true,true,true,true,true,true,true,false,false,false,false,false,false,false,false],"id":14,"left_children":[1,3,5,7,9,11,13,-1,-1,-1,-1,-1,-1,-1,-1],"loss_changes":[1.1720992E4,1.8311206E2,8.505773E3,2.9362934E1,6.445337E1,9.880469E1,2.8082422E2,0E0,0E0,0E0,0E0,0E0,0E0,0E0,0E0],"parents":[2147483647,0,0,1,1,2,2,3,3,4,4,5,5,6,6],"right_children":[2,4,6,8,10,12,14,-1,-1,-1,-1,-1,-1,-1,-1],"split_conditions":[3.2350001E0,1.125E0,1.688737E3,2.65E-1,2.725E0,3.7649999E0,5.635209E3,-9.793941E-2,1.7468244E-2,9.23296E-2,4.6640422E-2,-1.0808594E-2,-1.1203839E-1,-4.9841844E-2,-6.6769086E-2],"split_indices":[5,5,5,5,5,5,5,0,0,0,0,0,0,0,0],"split_type":[0,0,0,0,0,0,0,0,0,0,0,0,0,0,0],"sum_hessian":[1.3947395E5,3.847256E3,1.356267E5,3.215084E2,3.5257478E3,9.5511914E4,4.0114785E4,2.2803541E1,2.9870486E2,3.1802607E3,3.4548685E2,9.673989E1,9.541517E4,2.3008059E4,1.7106727E4],"tree_param":{"num_deleted":"0","num_feature":"9","num_nodes":"15","size_leaf_vector":"0"}},{"base_weights":[-8.8058674E-1,7.5772625E-1,-9.288248E-1,1.08101875E-1,8.2403374E-1,-1.1001422E0,-5.234642E-1,-3.3706224E-1,2.9795527E-1,8.935179E-1,3.116776E-1,-1.1067582E0,-8.7131834E-1,-4.2986843E-1,-6.18249E-1],"categories":[],"categories_nodes":[],"categories_segments":[],"categories_sizes":[],"default_left":[true,true,true,true,true,true,true,false,false,false,false,false,false,false,false],"id":15,"left_children":[1,3,5,7,9,11,13,-1,-1,-1,-1,-1,-1,-1,-1],"loss_changes":[1.0275258E4,1.6010815E2,8.769789E3,2.9308908E1,1.19854004E2,1.3342969E2,3.3259375E2,0E0,0E0,0E0,0E0,0E0,0E0,0E0,0E0],"parents":[2147483647,0,0,1,1,2,2,3,3,4,4,5,5,6,6],"right_children":[2,4,6,8,10,12,14,-1,-1,-1,-1,-1,-1,-1,-1],"split_conditions":[3.6350002E0,1.165E0,1.8889736E3,7.05E-1,2.745E0,1.5403805E3,5.286022E3,-3.3706225E-2,2.9795527E-2,8.9351796E-2,3.116776E-2,-1.1067583E-1,-8.7131836E-2,-4.2986844E-2,-6.18249E-2],"split_indices":[5,5,5,5,5,5,5,0,0,0,0,0,0,0,0],"split_type":[0,0,0,0,0,0,0,0,0,0,0,0,0,0,0],"sum_hessian":[1.3000874E5,3.7180396E3,1.262907E5,3.4459738E2,3.3734421E3,8.877151E4,3.751919E4,1.0279366E2,2.4180373E2,2.9699255E3,4.0351654E2,8.627326E4,2.4982554E3,1.888079E4,1.8638402E4],"tree_param":{"num_deleted":"0","num_feature":"9","num_nodes":"15","size_leaf_vector":"0"}},{"base_weights":[-8.536287E-1,7.446558E-1,-9.001723E-1,1.3445695E-1,8.199013E-1,-1.0886313E0,-4.9709177E-1,-2.1372665E-1,3.4641525E-1,8.7053865E-1,4.1188064E-1,-1.1642611E-1,-1.0897938E0,-4.5402494E-1,-6.6250384E-1],"categories":[],"categories_nodes":[],"categories_segments":[],"categories_sizes":[],"default_left":[true,true,true,true,true,true,true,false,false,false,false,false,false,false,false],"id":16,"left_children":[1,3,5,7,9,11,13,-1,-1,-1,-1,-1,-1,-1,-1],"loss_changes":[9.017773E3,1.5740173E2,8.946875E3,2.7954891E1,6.273535E1,9.0578125E1,2.6703223E2,0E0,0E0,0E0,0E0,0E0,0E0,0E0,0E0],"parents":[2147483647,0,0,1,1,2,2,3,3,4,4,5,5,6,6],"right_children":[2,4,6,8,10,12,14,-1,-1,-1,-1,-1,-1,-1,-1],"split_conditions":[3.2350001E0,1.215E0,1.6800603E3,8.25E-1,2.7150002E0,3.7649999E0,7.2373604E3,-2.1372667E-2,3.4641527E-2,8.7053865E-2,4.1188065E-2,-1.1642612E-2,-1.0897938E-1,-4.5402493E-2,-6.6250384E-2],"split_indices":[5,5,5,5,5,5,5,0,0,0,0,0,0,0,0],"split_type":[0,0,0,0,0,0,0,0,0,0,0,0,0,0,0],"sum_hessian":[1.2121322E5,3.429535E3,1.1778369E5,3.767873E2,3.0527476E3,8.0257734E4,3.7525957E4,1.4257356E2,2.3421373E2,2.7147056E3,3.38042E2,9.5972496E1,8.016176E4,2.9776945E4,7.7490103E3],"tree_param":{"num_deleted":"0","num_feature":"9","num_nodes":"15","size_leaf_vector":"0"}},{"base_weights":[-8.2708937E-1,7.20756E-1,-8.7225187E-1,1.2297581E-1,7.99062E-1,-1.0731512E0,-4.5942596E-1,-9.135622E-1,1.8706398E-1,-3.6716459E0,8.033673E-1,-1.0421676E-1,-1.0748911E0,-3.9917782E-1,-5.789414E-1],"categories":[],"categories_nodes":[],"categories_segments":[],"categories_sizes":[],"default_left":[true,true,true,true,true,true,true,false,false,false,false,false,false,false,false],"id":17,"left_children":[1,3,5,7,9,11,13,-1,-1,-1,-1,-1,-1,-1,-1],"loss_changes":[7.904867E3,1.4998279E2,9.111469E3,2.4918045E1,5.7510498E1,1.2447656E2,2.5874512E2,0E0,0E0,0E0,0E0,0E0,0E0,0E0,0E0],"parents":[2147483647,0,0,1,1,2,2,3,3,4,4,5,5,6,6],"right_children":[2,4,6,8,10,12,14,-1,-1,-1,-1,-1,-1,-1,-1],"split_conditions":[3.145E0,1.215E0,1.7398911E3,2.65E-1,5.65E2,3.7649999E0,6.1920254E3,-9.135622E-2,1.8706398E-2,-3.6716458E-1,8.0336735E-2,-1.0421677E-2,-1.0748911E-1,-3.9917782E-2,-5.789414E-2],"split_indices":[5,5,5,5,0,5,5,0,0,0,0,0,0,0,0],"split_type":[0,0,0,0,0,0,0,0,0,0,0,0,0,0,0],"sum_hessian":[1.1307102E5,3.20519E3,1.0986583E5,3.7153076E2,2.8336592E3,7.390082E4,3.5965008E4,2.0861986E1,3.5066876E2,1.906682E0,2.8317524E3,1.3257207E2,7.376825E4,2.3914148E4,1.2050859E4],"tree_param":{"num_deleted":"0","num_feature":"9","num_nodes":"15","size_leaf_vector":"0"}},{"base_weights":[-8.008379E-1,-9.828023E-1,-4.1979992E-1,6.549009E-1,-1.0587488E0,-3.268864E-1,-5.1024705E-1,7.777875E-2,7.225421E-1,-1.0686042E0,-8.074921E-1,-9.2330015E-1,-2.8466207E-1,-5.142234E-1,4.161517E0],"categories":[],"categories_nodes":[],"categories_segments":[],"categories_sizes":[],"default_left":[true,true,true,true,true,true,true,false,false,false,false,false,false,false,false],"id":18,"left_children":[1,3,5,7,9,11,13,-1,-1,-1,-1,-1,-1,-1,-1],"loss_changes":[7.3180156E3,8.885758E3,2.865381E2,1.2355774E2,1.6819531E2,4.236067E2,3.2325244E2,0E0,0E0,0E0,0E0,0E0,0E0,0E0,0E0],"parents":[2147483647,0,0,1,1,2,2,3,3,4,4,5,5,6,6],"right_children":[2,4,6,8,10,12,14,-1,-1,-1,-1,-1,-1,-1,-1],"split_conditions":[1.8923218E3,3.7649999E0,5.181416E3,1.165E0,1.4866576E3,2.385E3,3.53495E4,7.777875E-3,7.225421E-2,-1.0686042E-1,-8.0749206E-2,-9.2330016E-2,-2.8466208E-2,-5.142234E-2,4.1615173E-1],"split_indices":[5,5,5,5,5,0,0,0,0,0,0,0,0,0,0],"split_type":[0,0,0,0,0,0,0,0,0,0,0,0,0,0,0],"sum_hessian":[1.0555023E5,7.1434945E4,3.4115277E4,3.165562E3,6.826939E4,1.683047E4,1.7284809E4,3.3232025E2,2.8332417E3,6.56895E4,2.5798848E3,1.1113867E3,1.5719083E4,1.7270998E4,1.3810294E1],"tree_param":{"num_deleted":"0","num_feature":"9","num_nodes":"15","size_leaf_vector":"0"}},{"base_weights":[-7.746789E-1,-9.7002167E-1,-3.8923255E-1,6.229852E-1,-1.0467417E0,-3.4396535E-1,-5.6311995E-1,9.8504335E-2,6.953853E-1,-1.0575882E0,-7.773885E-1,-7.786348E-1,-3.1366348E-1,-6.491639E-1,-1.5402056E-1],"categories":[],"categories_nodes":[],"categories_segments":[],"categories_sizes":[],"default_left":[true,true,true,true,true,true,true,false,false,false,false,false,false,false,false],"id":19,"left_children":[1,3,5,7,9,11,13,-1,-1,-1,-1,-1,-1,-1,-1],"loss_changes":[7.425961E3,8.0004727E3,2.609419E2,1.14160645E2,1.81625E2,3.4649414E2,2.4105518E2,0E0,0E0,0E0,0E0,0E0,0E0,0E0,0E0],"parents":[2147483647,0,0,1,1,2,2,3,3,4,4,5,5,6,6],"right_children":[2,4,6,8,10,12,14,-1,-1,-1,-1,-1,-1,-1,-1],"split_conditions":[1.8923218E3,3.6350002E0,7.2373604E3,1.215E0,1.4866576E3,2.388E3,1.745E2,9.850434E-3,6.9538526E-2,-1.0575882E-1,-7.773885E-2,-7.786348E-2,-3.136635E-2,-6.4916395E-2,-1.5402056E-2],"split_indices":[5,5,5,5,5,0,2,0,0,0,0,0,0,0,0],"split_type":[0,0,0,0,0,0,0,0,0,0,0,0,0,0,0],"sum_hessian":[9.862996E4,6.5455727E4,3.317423E4,3.007209E3,6.244852E4,2.6324334E4,6.849896E3,3.6505295E2,2.642156E3,6.0028312E4,2.4202036E3,1.7139297E3,2.4610404E4,5.659065E3,1.190831E3],"tree_param":{"num_deleted":"0","num_feature":"9","num_nodes":"15","size_leaf_vector":"0"}},{"base_weights":[-7.4854213E-1,-9.6295583E-1,-3.6921257E-1,6.2580764E-1,-1.0406355E0,2.848192E0,-3.7116832E-1,9.780598E-2,7.094312E-1,-2.2727104E-1,-1.0425149E0,5.4911017E0,-1.0785093E0,-3.310867E-1,-5.342092E-1],"categories":[],"categories_nodes":[],"categories_segments":[],"categories_sizes":[],"default_left":[true,true,true,true,true,false,true,false,false,false,false,false,false,false,false],"id":20,"left_children":[1,3,5,7,9,11,13,-1,-1,-1,-1,-1,-1,-1,-1],"loss_changes":[7.504168E3,7.27566E3,2.1073535E2,1.2128247E2,8.567578E1,2.1720001E2,2.1745264E2,0E0,0E0,0E0,0E0,0E0,0E0,0E0,0E0],"parents":[2147483647,0,0,1,1,2,2,3,3,4,4,5,5,6,6],"right_children":[2,4,6,8,10,12,14,-1,-1,-1,-1,-1,-1,-1,-1],"split_conditions":[1.6800603E3,3.145E0,-5E-1,1.235E0,3.7649999E0,7.8E1,7.2373604E3,9.780598E-3,7.094312E-2,-2.2727104E-2,-1.042515E-1,5.491102E-1,-1.0785093E-1,-3.310867E-2,-5.342092E-2],"split_indices":[5,5,2,5,5,3,5,0,0,0,0,0,0,0,0],"split_type":[0,0,0,0,0,0,0,0,0,0,0,0,0,0,0],"sum_hessian":[9.226762E4,5.8946777E4,3.3320844E4,2.7474172E3,5.619936E4,1.9358398E1,3.330149E4,3.759332E2,2.3714841E3,1.2984203E2,5.6069516E4,1.1332519E1,8.025879E0,2.6732625E4,6.5688613E3],"tree_param":{"num_deleted":"0","num_feature":"9","num_nodes":"15","size_leaf_vector":"0"}},{"base_weights":[-7.223514E-1,-9.517587E-1,-3.4139025E-1,5.558397E-1,-1.0325819E0,-6.9047815E-1,-3.229431E-1,6.294042E-1,4.856477E-2,-1.045145E0,-8.919675E-1,2.1348286E0,-7.257218E-1,-3.4931442E-1,-3.7712228E-2],"categories":[],"categories_nodes":[],"categories_segments":[],"categories_sizes":[],"default_left":[true,true,true,true,true,true,true,false,false,false,false,false,false,false,false],"id":21,"left_children":[1,3,5,7,9,11,13,-1,-1,-1,-1,-1,-1,-1,-1],"loss_changes":[7.5529453E3,6.573414E3,2.0896997E2,1.0242035E2,8.951172E1,1.6381476E2,2.3208643E2,0E0,0E0,0E0,0E0,0E0,0E0,0E0,0E0],"parents":[2147483647,0,0,1,1,2,2,3,3,4,4,5,5,6,6],"right_children":[2,4,6,8,10,12,14,-1,-1,-1,-1,-1,-1,-1,-1],"split_conditions":[1.6800603E3,3.7649999E0,4.05E1,2.745E0,1.22947E3,4.37E2,3.21235E4,6.294042E-2,4.856477E-3,-1.045145E-1,-8.919675E-2,2.1348286E-1,-7.257218E-2,-3.4931444E-2,-3.771223E-3],"split_indices":[5,5,4,5,5,0,0,0,0,0,0,0,0,0,0],"split_type":[0,0,0,0,0,0,0,0,0,0,0,0,0,0,0],"sum_hessian":[8.642552E4,5.3941504E4,3.248402E4,2.7443923E3,5.119711E4,1.6285961E3,3.0855424E4,2.3965994E3,3.4779297E2,4.6992203E4,4.204907E3,1.9331251E1,1.6092648E3,2.824388E4,2.6115435E3],"tree_param":{"num_deleted":"0","num_feature":"9","num_nodes":"15","size_leaf_vector":"0"}},{"base_weights":[-6.9592166E-1,-9.404143E-1,-3.1462705E-1,5.2291965E-1,-1.0227731E0,-3.0694494E-1,-1.1781938E0,-1.4562054E-1,5.839367E-1,-1.036847E0,-8.6918926E-1,-2.6487643E-1,-4.61954E-1],"categories":[],"categories_nodes":[],"categories_segments":[],"categories_sizes":[],"default_left":[true,true,true,true,true,true,false,false,false,false,false,false,false],"id":22,"left_children":[1,3,5,7,9,11,-1,-1,-1,-1,-1,-1,-1],"loss_changes":[7.559285E3,5.95516E3,2.0982666E2,1.075025E2,1.00203125E2,2.0467188E2,0E0,0E0,0E0,0E0,0E0,0E0,0E0],"parents":[2147483647,0,0,1,1,2,2,3,3,4,4,5,5],"right_children":[2,4,6,8,10,12,-1,-1,-1,-1,-1,-1,-1],"split_conditions":[1.688737E3,3.7649999E0,6.95E1,9.85E-1,1.22947E3,7.0598604E3,-1.17819384E-1,-1.4562055E-2,5.839367E-2,-1.036847E-1,-8.691893E-2,-2.6487643E-2,-4.61954E-2],"split_indices":[5,5,4,5,5,5,0,0,0,0,0,0,0],"split_type":[0,0,0,0,0,0,0,0,0,0,0,0,0],"sum_hessian":[8.108973E4,4.940739E4,3.1682334E4,2.632278E3,4.6775113E4,3.1404322E4,2.7801144E2,2.2003629E2,2.4122417E3,4.284334E4,3.9317717E3,2.4702834E4,6.7014883E3],"tree_param":{"num_deleted":"0","num_feature":"9","num_nodes":"13","size_leaf_vector":"0"}},{"base_weights":[-6.6947216E-1,-9.319356E-1,-2.9318428E-1,5.329886E-1,-1.0145471E0,-2.8596953E-1,-1.1569597E0,6.1351903E-2,6.34876E-1,-2.6874033E-1,-1.0168151E0,-6.389897E-1,-2.6761922E-1],"categories":[],"categories_nodes":[],"categories_segments":[],"categories_sizes":[],"default_left":[true,true,true,true,true,true,false,false,false,false,false,false,false],"id":23,"left_children":[1,3,5,7,9,11,-1,-1,-1,-1,-1,-1,-1],"loss_changes":[7.5250625E3,5.432746E3,1.9479541E2,1.1513855E2,7.160156E1,2.0098975E2,0E0,0E0,0E0,0E0,0E0,0E0,0E0],"parents":[2147483647,0,0,1,1,2,2,3,3,4,4,5,5],"right_children":[2,4,6,8,10,12,-1,-1,-1,-1,-1,-1,-1],"split_conditions":[1.6116604E3,3.145E0,6.95E1,1.335E0,3.7649999E0,4.05E1,-1.1569597E-1,6.1351904E-3,6.3487604E-2,-2.6874034E-2,-1.0168151E-1,-6.389897E-2,-2.6761923E-2],"split_indices":[5,5,4,5,5,4,0,0,0,0,0,0,0],"split_type":[0,0,0,0,0,0,0,0,0,0,0,0,0],"sum_hessian":[7.619579E4,4.488601E4,3.130978E4,2.3958416E3,4.249017E4,3.1051748E4,2.5803085E2,4.2590952E2,1.9699321E3,1.2918141E2,4.236099E4,1.5326713E3,2.9519076E4],"tree_param":{"num_deleted":"0","num_feature":"9","num_nodes":"13","size_leaf_vector":"0"}},{"base_weights":[-6.4284885E-1,-9.1211396E-1,-2.5682232E-1,4.6275693E-1,-9.9574876E-1,-1.6690312E-1,-3.483396E-1,5.437914E-1,-3.264728E-2,-1.0158775E0,-6.972368E-1,-7.9630774E-1,-1.2567377E-1,-3.5266706E-1,3.265549E0],"categories":[],"categories_nodes":[],"categories_segments":[],"categories_sizes":[],"default_left":[true,true,true,true,true,true,true,false,false,false,false,false,false,false,false],"id":24,"left_children":[1,3,5,7,9,11,13,-1,-1,-1,-1,-1,-1,-1,-1],"loss_changes":[7.4554062E3,4.8591055E3,2.4249634E2,9.731421E1,2.38625E2,3.8575552E2,2.2958643E2,0E0,0E0,0E0,0E0,0E0,0E0,0E0,0E0],"parents":[2147483647,0,0,1,1,2,2,3,3,4,4,5,5,6,6],"right_children":[2,4,6,8,10,12,14,-1,-1,-1,-1,-1,-1,-1,-1],"split_conditions":[1.8923218E3,3.7649999E0,5.181416E3,2.725E0,1.3897219E3,2.385E3,3.53495E4,5.4379143E-2,-3.2647278E-3,-1.0158775E-1,-6.972368E-2,-7.963078E-2,-1.2567378E-2,-3.526671E-2,3.265549E-1],"split_indices":[5,5,5,5,5,0,0,0,0,0,0,0,0,0,0],"split_type":[0,0,0,0,0,0,0,0,0,0,0,0,0,0,0],"sum_hessian":[7.172685E4,4.225285E4,2.9473998E4,2.4226367E3,3.9830215E4,1.4868228E4,1.46057705E4,2.081984E3,3.4065283E2,3.7311863E4,2.5183523E3,9.129456E2,1.3955282E4,1.4589203E4,1.6567472E1],"tree_param":{"num_deleted":"0","num_feature":"9","num_nodes":"15","size_leaf_vector":"0"}},{"base_weights":[-6.1619157E-1,-9.108771E-1,-2.4776672E-1,4.3261963E-1,-1.0000005E0,-7.4866223E-1,-2.3481748E-1,-1.3202858E-1,5.0532866E-1,-1.0158395E0,-8.422725E-1,-8.5628957E-1,3.1750298E0,-2.6033884E-1,2.9464187E-2],"categories":[],"categories_nodes":[],"categories_segments":[],"categories_sizes":[],"default_left":[true,true,true,true,true,false,true,false,false,false,false,false,false,false,false],"id":25,"left_children":[1,3,5,7,9,11,13,-1,-1,-1,-1,-1,-1,-1,-1],"loss_changes":[7.3439434E3,4.5005293E3,1.948175E2,9.608411E1,8.719531E1,3.224581E2,1.976753E2,0E0,0E0,0E0,0E0,0E0,0E0,0E0,0E0],"parents":[2147483647,0,0,1,1,2,2,3,3,4,4,5,5,6,6],"right_children":[2,4,6,8,10,12,14,-1,-1,-1,-1,-1,-1,-1,-1],"split_conditions":[1.6099949E3,3.7649999E0,2.35E1,1.085E0,1.1943538E3,5E-1,3.21235E4,-1.3202858E-2,5.0532866E-2,-1.0158395E-1,-8.422726E-2,-8.562896E-2,3.1750298E-1,-2.6033884E-2,2.9464187E-3],"split_indices":[5,5,3,5,5,1,0,0,0,0,0,0,0,0,0],"split_type":[0,0,0,0,0,0,0,0,0,0,0,0,0,0,0],"sum_hessian":[6.76439E4,3.75822E4,3.0061697E4,2.33775E3,3.5244453E4,7.5614417E2,2.9305553E4,2.6659485E2,2.071155E3,3.2023246E4,3.221206E3,7.3671765E2,1.9426493E1,2.672479E4,2.580765E3],"tree_param":{"num_deleted":"0","num_feature":"9","num_nodes":"15","size_leaf_vector":"0"}},{"base_weights":[-5.893798E-1,-9.001637E-1,-2.2731557E-1,4.4645846E-1,-9.8895675E-1,-2.2026038E-1,-1.1317613E0,-7.390718E-3,5.545336E-1,-1.0047349E0,-8.0943185E-1,-3.37629E-1,-1.6518506E-1],"categories":[],"categories_nodes":[],"categories_segments":[],"categories_sizes":[],"default_left":[true,true,true,true,true,true,false,false,false,false,false,false,false],"id":26,"left_children":[1,3,5,7,9,11,-1,-1,-1,-1,-1,-1,-1],"loss_changes":[7.1933496E3,4.1137227E3,1.8818164E2,1.04414246E2,9.060156E1,1.8935876E2,0E0,0E0,0E0,0E0,0E0,0E0,0E0],"parents":[2147483647,0,0,1,1,2,2,3,3,4,4,5,5],"right_children":[2,4,6,8,10,12,-1,-1,-1,-1,-1,-1,-1],"split_conditions":[1.6099949E3,3.145E0,6.95E1,1.335E0,1.2267942E3,4.85E1,-1.1317613E-1,-7.390718E-4,5.545336E-2,-1.00473486E-1,-8.094319E-2,-3.37629E-2,-1.6518507E-2],"split_indices":[5,5,4,5,5,4,0,0,0,0,0,0,0],"split_type":[0,0,0,0,0,0,0,0,0,0,0,0,0],"sum_hessian":[6.392822E4,3.4399418E4,2.9528803E4,2.1276562E3,3.227176E4,2.9301479E4,2.2732481E2,4.0939224E2,1.718264E3,2.9660371E4,2.61139E3,9.356698E3,1.9944781E4],"tree_param":{"num_deleted":"0","num_feature":"9","num_nodes":"13","size_leaf_vector":"0"}},{"base_weights":[-5.624872E-1,-8.8979286E-1,-2.0893155E-1,3.8218772E-1,-9.8450494E-1,-7.057525E-1,-1.9656235E-1,4.6378782E-1,-7.360351E-2,-1.0024587E0,-8.075161E-1,-8.1560993E-1,2.3920856E0,-1.898903E-1,-1.1166563E0],"categories":[],"categories_nodes":[],"categories_segments":[],"categories_sizes":[],"default_left":[true,true,true,true,true,false,true,false,false,false,false,false,false,false,false],"id":27,"left_children":[1,3,5,7,9,11,13,-1,-1,-1,-1,-1,-1,-1,-1],"loss_changes":[7.006461E3,3.7881133E3,1.787384E2,8.109827E1,9.217383E1,2.42457E2,1.741477E2,0E0,0E0,0E0,0E0,0E0,0E0,0E0,0E0],"parents":[2147483647,0,0,1,1,2,2,3,3,4,4,5,5,6,6],"right_children":[2,4,6,8,10,12,14,-1,-1,-1,-1,-1,-1,-1,-1],"split_conditions":[1.5932577E3,3.7649999E0,2.35E1,2.7150002E0,1.1943538E3,5E-1,6.95E1,4.6378784E-2,-7.3603513E-3,-1.0024587E-1,-8.075161E-2,-8.156099E-2,2.3920856E-1,-1.898903E-2,-1.1166563E-1],"split_indices":[5,5,3,5,5,1,4,0,0,0,0,0,0,0,0],"split_type":[0,0,0,0,0,0,0,0,0,0,0,0,0,0,0],"sum_hessian":[6.0546875E4,3.1439814E4,2.9107059E4,2.1785762E3,2.9261238E4,7.0570416E2,2.8401354E4,1.8477557E3,3.308204E2,2.656212E4,2.699119E3,6.822466E2,2.3457539E1,2.8198082E4,2.0327184E2],"tree_param":{"num_deleted":"0","num_feature":"9","num_nodes":"15","size_leaf_vector":"0"}},{"base_weights":[-5.3571284E-1,-8.785612E-1,-1.9118221E-1,3.5517466E-1,-9.763068E-1,-1.5783603E-1,-3.7626198E-1,-9.6683696E-2,4.428491E-1,-9.9592346E-1,-7.865347E-1,-5.828787E-1,-1.2981583E-1,-4.9703276E-1,1.627086E-1],"categories":[],"categories_nodes":[],"categories_segments":[],"categories_sizes":[],"default_left":[true,true,true,true,true,true,true,false,false,false,false,false,false,false,false],"id":28,"left_children":[1,3,5,7,9,11,13,-1,-1,-1,-1,-1,-1,-1,-1],"loss_changes":[6.787949E3,3.473836E3,1.7684949E2,8.384097E1,9.857422E1,2.8921448E2,2.8488202E2,0E0,0E0,0E0,0E0,0E0,0E0,0E0,0E0],"parents":[2147483647,0,0,1,1,2,2,3,3,4,4,5,5,6,6],"right_children":[2,4,6,8,10,12,14,-1,-1,-1,-1,-1,-1,-1,-1],"split_conditions":[1.5932577E3,3.7649999E0,7.633133E3,1.235E0,1.1943538E3,2.388E3,1.745E2,-9.66837E-3,4.428491E-2,-9.959235E-2,-7.865348E-2,-5.828787E-2,-1.2981583E-2,-4.9703278E-2,1.627086E-2],"split_indices":[5,5,5,5,5,0,2,0,0,0,0,0,0,0,0],"split_type":[0,0,0,0,0,0,0,0,0,0,0,0,0,0,0],"sum_hessian":[5.74661E4,2.8802594E4,2.8663508E4,2.114238E3,2.6688355E4,2.4289139E4,4.37437E3,3.4354837E2,1.7706896E3,2.4184197E4,2.5041575E3,1.5009653E3,2.2788174E4,3.5736711E3,8.0069885E2],"tree_param":{"num_deleted":"0","num_feature":"9","num_nodes":"15","size_leaf_vector":"0"}},{"base_weights":[-5.091636E-1,-8.670394E-1,-1.7478819E-1,3.2986253E-1,-9.6798366E-1,-5.3130645E-1,-1.5709403E-1,-2.4014409E0,3.445279E-1,-9.8941165E-1,-7.6486623E-1,2.650659E0,-5.773672E-1,-5.8759928E-2,-2.3908332E-1],"categories":[],"categories_nodes":[],"categories_segments":[],"categories_sizes":[],"default_left":[true,true,true,true,true,true,true,false,false,false,false,false,false,false,false],"id":29,"left_children":[1,3,5,7,9,11,13,-1,-1,-1,-1,-1,-1,-1,-1],"loss_changes":[6.540379E3,3.190043E3,1.7817334E2,8.310684E1,1.0521289E2,1.9729587E2,2.17047E2,0E0,0E0,0E0,0E0,0E0,0E0,0E0,0E0],"parents":[2147483647,0,0,1,1,2,2,3,3,4,4,5,5,6,6],"right_children":[2,4,6,8,10,12,14,-1,-1,-1,-1,-1,-1,-1,-1],"split_conditions":[1.5932577E3,3.7649999E0,4.05E1,3.65E1,1.1943538E3,4.37E2,5.15E1,-2.4014409E-1,3.4452792E-2,-9.894117E-2,-7.6486625E-2,2.650659E-1,-5.773672E-2,-5.875993E-3,-2.3908332E-2],"split_indices":[5,5,4,4,5,0,4,0,0,0,0,0,0,0,0],"split_type":[0,0,0,0,0,0,0,0,0,0,0,0,0,0,0],"sum_hessian":[5.4656074E4,2.6399543E4,2.825653E4,2.0531348E3,2.4346408E4,1.3347023E3,2.6921826E4,1.0095958E1,2.0430387E3,2.201957E4,2.3268384E3,1.8238012E1,1.3164642E3,1.2241574E4,1.4680253E4],"tree_param":{"num_deleted":"0","num_feature":"9","num_nodes":"15","size_leaf_vector":"0"}},{"base_weights":[-4.8271796E-1,-8.548983E-1,-1.59544E-1,3.0472136E-1,-9.594631E-1,-4.5945257E-1,-1.382718E-1,3.9022505E-1,-1.4622745E-1,-9.828594E-1,-7.425002E-1,-7.737149E-1,-2.6492354E-1,-3.3392385E-2,-2.3223813E-1],"categories":[],"categories_nodes":[],"categories_segments":[],"categories_sizes":[],"default_left":[true,true,true,true,true,true,true,false,false,false,false,false,false,false,false],"id":30,"left_children":[1,3,5,7,9,11,13,-1,-1,-1,-1,-1,-1,-1,-1],"loss_changes":[6.268004E3,2.9371074E3,1.7789423E2,7.732991E1,1.1204492E2,1.1271069E2,2.5670126E2,0E0,0E0,0E0,0E0,0E0,0E0,0E0,0E0],"parents":[2147483647,0,0,1,1,2,2,3,3,4,4,5,5,6,6],"right_children":[2,4,6,8,10,12,14,-1,-1,-1,-1,-1,-1,-1,-1],"split_conditions":[1.5932577E3,3.7649999E0,2.1057769E3,2.7150002E0,1.1943538E3,8.45E1,5.045222E3,3.9022505E-2,-1.4622745E-2,-9.8285936E-2,-7.425002E-2,-7.737149E-2,-2.6492355E-2,-3.3392385E-3,-2.3223814E-2],"split_indices":[5,5,5,5,5,2,5,0,0,0,0,0,0,0,0],"split_type":[0,0,0,0,0,0,0,0,0,0,0,0,0,0,0],"sum_hessian":[5.2112348E4,2.4219053E4,2.7893293E4,2.0030796E3,2.2215975E4,1.8460447E3,2.6047248E4,1.6839275E3,3.191521E2,2.0050314E4,2.1656604E3,7.0467017E2,1.1413745E3,1.2309502E4,1.3737747E4],"tree_param":{"num_deleted":"0","num_feature":"9","num_nodes":"15","size_leaf_vector":"0"}},{"base_weights":[-4.567077E-1,-8.423346E-1,-1.4553249E-1,2.8156823E-1,-9.506753E-1,-1.3913837E-1,-1.097688E0,-3.6423674E-1,3.4538335E-1,-9.8036444E-1,-7.505136E-1,-2.590049E-1,-8.333268E-2],"categories":[],"categories_nodes":[],"categories_segments":[],"categories_sizes":[],"default_left":[true,true,true,true,true,true,false,false,false,false,false,false,false],"id":31,"left_children":[1,3,5,7,9,11,-1,-1,-1,-1,-1,-1,-1],"loss_changes":[5.9745176E3,2.7076572E3,1.6761346E2,8.072339E1,1.1978125E2,1.8308508E2,0E0,0E0,0E0,0E0,0E0,0E0,0E0],"parents":[2147483647,0,0,1,1,2,2,3,3,4,4,5,5],"right_children":[2,4,6,8,10,12,-1,-1,-1,-1,-1,-1,-1],"split_conditions":[1.5932577E3,3.7649999E0,6.95E1,8.95E-1,1.1206621E3,4.85E1,-1.097688E-1,-3.6423676E-2,3.4538336E-2,-9.8036446E-2,-7.505136E-2,-2.5900489E-2,-8.333269E-3],"split_indices":[5,5,4,5,5,4,0,0,0,0,0,0,0],"split_type":[0,0,0,0,0,0,0,0,0,0,0,0,0],"sum_hessian":[4.9788684E4,2.2233674E4,2.755501E4,1.9546761E3,2.0278996E4,2.737234E4,1.8267026E2,1.7535794E2,1.7793182E3,1.7656225E4,2.622773E3,8.694198E3,1.867814E4],"tree_param":{"num_deleted":"0","num_feature":"9","num_nodes":"13","size_leaf_vector":"0"}},{"base_weights":[-4.3105727E-1,-8.3196324E-1,-1.3429442E-1,2.5995004E-1,-9.453191E-1,-4.236289E-1,-1.12680174E-1,-1.2990046E-1,3.576082E-1,-9.880507E-1,-8.0938256E-1,-7.414707E-1,-2.3405723E-1,-1.5852332E-2,-2.0086972E-1],"categories":[],"categories_nodes":[],"categories_segments":[],"categories_sizes":[],"default_left":[true,true,true,true,true,true,true,false,false,false,false,false,false,false,false],"id":32,"left_children":[1,3,5,7,9,11,13,-1,-1,-1,-1,-1,-1,-1,-1],"loss_changes":[5.6728477E3,2.510662E3,1.7131247E2,7.270032E1,1.0593555E2,1.1456857E2,2.1772849E2,0E0,0E0,0E0,0E0,0E0,0E0,0E0,0E0],"parents":[2147483647,0,0,1,1,2,2,3,3,4,4,5,5,6,6],"right_children":[2,4,6,8,10,12,14,-1,-1,-1,-1,-1,-1,-1,-1],"split_conditions":[1.5403805E3,3.895E0,2.1057769E3,1.335E0,9.1621484E2,8.45E1,5.045222E3,-1.2990045E-2,3.576082E-2,-9.880507E-2,-8.093826E-2,-7.414707E-2,-2.3405723E-2,-1.5852333E-3,-2.0086972E-2],"split_indices":[5,5,5,5,5,2,5,0,0,0,0,0,0,0,0],"split_type":[0,0,0,0,0,0,0,0,0,0,0,0,0,0,0],"sum_hessian":[4.768134E4,2.0281135E4,2.7400207E4,1.907324E3,1.837381E4,1.9033134E3,2.5496893E4,3.820107E2,1.5253134E3,1.3974627E4,4.3991836E3,7.0999774E2,1.1933156E3,1.2153795E4,1.3343098E4],"tree_param":{"num_deleted":"0","num_feature":"9","num_nodes":"15","size_leaf_vector":"0"}},{"base_weights":[-4.05972E-1,-8.1846976E-1,-1.22282885E-1,2.92735E-1,-9.305465E-1,-6.3560027E-1,-1.10047765E-1,-1.1330441E-1,4.1265085E-1,-9.607347E-1,-7.201039E-1,-7.520292E-1,1.9903284E0,-1.3567388E-1,1.4882255E-1],"categories":[],"categories_nodes":[],"categories_segments":[],"categories_sizes":[],"default_left":[true,true,true,true,true,false,true,false,false,false,false,false,false,false,false],"id":33,"left_children":[1,3,5,7,9,11,13,-1,-1,-1,-1,-1,-1,-1,-1],"loss_changes":[5.3551924E3,2.3226953E3,1.702351E2,8.327278E1,1.0692383E2,1.9443805E2,1.7572684E2,0E0,0E0,0E0,0E0,0E0,0E0,0E0,0E0],"parents":[2147483647,0,0,1,1,2,2,3,3,4,4,5,5,6,6],"right_children":[2,4,6,8,10,12,14,-1,-1,-1,-1,-1,-1,-1,-1],"split_conditions":[1.5403805E3,3.065E0,2.35E1,1.345E0,1.1206621E3,5E-1,3.21235E4,-1.1330441E-2,4.1265085E-2,-9.607347E-2,-7.201039E-2,-7.520292E-2,1.9903284E-1,-1.3567388E-2,1.4882254E-2],"split_indices":[5,5,3,5,5,1,0,0,0,0,0,0,0,0,0],"split_type":[0,0,0,0,0,0,0,0,0,0,0,0,0,0,0],"sum_hessian":[4.576247E4,1.8646975E4,2.7115494E4,1.7082842E3,1.6938691E4,6.3007556E2,2.6485418E4,3.8949503E2,1.3187891E3,1.481054E4,2.1281511E3,6.0400854E2,2.606703E1,2.4100168E4,2.38525E3],"tree_param":{"num_deleted":"0","num_feature":"9","num_nodes":"15","size_leaf_vector":"0"}},{"base_weights":[-3.8133946E-1,-8.0403113E-1,-1.11206196E-1,2.266751E-1,-9.265273E-1,2.7172523E0,-1.13413416E-1,-4.173054E0,2.3527151E-1,-9.774149E-1,-7.694298E-1,4.501985E0,-1.002464E0,-1.07386775E-1,-1.0839391E0],"categories":[],"categories_nodes":[],"categories_segments":[],"categories_sizes":[],"default_left":[true,true,true,true,true,false,true,false,false,false,false,false,false,false,false],"id":34,"left_children":[1,3,5,7,9,11,13,-1,-1,-1,-1,-1,-1,-1,-1],"loss_changes":[5.027711E3,2.167836E3,1.6803052E2,6.998656E1,1.21918945E2,1.4384978E2,1.5690341E2,0E0,0E0,0E0,0E0,0E0,0E0,0E0,0E0],"parents":[2147483647,0,0,1,1,2,2,3,3,4,4,5,5,6,6],"right_children":[2,4,6,8,10,12,14,-1,-1,-1,-1,-1,-1,-1,-1],"split_conditions":[1.5403805E3,3.895E0,-5E-1,1.5E0,9.1621484E2,7.8E1,6.95E1,-4.1730544E-1,2.3527151E-2,-9.774149E-2,-7.694298E-2,4.501985E-1,-1.0024641E-1,-1.0738677E-2,-1.0839391E-1],"split_indices":[5,5,2,2,5,3,4,0,0,0,0,0,0,0,0],"split_type":[0,0,0,0,0,0,0,0,0,0,0,0,0,0,0],"sum_hessian":[4.4031797E4,1.7167277E4,2.6864518E4,1.8234635E3,1.5343814E4,1.9988552E1,2.684453E4,2.6111524E0,1.8208523E3,1.158571E4,3.7581047E3,1.3365456E1,6.623096E0,2.6679965E4,1.645631E2],"tree_param":{"num_deleted":"0","num_feature":"9","num_nodes":"15","size_leaf_vector":"0"}},{"base_weights":[-3.5742986E-1,-7.921907E-1,-1.02781124E-1,2.0756423E-1,-9.212061E-1,-3.8383391E-1,-8.076757E-2,-3.1561124E0,2.189256E-1,-9.771203E-1,-7.7590436E-1,-7.075453E-1,-1.965883E-1,2.0702588E-3,-1.7207733E-1],"categories":[],"categories_nodes":[],"categories_segments":[],"categories_sizes":[],"default_left":[true,true,true,true,true,true,true,false,false,false,false,false,false,false,false],"id":35,"left_children":[1,3,5,7,9,11,13,-1,-1,-1,-1,-1,-1,-1,-1],"loss_changes":[4.700982E3,2.023209E3,1.6565048E2,6.923081E1,1.12103516E2,1.1774588E2,1.8785164E2,0E0,0E0,0E0,0E0,0E0,0E0,0E0,0E0],"parents":[2147483647,0,0,1,1,2,2,3,3,4,4,5,5,6,6],"right_children":[2,4,6,8,10,12,14,-1,-1,-1,-1,-1,-1,-1,-1],"split_conditions":[1.4866576E3,3.895E0,2.1057769E3,5.65E2,8.636716E2,8.45E1,5.286022E3,-3.1561124E-1,2.189256E-2,-9.771203E-2,-7.7590436E-2,-7.075453E-2,-1.965883E-2,2.0702589E-4,-1.7207732E-2],"split_indices":[5,5,5,0,5,2,5,0,0,0,0,0,0,0,0],"split_type":[0,0,0,0,0,0,0,0,0,0,0,0,0,0,0],"sum_hessian":[4.2461367E4,1.568327E4,2.6778096E4,1.792487E3,1.3890783E4,1.9438623E3,2.4834234E4,5.1022716E0,1.7873848E3,1.0026661E4,3.8641213E3,7.113307E2,1.2325317E3,1.3021697E4,1.1812537E4],"tree_param":{"num_deleted":"0","num_feature":"9","num_nodes":"15","size_leaf_vector":"0"}},{"base_weights":[-3.3436623E-1,-7.766858E-1,-9.3383126E-2,1.8985991E-1,-9.108861E-1,-4.4358253E-1,-7.6675005E-2,-2.1961517E0,2.05464E-1,-9.7178197E-1,-7.5574565E-1,2.6520839E0,-4.9843073E-1,2.5355788E-2,-1.623382E-1],"categories":[],"categories_nodes":[],"categories_segments":[],"categories_sizes":[],"default_left":[true,true,true,true,true,true,true,false,false,false,false,false,false,false,false],"id":36,"left_children":[1,3,5,7,9,11,13,-1,-1,-1,-1,-1,-1,-1,-1],"loss_changes":[4.373298E3,1.8770625E3,1.5537563E2,6.616313E1,1.19302734E2,2.0664955E2,2.2158899E2,0E0,0E0,0E0,0E0,0E0,0E0,0E0,0E0],"parents":[2147483647,0,0,1,1,2,2,3,3,4,4,5,5,6,6],"right_children":[2,4,6,8,10,12,14,-1,-1,-1,-1,-1,-1,-1,-1],"split_conditions":[1.4866576E3,3.895E0,4.05E1,3.65E1,8.636716E2,4.37E2,5.15E1,-2.1961518E-1,2.05464E-2,-9.71782E-2,-7.557457E-2,2.652084E-1,-4.9843073E-2,2.5355788E-3,-1.623382E-2],"split_indices":[5,5,4,4,5,0,4,0,0,0,0,0,0,0,0],"split_type":[0,0,0,0,0,0,0,0,0,0,0,0,0,0,0],"sum_hessian":[4.1028242E4,1.4468812E4,2.655943E4,1.763952E3,1.270486E4,1.2082913E3,2.5351139E4,1.0553033E1,1.7533989E3,9.119859E3,3.5850007E3,2.0211103E1,1.1880802E3,1.1570534E4,1.3780604E4],"tree_param":{"num_deleted":"0","num_feature":"9","num_nodes":"15","size_leaf_vector":"0"}},{"base_weights":[-3.120292E-1,-7.6107824E-1,-8.508294E-2,1.7346878E-1,-9.0115005E-1,-5.925247E-1,-7.350004E-2,2.6343766E-1,-2.4014063E-1,-9.7911274E-1,-7.6439065E-1,-7.1015203E-1,1.6678554E0,-7.575525E-2,2.6353977E0],"categories":[],"categories_nodes":[],"categories_segments":[],"categories_sizes":[],"default_left":[true,true,true,true,true,false,true,false,false,false,false,false,false,false,false],"id":37,"left_children":[1,3,5,7,9,11,13,-1,-1,-1,-1,-1,-1,-1,-1],"loss_changes":[4.0498232E3,1.7465942E3,1.551231E2,6.480581E1,1.22958984E2,1.577908E2,1.5788556E2,0E0,0E0,0E0,0E0,0E0,0E0,0E0,0E0],"parents":[2147483647,0,0,1,1,2,2,3,3,4,4,5,5,6,6],"right_children":[2,4,6,8,10,12,14,-1,-1,-1,-1,-1,-1,-1,-1],"split_conditions":[1.475095E3,3.895E0,2.35E1,2.685E0,7.6209436E2,5E-1,3.53495E4,2.6343767E-2,-2.4014063E-2,-9.7911276E-2,-7.643907E-2,-7.10152E-2,1.6678554E-1,-7.5755254E-3,2.6353976E-1],"split_indices":[5,5,3,5,5,1,0,0,0,0,0,0,0,0,0],"split_type":[0,0,0,0,0,0,0,0,0,0,0,0,0,0,0],"sum_hessian":[3.9738844E4,1.33404E4,2.6398443E4,1.7388308E3,1.1601569E4,5.880061E2,2.5810438E4,1.428471E3,3.1035986E2,7.385274E3,4.2162954E3,5.595725E2,2.8433619E1,2.578994E4,2.0498644E1],"tree_param":{"num_deleted":"0","num_feature":"9","num_nodes":"15","size_leaf_vector":"0"}},{"base_weights":[-2.905889E-1,-7.441062E-1,-7.715566E-2,1.5869373E-1,-8.896647E-1,-3.7364638E-1,-5.7897333E-2,-8.552792E-1,1.938597E-1,-9.826345E-1,-7.563126E-1,-4.1645837E-1,7.216856E0,6.9716847E-1,-7.555627E-2],"categories":[],"categories_nodes":[],"categories_segments":[],"categories_sizes":[],"default_left":[true,true,true,true,true,true,true,false,false,false,false,false,false,false,false],"id":38,"left_children":[1,3,5,7,9,11,13,-1,-1,-1,-1,-1,-1,-1,-1],"loss_changes":[3.7329285E3,1.6219297E3,1.4972214E2,6.129611E1,1.3102051E2,5.2274023E2,3.2841895E2,0E0,0E0,0E0,0E0,0E0,0E0,0E0,0E0],"parents":[2147483647,0,0,1,1,2,2,3,3,4,4,5,5,6,6],"right_children":[2,4,6,8,10,12,14,-1,-1,-1,-1,-1,-1,-1,-1],"split_conditions":[1.475095E3,3.895E0,2.388E3,2.2205E3,7.108349E2,2.105E2,3.1375E3,-8.552792E-2,1.938597E-2,-9.826345E-2,-7.563126E-2,-4.1645836E-2,7.216856E-1,6.971685E-2,-7.5556273E-3],"split_indices":[5,5,0,0,5,2,0,0,0,0,0,0,0,0,0],"split_type":[0,0,0,0,0,0,0,0,0,0,0,0,0,0,0],"sum_hessian":[3.8564637E4,1.2340412E4,2.6224225E4,1.7133827E3,1.0627029E4,1.5983586E3,2.4625865E4,5.664896E1,1.6567338E3,6.257845E3,4.369184E3,1.590334E3,8.024673E0,5.6189105E2,2.4063975E4],"tree_param":{"num_deleted":"0","num_feature":"9","num_nodes":"15","size_leaf_vector":"0"}},{"base_weights":[-2.7008462E-1,-7.293736E-1,-7.12584E-2,1.4473379E-1,-8.829063E-1,-3.424419E-1,-4.9114328E-2,-2.1116298E-1,2.4529232E-1,-9.7857547E-1,-7.451172E-1,-6.598065E-1,-1.5013845E-1,-1.7976518E-1,1.0460075E-2],"categories":[],"categories_nodes":[],"categories_segments":[],"categories_sizes":[],"default_left":[true,true,true,true,true,true,true,false,false,false,false,false,false,false,false],"id":39,"left_children":[1,3,5,7,9,11,13,-1,-1,-1,-1,-1,-1,-1,-1],"loss_changes":[3.4251045E3,1.5208652E3,1.5718008E2,6.0671215E1,1.2632959E2,1.20498E2,1.883783E2,0E0,0E0,0E0,0E0,0E0,0E0,0E0,0E0],"parents":[2147483647,0,0,1,1,2,2,3,3,4,4,5,5,6,6],"right_children":[2,4,6,8,10,12,14,-1,-1,-1,-1,-1,-1,-1,-1],"split_conditions":[1.4275449E3,3.895E0,2.1057769E3,1.345E0,7.108349E2,8.85E1,4.85E1,-2.11163E-2,2.4529232E-2,-9.785755E-2,-7.451172E-2,-6.598065E-2,-1.5013846E-2,-1.7976519E-2,1.0460075E-3],"split_indices":[5,5,5,5,5,2,4,0,0,0,0,0,0,0,0],"split_type":[0,0,0,0,0,0,0,0,0,0,0,0,0,0,0],"sum_hessian":[3.7506734E4,1.1330526E4,2.6176207E4,1.6928259E3,9.6377E3,1.9750189E3,2.4201188E4,3.7269254E2,1.3201334E3,5.6846553E3,3.953045E3,7.4427936E2,1.2307395E3,7.578653E3,1.6622535E4],"tree_param":{"num_deleted":"0","num_feature":"9","num_nodes":"15","size_leaf_vector":"0"}},{"base_weights":[-2.5056028E-1,-7.1420515E-1,-6.5628976E-2,1.3180478E-1,-8.75904E-1,-5.9871588E-2,-1.0695677E0,1.4070407E-1,-3.7797189E0,-9.7919536E-1,-7.3959255E-1,-2.7300152E-1,-3.347998E-2],"categories":[],"categories_nodes":[],"categories_segments":[],"categories_sizes":[],"default_left":[true,true,true,true,true,true,false,false,false,false,false,false,false],"id":40,"left_children":[1,3,5,7,9,11,-1,-1,-1,-1,-1,-1,-1],"loss_changes":[3.1331099E3,1.4254404E3,1.5093074E2,5.875962E1,1.224375E2,1.4609871E2,0E0,0E0,0E0,0E0,0E0,0E0,0E0],"parents":[2147483647,0,0,1,1,2,2,3,3,4,4,5,5],"right_children":[2,4,6,8,10,12,-1,-1,-1,-1,-1,-1,-1],"split_conditions":[1.3897219E3,4.205E0,6.95E1,2.095E2,6.8555286E2,4.35E1,-1.0695677E-1,1.4070407E-2,-3.779719E-1,-9.791954E-2,-7.3959254E-2,-2.7300153E-2,-3.3479983E-3],"split_indices":[5,5,4,2,5,4,0,0,0,0,0,0,0],"split_type":[0,0,0,0,0,0,0,0,0,0,0,0,0],"sum_hessian":[3.654049E4,1.041813E4,2.612236E4,1.6717429E3,8.746388E3,2.597446E4,1.4789877E2,1.6689099E3,2.8329854E0,4.9723545E3,3.774033E3,2.8609583E3,2.3113502E4],"tree_param":{"num_deleted":"0","num_feature":"9","num_nodes":"13","size_leaf_vector":"0"}},{"base_weights":[-2.3196939E-1,-6.950629E-1,-5.9435517E-2,1.19716294E-1,-8.6299443E-1,1.8716166E-2,-1.318677E-1,2.0937923E-1,-2.7362892E-1,-9.7520226E-1,-7.183934E-1,-1.5465665E-1,3.3444652E-1,-2.3666961E-1,2.1767971E-1],"categories":[],"categories_nodes":[],"categories_segments":[],"categories_sizes":[],"default_left":[true,true,true,true,true,true,true,false,false,false,false,false,false,false,false],"id":41,"left_children":[1,3,5,7,9,11,13,-1,-1,-1,-1,-1,-1,-1,-1],"loss_changes":[2.8501758E3,1.3249775E3,1.4712839E2,5.844565E1,1.2956104E2,6.8443616E2,4.9420105E2,0E0,0E0,0E0,0E0,0E0,0E0,0E0,0E0],"parents":[2147483647,0,0,1,1,2,2,3,3,4,4,5,5,6,6],"right_children":[2,4,6,8,10,12,14,-1,-1,-1,-1,-1,-1,-1,-1],"split_conditions":[1.3897219E3,4.205E0,5.15E1,2.685E0,6.8555286E2,4.85E1,7.75E1,2.0937923E-2,-2.7362892E-2,-9.7520225E-2,-7.183934E-2,-1.5465665E-2,3.3444654E-2,-2.3666961E-2,2.1767972E-2],"split_indices":[5,5,4,5,5,4,3,0,0,0,0,0,0,0,0],"split_type":[0,0,0,0,0,0,0,0,0,0,0,0,0,0,0],"sum_hessian":[3.567161E4,9.681833E3,2.5989775E4,1.6545391E3,8.027294E3,1.2501672E4,1.3488104E4,1.3477805E3,3.067585E2,4.516684E3,3.51061E3,8.070523E3,4.4311484E3,1.0377136E4,3.110968E3],"tree_param":{"num_deleted":"0","num_feature":"9","num_nodes":"15","size_leaf_vector":"0"}},{"base_weights":[-2.1446972E-1,-6.823379E-1,-5.6302603E-2,1.09083034E-1,-8.628532E-1,-3.392518E-1,-3.4289066E-2,-4.1477048E-1,1.7174542E-1,-9.719446E-1,-7.193715E-1,1.1343836E-1,-5.124088E-1,1.6135334E-3,-2.3084185E-1],"categories":[],"categories_nodes":[],"categories_segments":[],"categories_sizes":[],"default_left":[true,true,true,true,true,true,true,false,false,false,false,false,false,false,false],"id":42,"left_children":[1,3,5,7,9,11,13,-1,-1,-1,-1,-1,-1,-1,-1],"loss_changes":[2.5815288E3,1.2592466E3,1.6238797E2,5.3834457E1,1.1163721E2,1.475761E2,1.7071605E2,0E0,0E0,0E0,0E0,0E0,0E0,0E0,0E0],"parents":[2147483647,0,0,1,1,2,2,3,3,4,4,5,5,6,6],"right_children":[2,4,6,8,10,12,14,-1,-1,-1,-1,-1,-1,-1,-1],"split_conditions":[1.3083842E3,4.205E0,1.9951831E3,8.95E-1,6.806302E2,9.745E3,7.633133E3,-4.147705E-2,1.7174542E-2,-9.7194456E-2,-7.193715E-2,1.1343836E-2,-5.124088E-2,1.6135334E-4,-2.3084184E-2],"split_indices":[5,5,5,5,5,0,5,0,0,0,0,0,0,0,0],"split_type":[0,0,0,0,0,0,0,0,0,0,0,0,0,0,0],"sum_hessian":[3.488441E4,8.812669E3,2.607174E4,1.6368286E3,7.175841E3,1.8809314E3,2.4190809E4,1.7427573E2,1.4625529E3,4.0731716E3,3.1026692E3,5.205044E2,1.360427E3,2.045539E4,3.735418E3],"tree_param":{"num_deleted":"0","num_feature":"9","num_nodes":"15","size_leaf_vector":"0"}},{"base_weights":[-1.9796212E-1,-6.623835E-1,-5.100824E-2,9.947441E-2,-8.4924525E-1,-5.517896E-1,-4.0079165E-2,-3.5352285E0,1.0836685E-1,-9.6757776E-1,-6.974692E-1,-6.7015004E-1,1.4646107E0,3.8203657E-2,-1.1371362E-1],"categories":[],"categories_nodes":[],"categories_segments":[],"categories_sizes":[],"default_left":[true,true,true,true,true,false,true,false,false,false,false,false,false,false,false],"id":43,"left_children":[1,3,5,7,9,11,13,-1,-1,-1,-1,-1,-1,-1,-1],"loss_changes":[2.3312717E3,1.1689624E3,1.4200128E2,5.268136E1,1.1774512E2,1.3323567E2,1.4639667E2,0E0,0E0,0E0,0E0,0E0,0E0,0E0,0E0],"parents":[2147483647,0,0,1,1,2,2,3,3,4,4,5,5,6,6],"right_children":[2,4,6,8,10,12,14,-1,-1,-1,-1,-1,-1,-1,-1],"split_conditions":[1.3083842E3,4.205E0,2.35E1,1.5E0,6.806302E2,5E-1,5.15E1,-3.5352287E-1,1.0836685E-2,-9.675778E-2,-6.974692E-2,-6.701501E-2,1.4646107E-1,3.8203658E-3,-1.1371362E-2],"split_indices":[5,5,3,2,5,1,4,0,0,0,0,0,0,0,0],"split_type":[0,0,0,0,0,0,0,0,0,0,0,0,0,0,0],"sum_hessian":[3.4158062E4,8.209598E3,2.5948465E4,1.617071E3,6.5925264E3,5.5314844E2,2.5395316E4,2.9787512E0,1.6140923E3,3.7013704E3,2.891156E3,5.231101E2,3.0038324E1,1.2309368E4,1.3085948E4],"tree_param":{"num_deleted":"0","num_feature":"9","num_nodes":"15","size_leaf_vector":"0"}},{"base_weights":[-1.8235579E-1,-6.412835E-1,-4.615976E-2,9.008781E-2,-8.347797E-1,-1.0954447E0,-4.0870655E-2,-1.9185932E0,1.06279165E-1,-9.618024E-1,-6.7333984E-1,-2.9098883E-1,-1.9070966E-2],"categories":[],"categories_nodes":[],"categories_segments":[],"categories_sizes":[],"default_left":[true,true,true,true,true,false,true,false,false,false,false,false,false],"id":44,"left_children":[1,3,5,7,9,-1,11,-1,-1,-1,-1,-1,-1],"loss_changes":[2.094711E3,1.0854619E3,1.433893E2,5.2420105E1,1.2372705E2,0E0,1.402132E2,0E0,0E0,0E0,0E0,0E0,0E0],"parents":[2147483647,0,0,1,1,2,2,3,3,4,4,6,6],"right_children":[2,4,6,8,10,-1,12,-1,-1,-1,-1,-1,-1],"split_conditions":[1.3083842E3,4.205E0,3.45E1,9.62E2,6.8555286E2,-1.0954447E-1,2.0866213E3,-1.9185932E-1,1.0627917E-2,-9.6180245E-2,-6.733399E-2,-2.9098883E-2,-1.9070966E-3],"split_indices":[5,5,4,0,5,0,5,0,0,0,0,0,0],"split_type":[0,0,0,0,0,0,0,0,0,0,0,0,0],"sum_hessian":[3.3512633E4,7.6686265E3,2.5844006E4,1.6045035E3,6.064123E3,1.2858417E2,2.571542E4,1.1890466E1,1.5926132E3,3.3910493E3,2.6730737E3,2.0606184E3,2.3654803E4],"tree_param":{"num_deleted":"0","num_feature":"9","num_nodes":"13","size_leaf_vector":"0"}},{"base_weights":[-1.6773328E-1,-6.204578E-1,-4.2011295E-2,8.164793E-2,-8.215057E-1,-3.6723588E-2,-1.0581924E0,1.8045773E-1,-2.458829E-1,-9.579751E-1,-6.5434766E-1,-2.96747E-2,-8.066862E-1],"categories":[],"categories_nodes":[],"categories_segments":[],"categories_sizes":[],"default_left":[true,true,true,true,true,true,false,false,false,false,false,false,false],"id":45,"left_children":[1,3,5,7,9,11,-1,-1,-1,-1,-1,-1,-1],"loss_changes":[1.8740544E3,1.01022363E3,1.3843579E2,5.1629513E1,1.2628369E2,1.3912686E2,0E0,0E0,0E0,0E0,0E0,0E0,0E0],"parents":[2147483647,0,0,1,1,2,2,3,3,4,4,5,5],"right_children":[2,4,6,8,10,12,-1,-1,-1,-1,-1,-1,-1],"split_conditions":[1.2984805E3,4.205E0,6.95E1,2.5349998E0,6.806302E2,2.095E2,-1.0581924E-1,1.8045774E-2,-2.458829E-2,-9.579751E-2,-6.543477E-2,-2.96747E-3,-8.066862E-2],"split_indices":[5,5,4,5,5,2,0,0,0,0,0,0,0],"split_type":[0,0,0,0,0,0,0,0,0,0,0,0,0],"sum_hessian":[3.29253E4,7.155268E3,2.5770035E4,1.5929418E3,5.562326E3,2.5637664E4,1.3236966E2,1.2241025E3,3.688393E2,3.0596606E3,2.5026655E3,2.5406113E4,2.3155052E2],"tree_param":{"num_deleted":"0","num_feature":"9","num_nodes":"13","size_leaf_vector":"0"}},{"base_weights":[-1.5404095E-1,-6.041108E-1,-3.9261255E-2,7.4165545E-2,-8.1852484E-1,-1.0832794E0,-3.44236E-2,-1.9768769E0,8.995076E-2,-9.526571E-1,-6.49857E-1,-5.719942E-2,1.9190934E-1],"categories":[],"categories_nodes":[],"categories_segments":[],"categories_sizes":[],"default_left":[true,true,true,true,true,false,true,false,false,false,false,false,false],"id":46,"left_children":[1,3,5,7,9,-1,11,-1,-1,-1,-1,-1,-1],"loss_changes":[1.6736135E3,9.5748413E2,1.3034671E2,5.1401825E1,1.1254883E2,0E0,1.324796E2,0E0,0E0,0E0,0E0,0E0,0E0],"parents":[2147483647,0,0,1,1,2,2,3,3,4,4,6,6],"right_children":[2,4,6,8,10,-1,12,-1,-1,-1,-1,-1,-1],"split_conditions":[1.2441428E3,4.205E0,3.45E1,3.65E1,6.806302E2,-1.0832794E-1,3.21235E4,-1.9768769E-1,8.995077E-3,-9.526571E-2,-6.49857E-2,-5.719942E-3,1.9190935E-2],"split_indices":[5,5,4,4,5,0,0,0,0,0,0,0,0],"split_type":[0,0,0,0,0,0,0,0,0,0,0,0,0],"sum_hessian":[3.2396867E4,6.582307E3,2.5814559E4,1.5811526E3,5.001155E3,1.1803667E2,2.5696521E4,1.1127073E1,1.5700255E3,2.7831895E3,2.2179653E3,2.334779E4,2.348734E3],"tree_param":{"num_deleted":"0","num_feature":"9","num_nodes":"13","size_leaf_vector":"0"}},{"base_weights":[-1.4127408E-1,-5.2291906E-1,-1.8224828E-2,1.2229472E-1,-6.6206795E-1,3.0103844E-2,-1.4048252E-1,-2.2568129E-1,2.762505E-1,-8.4855986E-1,-3.926403E-1,-5.087769E-1,6.255935E-2,-2.4047385E-1,3.1329164E-1],"categories":[],"categories_nodes":[],"categories_segments":[],"categories_sizes":[],"default_left":[true,true,true,true,true,true,true,false,false,false,false,false,false,false,false],"id":47,"left_children":[1,3,5,7,9,11,13,-1,-1,-1,-1,-1,-1,-1,-1],"loss_changes":[1.499044E3,6.988125E2,1.4263374E2,7.4074104E1,3.2134888E2,3.0262704E2,3.1038998E2,0E0,0E0,0E0,0E0,0E0,0E0,0E0,0E0],"parents":[2147483647,0,0,1,1,2,2,3,3,4,4,5,5,6,6],"right_children":[2,4,6,8,10,12,14,-1,-1,-1,-1,-1,-1,-1,-1],"split_conditions":[1.8889736E3,2.9650002E0,6.390123E3,1.485E0,9.1621484E2,2.385E3,1.745E2,-2.2568129E-2,2.7625052E-2,-8.485599E-2,-3.926403E-2,-5.087769E-2,6.2559354E-3,-2.4047386E-2,3.1329166E-2],"split_indices":[5,5,5,5,5,0,2,0,0,0,0,0,0,0,0],"split_type":[0,0,0,0,0,0,0,0,0,0,0,0,0,0,0],"sum_hessian":[3.192015E4,7.7816445E3,2.4138506E4,1.3805144E3,6.40113E3,1.7300387E4,6.838119E3,4.2329745E2,9.572169E2,3.7815051E3,2.619625E3,9.819376E2,1.631845E4,5.603771E3,1.2343481E3],"tree_param":{"num_deleted":"0","num_feature":"9","num_nodes":"15","size_leaf_vector":"0"}},{"base_weights":[-1.2946491E-1,-5.603823E-1,-3.1944793E-2,6.769148E-2,-7.9060924E-1,-1.9611875E-2,-4.5662975E-1,7.64384E-2,-3.5275886E0,-9.414547E-1,-6.0742396E-1,-3.329617E-2,7.634675E-1,3.4033997E0,-5.4538804E-1],"categories":[],"categories_nodes":[],"categories_segments":[],"categories_sizes":[],"default_left":[true,true,true,true,true,true,true,false,false,false,false,false,false,false,false],"id":48,"left_children":[1,3,5,7,9,11,13,-1,-1,-1,-1,-1,-1,-1,-1],"loss_changes":[1.3228861E3,8.4009937E2,1.3445045E2,4.9303616E1,1.1690088E2,2.6737076E2,2.5005383E2,0E0,0E0,0E0,0E0,0E0,0E0,0E0,0E0],"parents":[2147483647,0,0,1,1,2,2,3,3,4,4,5,5,6,6],"right_children":[2,4,6,8,10,12,14,-1,-1,-1,-1,-1,-1,-1,-1],"split_conditions":[1.22947E3,4.205E0,2.055E2,2.095E2,6.806302E2,2.025E2,5.855E2,7.64384E-3,-3.5275885E-1,-9.414547E-2,-6.0742397E-2,-3.3296172E-3,7.634675E-2,3.4034E-1,-5.4538805E-2],"split_indices":[5,5,2,2,5,2,0,0,0,0,0,0,0,0,0],"split_type":[0,0,0,0,0,0,0,0,0,0,0,0,0,0,0],"sum_hessian":[3.1479393E4,5.808465E3,2.5670928E4,1.5582273E3,4.250238E3,2.4947494E4,7.2343304E2,1.5554219E3,2.8054285E0,2.3285967E3,1.9216411E3,2.4519965E4,4.2752844E2,1.5421446E1,7.080116E2],"tree_param":{"num_deleted":"0","num_feature":"9","num_nodes":"15","size_leaf_vector":"0"}},{"base_weights":[-1.18499555E-1,-4.8594463E-1,-1.616909E-2,6.106442E-2,-6.482666E-1,-1.2556438E-1,3.27209E-2,-8.148069E-1,9.463627E-2,-8.681823E-1,-3.8458315E-1,-5.179138E-1,-2.5232218E-2,4.339045E-1,-5.185963E-2],"categories":[],"categories_nodes":[],"categories_segments":[],"categories_sizes":[],"default_left":[true,true,true,true,true,true,true,false,false,false,false,false,false,false,false],"id":49,"left_children":[1,3,5,7,9,11,13,-1,-1,-1,-1,-1,-1,-1,-1],"loss_changes":[1.1689645E3,6.0133936E2,1.3006476E2,4.5672325E1,3.0250464E2,2.9567374E2,5.703437E2,0E0,0E0,0E0,0E0,0E0,0E0,0E0,0E0],"parents":[2147483647,0,0,1,1,2,2,3,3,4,4,5,5,6,6],"right_children":[2,4,6,8,10,12,14,-1,-1,-1,-1,-1,-1,-1,-1],"split_conditions":[1.7826567E3,4.205E0,4.85E1,2.2205E3,8.636716E2,4.75E1,5.05E1,-8.148069E-2,9.463627E-3,-8.681823E-2,-3.8458314E-2,-5.179138E-2,-2.5232218E-3,4.339045E-2,-5.185963E-3],"split_indices":[5,5,4,0,5,2,4,0,0,0,0,0,0,0,0],"split_type":[0,0,0,0,0,0,0,0,0,0,0,0,0,0,0],"sum_hessian":[3.1088004E4,6.7710347E3,2.431697E4,1.5496139E3,5.221421E3,7.510362E3,1.6806607E4,5.6344555E1,1.4932693E3,2.8457412E3,2.3756797E3,1.5286003E3,5.981761E3,2.9256226E3,1.3880985E4],"tree_param":{"num_deleted":"0","num_feature":"9","num_nodes":"15","size_leaf_vector":"0"}},{"base_weights":[-1.0841548E-1,-5.146291E-1,-2.569473E-2,5.5284977E-2,-7.549961E-1,1.2080447E-2,-1.6153187E-1,-2.535499E-1,1.4856797E-1,-9.331788E-1,-5.6250316E-1,-3.1875188E-3,3.2207751E0,-4.105473E-1,1.6947608E-1],"categories":[],"categories_nodes":[],"categories_segments":[],"categories_sizes":[],"default_left":[true,true,true,true,true,true,true,false,false,false,false,false,false,false,false],"id":50,"left_children":[1,3,5,7,9,11,13,-1,-1,-1,-1,-1,-1,-1,-1],"loss_changes":[1.0325488E3,7.1222375E2,1.3100882E2,4.4494347E1,1.2489575E2,9.786815E2,4.579637E2,0E0,0E0,0E0,0E0,0E0,0E0,0E0,0E0],"parents":[2147483647,0,0,1,1,2,2,3,3,4,4,5,5,6,6],"right_children":[2,4,6,8,10,12,14,-1,-1,-1,-1,-1,-1,-1,-1],"split_conditions":[1.22947E3,4.205E0,2.7328E4,1.335E0,6.641858E2,2.7211E4,3.21235E4,-2.535499E-2,1.4856798E-2,-9.331788E-2,-5.6250315E-2,-3.1875187E-4,3.220775E-1,-4.105473E-2,1.6947608E-2],"split_indices":[5,5,0,5,5,0,0,0,0,0,0,0,0,0,0],"split_type":[0,0,0,0,0,0,0,0,0,0,0,0,0,0,0],"sum_hessian":[3.0727914E4,5.1978433E3,2.5530072E4,1.5421501E3,3.6556929E3,1.9975861E4,5.5542095E3,3.5734824E2,1.1848019E3,1.8964143E3,1.7592786E3,1.9882256E4,9.360694E1,3.1695413E3,2.3846685E3],"tree_param":{"num_deleted":"0","num_feature":"9","num_nodes":"15","size_leaf_vector":"0"}},{"base_weights":[-9.9155374E-2,-4.253936E-1,-7.823722E-3,1.06340185E-1,-5.549909E-1,2.1532988E-2,-1.9411612E-1,-1.9331037E-1,2.531491E-1,-7.788259E-1,-3.0732116E-1,-4.9047104E-1,4.22332E-2,-3.741796E-1,2.1230042E-1],"categories":[],"categories_nodes":[],"categories_segments":[],"categories_sizes":[],"default_left":[true,true,true,true,true,true,true,false,false,false,false,false,false,false,false],"id":51,"left_children":[1,3,5,7,9,11,13,-1,-1,-1,-1,-1,-1,-1,-1],"loss_changes":[9.059962E2,4.5836218E2,1.2993094E2,5.7419167E1,2.9621106E2,2.1754651E2,2.3676202E2,0E0,0E0,0E0,0E0,0E0,0E0,0E0,0E0],"parents":[2147483647,0,0,1,1,2,2,3,3,4,4,5,5,6,6],"right_children":[2,4,6,8,10,12,14,-1,-1,-1,-1,-1,-1,-1,-1],"split_conditions":[1.9564008E3,2.8649998E0,7.8096104E3,1.485E0,9.1621484E2,1.763E3,1.515E2,-1.9331036E-2,2.531491E-2,-7.788259E-2,-3.0732116E-2,-4.9047105E-2,4.22332E-3,-3.741796E-2,2.1230042E-2],"split_indices":[5,5,5,5,5,0,2,0,0,0,0,0,0,0,0],"split_type":[0,0,0,0,0,0,0,0,0,0,0,0,0,0,0],"sum_hessian":[3.0405877E4,6.649629E3,2.3756248E4,1.3031249E3,5.346504E3,2.052303E4,3.2332178E3,4.2840134E2,8.747236E2,2.8072593E3,2.5392449E3,7.966171E2,1.9726412E4,2.240597E3,9.9262085E2],"tree_param":{"num_deleted":"0","num_feature":"9","num_nodes":"15","size_leaf_vector":"0"}},{"base_weights":[-9.046331E-2,-4.6721172E-1,-2.0776246E-2,5.3447388E-2,-7.1679115E-1,-1.590045E-2,-1.0495129E0,-2.514141E0,6.4057454E-2,-9.195012E-1,-5.106288E-1,-9.35113E-3,-7.7551955E-1],"categories":[],"categories_nodes":[],"categories_segments":[],"categories_sizes":[],"default_left":[true,true,true,true,true,true,false,false,false,false,false,false,false],"id":52,"left_children":[1,3,5,7,9,11,-1,-1,-1,-1,-1,-1,-1],"loss_changes":[7.9060474E2,6.108574E2,1.27457306E2,4.167964E1,1.3232275E2,1.2583537E2,0E0,0E0,0E0,0E0,0E0,0E0,0E0],"parents":[2147483647,0,0,1,1,2,2,3,3,4,4,5,5],"right_children":[2,4,6,8,10,12,-1,-1,-1,-1,-1,-1,-1],"split_conditions":[1.22947E3,4.205E0,6.95E1,5.645E2,6.641858E2,2.095E2,-1.04951285E-1,-2.5141412E-1,6.4057456E-3,-9.195012E-2,-5.1062882E-2,-9.35113E-4,-7.755195E-2],"split_indices":[5,5,4,0,5,2,0,0,0,0,0,0,0],"split_type":[0,0,0,0,0,0,0,0,0,0,0,0,0],"sum_hessian":[3.0112496E4,4.699568E3,2.5412928E4,1.5230497E3,3.176518E3,2.529406E4,1.188682E2,5.29677E0,1.5177529E3,1.599925E3,1.576593E3,2.5078846E4,2.1521368E2],"tree_param":{"num_deleted":"0","num_feature":"9","num_nodes":"13","size_leaf_vector":"0"}},{"base_weights":[-8.2482606E-2,-3.7807783E-1,-4.3215095E-3,4.8428096E-2,-5.147588E-1,2.32644E0,-6.5860124E-3,5.66825E-2,-3.2247365E0,-8.8834214E-1,-3.2419008E-1,3.5091403E0,-9.749424E-1,6.6245645E-2,-7.839321E-2],"categories":[],"categories_nodes":[],"categories_segments":[],"categories_sizes":[],"default_left":[true,true,true,true,true,false,true,false,false,false,false,false,false,false,false],"id":53,"left_children":[1,3,5,7,9,11,13,-1,-1,-1,-1,-1,-1,-1,-1],"loss_changes":[6.895948E2,3.638908E2,1.2461161E2,4.113519E1,3.3624512E2,9.289825E1,1.2334954E2,0E0,0E0,0E0,0E0,0E0,0E0,0E0,0E0],"parents":[2147483647,0,0,1,1,2,2,3,3,4,4,5,5,6,6],"right_children":[2,4,6,8,10,12,14,-1,-1,-1,-1,-1,-1,-1,-1],"split_conditions":[1.9896027E3,3.895E0,-5E-1,2.095E2,7.108349E2,7.8E1,5.045222E3,5.6682504E-3,-3.2247365E-1,-8.883422E-2,-3.2419007E-2,3.5091403E-1,-9.749424E-2,6.6245645E-3,-7.839321E-3],"split_indices":[5,5,2,2,5,3,5,0,0,0,0,0,0,0,0],"split_type":[0,0,0,0,0,0,0,0,0,0,0,0,0,0,0],"sum_hessian":[2.984643E4,6.2407764E3,2.3605652E4,1.5147435E3,4.7260327E3,2.1916122E1,2.3583736E4,1.5119135E3,2.8301249E0,1.5952019E3,3.1308308E3,1.60893E1,5.8268237E0,1.1708387E4,1.187535E4],"tree_param":{"num_deleted":"0","num_feature":"9","num_nodes":"15","size_leaf_vector":"0"}},{"base_weights":[-7.515949E-2,-4.2575532E-1,-1.6740538E-2,4.3404233E-2,-6.8643165E-1,-5.0788784E-1,-6.542131E-3,-3.013342E0,5.192566E-2,-9.0250343E-1,-4.765897E-1,1.5392174E0,-6.261598E-1,2.1819128E-2,-1.7607261E-1],"categories":[],"categories_nodes":[],"categories_segments":[],"categories_sizes":[],"default_left":[true,true,true,true,true,true,true,false,false,false,false,false,false,false,false],"id":54,"left_children":[1,3,5,7,9,11,13,-1,-1,-1,-1,-1,-1,-1,-1],"loss_changes":[6.061811E2,5.170167E2,1.2707652E2,3.950929E1,1.2278174E2,1.2591446E2,1.1951212E2,0E0,0E0,0E0,0E0,0E0,0E0,0E0,0E0],"parents":[2147483647,0,0,1,1,2,2,3,3,4,4,5,5,6,6],"right_children":[2,4,6,8,10,12,14,-1,-1,-1,-1,-1,-1,-1,-1],"split_conditions":[1.1943538E3,4.205E0,2.35E1,1.5E0,6.641858E2,7.5E0,5.95E1,-3.013342E-1,5.192566E-3,-9.025034E-2,-4.7658972E-2,1.5392174E-1,-6.261598E-2,2.1819128E-3,-1.7607262E-2],"split_indices":[5,5,3,2,5,2,4,0,0,0,0,0,0,0,0],"split_type":[0,0,0,0,0,0,0,0,0,0,0,0,0,0,0],"sum_hessian":[2.959595E4,4.2262456E3,2.5369703E4,1.5097908E3,2.716455E3,5.150795E2,2.4854623E4,3.2169287E0,1.5065739E3,1.3367343E3,1.3797207E3,2.747721E1,4.8760233E2,2.129328E4,3.561345E3],"tree_param":{"num_deleted":"0","num_feature":"9","num_nodes":"15","size_leaf_vector":"0"}},{"base_weights":[-6.843646E-2,-3.9971873E-1,-1.4662135E-2,3.9033435E-2,-6.5370554E-1,-1.072128E0,-1.0194218E-2,-1.6927438E0,5.3951696E-2,-8.9286995E-1,-4.4078687E-1,-1.089852E0,-5.819511E-3],"categories":[],"categories_nodes":[],"categories_segments":[],"categories_sizes":[],"default_left":[true,true,true,true,true,false,true,false,false,false,false,false,false],"id":55,"left_children":[1,3,5,7,9,-1,11,-1,-1,-1,-1,-1,-1],"loss_changes":[5.2338165E2,4.572475E2,1.19419E2,3.897977E1,1.3193872E2,0E0,1.18888504E2,0E0,0E0,0E0,0E0,0E0,0E0],"parents":[2147483647,0,0,1,1,2,2,3,3,4,4,6,6],"right_children":[2,4,6,8,10,-1,12,-1,-1,-1,-1,-1,-1],"split_conditions":[1.2267942E3,4.205E0,3.45E1,3.65E1,6.641858E2,-1.07212804E-1,2.17E2,-1.6927437E-1,5.39517E-3,-8.9287E-2,-4.407869E-2,-1.089852E-1,-5.819511E-4],"split_indices":[5,5,4,4,5,0,0,0,0,0,0,0,0],"split_type":[0,0,0,0,0,0,0,0,0,0,0,0,0],"sum_hessian":[2.9378893E4,4.101953E3,2.527694E4,1.5042562E3,2.5976968E3,1.053433E2,2.5171596E4,1.1887052E1,1.4923693E3,1.2219397E3,1.3757572E3,1.0058082E2,2.5071016E4],"tree_param":{"num_deleted":"0","num_feature":"9","num_nodes":"13","size_leaf_vector":"0"}},{"base_weights":[-6.2261634E-2,-3.178362E-1,-9.0510654E-4,1.1256581E-1,-4.259128E-1,-1.09604746E-1,4.7151167E-2,-1.9136761E-1,2.9677746E-1,-1.4641833E-1,-5.97918E-1,-4.7220623E-1,-1.5425416E-2,3.8710916E-1,-2.7532807E-2],"categories":[],"categories_nodes":[],"categories_segments":[],"categories_sizes":[],"default_left":[true,true,true,true,true,true,true,false,false,false,false,false,false,false,false],"id":56,"left_children":[1,3,5,7,9,11,13,-1,-1,-1,-1,-1,-1,-1,-1],"loss_changes":[4.5762662E2,2.6285358E2,1.2294218E2,6.3588474E1,2.1701733E2,2.4638885E2,4.1437262E2,0E0,0E0,0E0,0E0,0E0,0E0,0E0,0E0],"parents":[2147483647,0,0,1,1,2,2,3,3,4,4,5,5,6,6],"right_children":[2,4,6,8,10,12,14,-1,-1,-1,-1,-1,-1,-1,-1],"split_conditions":[1.9896027E3,2.5349998E0,4.85E1,1.485E0,4.95E1,4.95E1,5.05E1,-1.9136762E-2,2.9677747E-2,-1.46418335E-2,-5.97918E-2,-4.7220625E-2,-1.5425415E-3,3.871092E-2,-2.7532808E-3],"split_indices":[5,5,4,5,4,2,4,0,0,0,0,0,0,0,0],"split_type":[0,0,0,0,0,0,0,0,0,0,0,0,0,0,0],"sum_hessian":[2.9182215E4,5.6487446E3,2.353347E4,1.133736E3,4.515009E3,7.214205E3,1.6319266E4,4.2782407E2,7.0591187E2,1.7207618E3,2.7942468E3,1.4866013E3,5.727604E3,2.9386199E3,1.33806455E4],"tree_param":{"num_deleted":"0","num_feature":"9","num_nodes":"15","size_leaf_vector":"0"}},{"base_weights":[-5.6614503E-2,-3.687596E-1,-1.1694419E-2,3.7720516E-2,-6.5045345E-1,2.3740157E-2,-1.4060415E-1,4.5449197E-2,-2.9443264E0,-8.839887E-1,-4.3192276E-1,1.0168474E-2,2.2682266E0,-3.7888154E-1,1.6216397E-1],"categories":[],"categories_nodes":[],"categories_segments":[],"categories_sizes":[],"default_left":[true,true,true,true,true,true,true,false,false,false,false,false,false,false,false],"id":57,"left_children":[1,3,5,7,9,11,13,-1,-1,-1,-1,-1,-1,-1,-1],"loss_changes":[4.067259E2,4.1786948E2,1.158408E2,3.4582462E1,1.096239E2,6.059265E2,3.945306E2,0E0,0E0,0E0,0E0,0E0,0E0,0E0,0E0],"parents":[2147483647,0,0,1,1,2,2,3,3,4,4,5,5,6,6],"right_children":[2,4,6,8,10,12,14,-1,-1,-1,-1,-1,-1,-1,-1],"split_conditions":[1.1206621E3,4.205E0,2.7328E4,2.095E2,6.459933E2,2.7211E4,3.21235E4,4.54492E-3,-2.9443264E-1,-8.839887E-2,-4.319228E-2,1.0168474E-3,2.2682266E-1,-3.7888154E-2,1.6216397E-2],"split_indices":[5,5,0,2,5,0,0,0,0,0,0,0,0,0,0],"split_type":[0,0,0,0,0,0,0,0,0,0,0,0,0,0,0],"sum_hessian":[2.9006436E4,3.6482068E3,2.5358229E4,1.4936941E3,2.154513E3,1.9891334E4,5.466894E3,1.4908151E3,2.8790405E0,1.040029E3,1.1144838E3,1.977278E4,1.18555084E2,3.0591238E3,2.4077703E3],"tree_param":{"num_deleted":"0","num_feature":"9","num_nodes":"15","size_leaf_vector":"0"}},{"base_weights":[-5.1566765E-2,-3.4107068E-1,-9.825099E-3,3.387699E-2,-6.0125816E-1,-5.435992E-3,-1.0415262E0,-2.2900684E0,4.370859E-2,-8.6573476E-1,-3.7706366E-1,5.827792E-3,-4.0915683E-1],"categories":[],"categories_nodes":[],"categories_segments":[],"categories_sizes":[],"default_left":[true,true,true,true,true,true,false,false,false,false,false,false,false],"id":58,"left_children":[1,3,5,7,9,11,-1,-1,-1,-1,-1,-1,-1],"loss_changes":[3.4854593E2,3.5459937E2,1.141486E2,3.41411E1,1.26901855E2,1.1415904E2,0E0,0E0,0E0,0E0,0E0,0E0,0E0],"parents":[2147483647,0,0,1,1,2,2,3,3,4,4,5,5],"right_children":[2,4,6,8,10,12,-1,-1,-1,-1,-1,-1,-1],"split_conditions":[1.1943538E3,4.205E0,6.95E1,5.645E2,6.641858E2,2.055E2,-1.0415262E-1,-2.2900684E-1,4.370859E-3,-8.6573474E-2,-3.7706368E-2,5.8277923E-4,-4.0915683E-2],"split_indices":[5,5,4,0,5,2,0,0,0,0,0,0,0],"split_type":[0,0,0,0,0,0,0,0,0,0,0,0,0],"sum_hessian":[2.8841969E4,3.6335952E3,2.5208373E4,1.4888834E3,2.144712E3,2.5102586E4,1.0578724E2,5.2952237E0,1.4835883E3,9.826466E2,1.1620652E3,2.4422193E4,6.80392E2],"tree_param":{"num_deleted":"0","num_feature":"9","num_nodes":"13","size_leaf_vector":"0"}},{"base_weights":[-4.6853233E-2,-3.2540774E-1,-9.585142E-3,3.0439168E-2,-6.03133E-1,-4.766865E-1,-2.5969025E-4,-3.8425143E0,3.6345087E-2,-8.619098E-1,-3.8357365E-1,-6.0241103E-1,1.3836036E0,-1.0624487E0,3.7840228E-3],"categories":[],"categories_nodes":[],"categories_segments":[],"categories_sizes":[],"default_left":[true,true,true,true,true,false,true,false,false,false,false,false,false,false,false],"id":59,"left_children":[1,3,5,7,9,11,13,-1,-1,-1,-1,-1,-1,-1,-1],"loss_changes":[2.9787708E2,3.3464685E2,1.1024513E2,3.411094E1,1.07723145E2,1.1669868E2,1.06588394E2,0E0,0E0,0E0,0E0,0E0,0E0,0E0,0E0],"parents":[2147483647,0,0,1,1,2,2,3,3,4,4,5,5,6,6],"right_children":[2,4,6,8,10,12,14,-1,-1,-1,-1,-1,-1,-1,-1],"split_conditions":[1.1206621E3,4.205E0,2.35E1,3.35E1,6.4430054E2,5E-1,3.45E1,-3.8425145E-1,3.6345087E-3,-8.619098E-2,-3.8357366E-2,-6.0241103E-2,1.3836037E-1,-1.0624488E-1,3.7840227E-4],"split_indices":[5,5,3,4,5,1,4,0,0,0,0,0,0,0,0],"split_type":[0,0,0,0,0,0,0,0,0,0,0,0,0,0,0],"sum_hessian":[2.8693209E4,3.3849795E3,2.530823E4,1.4841902E3,1.9007894E3,4.943956E2,2.4813834E4,1.2707087E0,1.4829194E3,8.7113153E2,1.0296578E3,4.6373126E2,3.066432E1,9.31144E1,2.472072E4],"tree_param":{"num_deleted":"0","num_feature":"9","num_nodes":"15","size_leaf_vector":"0"}},{"base_weights":[-4.2565424E-2,-2.4094136E-1,3.719276E-3,9.310748E-2,-3.271885E-1,6.795108E-2,-6.503506E-2,-1.6532697E-1,2.785281E-1,-5.3169735E-2,-5.038288E-1,-5.895635E-1,1.02413036E-1,-4.4223827E-1,-2.1563085E-2],"categories":[],"categories_nodes":[],"categories_segments":[],"categories_sizes":[],"default_left":[true,true,true,true,true,true,true,false,false,false,false,false,false,false,false],"id":60,"left_children":[1,3,5,7,9,11,13,-1,-1,-1,-1,-1,-1,-1,-1],"loss_changes":[2.6221344E2,1.5568301E2,1.0226792E2,5.3208416E1,2.0782263E2,2.713462E2,1.8339865E2,0E0,0E0,0E0,0E0,0E0,0E0,0E0,0E0],"parents":[2147483647,0,0,1,1,2,2,3,3,4,4,5,5,6,6],"right_children":[2,4,6,8,10,12,14,-1,-1,-1,-1,-1,-1,-1,-1],"split_conditions":[2.1057769E3,2.5349998E0,5.181416E3,1.555E0,4.95E1,2.385E3,2.25E1,-1.6532697E-2,2.7852809E-2,-5.3169737E-3,-5.0382882E-2,-5.895635E-2,1.0241304E-2,-4.4223826E-2,-2.1563086E-3],"split_indices":[5,5,5,5,4,0,2,0,0,0,0,0,0,0,0],"split_type":[0,0,0,0,0,0,0,0,0,0,0,0,0,0,0],"sum_hessian":[2.8556951E4,5.401585E3,2.3155365E4,1.1084197E3,4.2931655E3,1.1971417E4,1.1183949E4,4.63088E2,6.4533167E2,1.6832589E3,2.6099062E3,5.9540076E2,1.1376017E4,1.1547854E3,1.0029164E4],"tree_param":{"num_deleted":"0","num_feature":"9","num_nodes":"15","size_leaf_vector":"0"}},{"base_weights":[-3.8641255E-2,-2.935795E-1,-6.6835484E-3,2.9202163E-2,-5.7513964E-1,-2.6740802E-3,-1.0352265E0,-6.9840544E-1,5.8883067E-2,-6.677028E-1,1.3315944E-1,-3.140383E-1,1.0861671E-2],"categories":[],"categories_nodes":[],"categories_segments":[],"categories_sizes":[],"default_left":[true,true,true,true,true,true,false,false,false,false,false,false,false],"id":61,"left_children":[1,3,5,7,9,11,-1,-1,-1,-1,-1,-1,-1],"loss_changes":[2.3165448E2,2.878639E2,1.0419806E2,3.1928936E1,1.1100006E2,1.0608515E2,0E0,0E0,0E0,0E0,0E0,0E0,0E0],"parents":[2147483647,0,0,1,1,2,2,3,3,4,4,5,5],"right_children":[2,4,6,8,10,12,-1,-1,-1,-1,-1,-1,-1],"split_conditions":[1.093082E3,4.205E0,6.95E1,2.2205E3,3.11045E4,4.05E1,-1.0352265E-1,-6.984054E-2,5.888307E-3,-6.677028E-2,1.3315945E-2,-3.1403832E-2,1.0861671E-3],"split_indices":[5,5,4,0,0,4,0,0,0,0,0,0,0],"split_type":[0,0,0,0,0,0,0,0,0,0,0,0,0],"sum_hessian":[2.8432729E4,3.166246E3,2.5266482E4,1.4755576E3,1.6906886E3,2.516937E4,9.7112686E1,5.6949444E1,1.4186082E3,1.4953306E3,1.95358E2,1.0476633E3,2.4121705E4],"tree_param":{"num_deleted":"0","num_feature":"9","num_nodes":"13","size_leaf_vector":"0"}},{"base_weights":[-3.506725E-2,-2.7364907E-1,-6.0595414E-3,2.637159E-2,-5.4999125E-1,-3.7491973E-4,-7.2797924E-1,-2.6368437E0,3.421724E-2,-8.539126E-1,-3.2206622E-1,-1.0819297E0,6.1817816E-3,2.8435812E0,-1.0919205E0],"categories":[],"categories_nodes":[],"categories_segments":[],"categories_sizes":[],"default_left":[true,true,true,true,true,true,true,false,false,false,false,false,false,false,false],"id":62,"left_children":[1,3,5,7,9,11,13,-1,-1,-1,-1,-1,-1,-1,-1],"loss_changes":[1.9600186E2,2.5455246E2,1.0363066E2,3.0866926E1,1.10431946E2,1.7768884E2,2.595494E2,0E0,0E0,0E0,0E0,0E0,0E0,0E0,0E0],"parents":[2147483647,0,0,1,1,2,2,3,3,4,4,5,5,6,6],"right_children":[2,4,6,8,10,12,14,-1,-1,-1,-1,-1,-1,-1,-1],"split_conditions":[1.093082E3,4.205E0,2.095E2,1.5E0,6.05985E2,3.485E2,9.715E2,-2.6368436E-1,3.4217238E-3,-8.539126E-2,-3.220662E-2,-1.0819297E-1,6.1817816E-4,2.843581E-1,-1.0919205E-1],"split_indices":[5,5,2,2,5,0,0,0,0,0,0,0,0,0,0],"split_type":[0,0,0,0,0,0,0,0,0,0,0,0,0,0,0],"sum_hessian":[2.8320295E4,3.069112E3,2.5251182E4,1.4719462E3,1.5971658E3,2.5054893E4,1.9628954E2,3.3392632E0,1.4686069E3,6.832952E2,9.1387054E2,1.4998656E2,2.4904906E4,1.752209E1,1.7876746E2],"tree_param":{"num_deleted":"0","num_feature":"9","num_nodes":"15","size_leaf_vector":"0"}},{"base_weights":[-3.185928E-2,-1.9638272E-1,4.351141E-3,-8.090252E-3,-3.1659067E-1,-9.418372E-2,4.723534E-2,2.860892E-1,-3.4114987E-1,6.8717E-2,-4.852276E-1,-4.345822E-1,-9.310142E-3,2.8729868E-1,-4.0381238E-2],"categories":[],"categories_nodes":[],"categories_segments":[],"categories_sizes":[],"default_left":[true,true,true,false,true,true,true,false,false,false,false,false,false,false,false],"id":63,"left_children":[1,3,5,7,9,11,13,-1,-1,-1,-1,-1,-1,-1,-1],"loss_changes":[1.6811896E2,1.1521907E2,9.7743E1,1.94546E2,2.0191733E2,2.0264699E2,3.3900458E2,0E0,0E0,0E0,0E0,0E0,0E0,0E0,0E0],"parents":[2147483647,0,0,1,1,2,2,3,3,4,4,5,5,6,6],"right_children":[2,4,6,8,10,12,14,-1,-1,-1,-1,-1,-1,-1,-1],"split_conditions":[2.1057769E3,4.95E1,4.85E1,6.05E1,3.6350002E0,4.95E1,5.15E1,2.8608922E-2,-3.4114987E-2,6.8717003E-3,-4.8522763E-2,-4.345822E-2,-9.3101425E-4,2.8729869E-2,-4.038124E-3],"split_indices":[5,4,4,3,5,2,4,0,0,0,0,0,0,0,0],"split_type":[0,0,0,0,0,0,0,0,0,0,0,0,0,0,0],"sum_hessian":[2.821875E4,5.089588E3,2.3129162E4,1.9835865E3,3.1060015E3,7.0133706E3,1.6115791E4,1.0533456E3,9.3024084E2,9.45738E2,2.1602634E3,1.3988696E3,5.614501E3,4.3085054E3,1.1807285E4],"tree_param":{"num_deleted":"0","num_feature":"9","num_nodes":"15","size_leaf_vector":"0"}},{"base_weights":[-2.8963543E-2,-2.4584673E-1,-3.7001162E-3,1.985248E-2,-5.104255E-1,2.9167484E-2,-1.2451024E-1,-4.1547957E-1,6.672355E-2,-8.358876E-1,-2.7900398E-1,1.699702E-2,1.7582707E0,-3.5020632E-1,1.5054749E-1],"categories":[],"categories_nodes":[],"categories_segments":[],"categories_sizes":[],"default_left":[true,true,true,true,true,true,true,false,false,false,false,false,false,false,false],"id":64,"left_children":[1,3,5,7,9,11,13,-1,-1,-1,-1,-1,-1,-1,-1],"loss_changes":[1.5407967E2,2.0625662E2,1.00018845E2,2.991619E1,1.1049115E2,4.1667923E2,3.344902E2,0E0,0E0,0E0,0E0,0E0,0E0,0E0,0E0],"parents":[2147483647,0,0,1,1,2,2,3,3,4,4,5,5,6,6],"right_children":[2,4,6,8,10,12,14,-1,-1,-1,-1,-1,-1,-1,-1],"split_conditions":[1.093082E3,4.205E0,2.7328E4,8.25E-1,6.05985E2,2.7211E4,3.21235E4,-4.1547958E-2,6.672355E-3,-8.3588764E-2,-2.7900398E-2,1.6997021E-3,1.7582707E-1,-3.502063E-2,1.5054749E-2],"split_indices":[5,5,0,5,5,0,0,0,0,0,0,0,0,0,0],"split_type":[0,0,0,0,0,0,0,0,0,0,0,0,0,0,0],"sum_hessian":[2.8119934E4,2.932873E3,2.518706E4,1.4637994E3,1.4690736E3,1.980081E4,5.3862495E3,1.4151968E2,1.3222798E3,6.094106E2,8.59663E2,1.9663418E4,1.3739307E2,2.9584485E3,2.4278008E3],"tree_param":{"num_deleted":"0","num_feature":"9","num_nodes":"15","size_leaf_vector":"0"}},{"base_weights":[-2.634542E-2,-2.283059E-1,-3.446646E-3,1.7944176E-2,-4.8492745E-1,-4.4813567E-1,5.050111E-3,-1.4362664E0,3.1705882E-2,-5.929051E-1,2.7504995E-1,-6.9946125E-2,-1.0734516E0,3.031554E-3,1.9988405E0],"categories":[],"categories_nodes":[],"categories_segments":[],"categories_sizes":[],"default_left":[true,true,true,true,true,true,true,false,false,false,false,false,false,false,false],"id":65,"left_children":[1,3,5,7,9,11,13,-1,-1,-1,-1,-1,-1,-1,-1],"loss_changes":[1.2962624E2,1.8038754E2,9.512836E1,2.921572E1,1.1486774E2,1.11556305E2,9.942182E1,0E0,0E0,0E0,0E0,0E0,0E0,0E0,0E0],"parents":[2147483647,0,0,1,1,2,2,3,3,4,4,5,5,6,6],"right_children":[2,4,6,8,10,12,14,-1,-1,-1,-1,-1,-1,-1,-1],"split_conditions":[1.093082E3,4.205E0,2.35E1,3.65E1,3.11045E4,1.105E2,3.53495E4,-1.4362665E-1,3.1705883E-3,-5.929051E-2,2.7504995E-2,-6.9946125E-3,-1.07345164E-1,3.031554E-4,1.9988404E-1],"split_indices":[5,5,3,4,0,2,0,0,0,0,0,0,0,0,0],"split_type":[0,0,0,0,0,0,0,0,0,0,0,0,0,0,0],"sum_hessian":[2.8028602E4,2.8534082E3,2.5175193E4,1.4566038E3,1.3968044E3,4.7103833E2,2.4704154E4,1.2686105E1,1.4439176E3,1.2232279E3,1.735765E2,2.942117E2,1.7682663E2,2.468017E4,2.398523E1],"tree_param":{"num_deleted":"0","num_feature":"9","num_nodes":"15","size_leaf_vector":"0"}},{"base_weights":[-2.3892459E-2,-1.8533388E-2,-7.6582396E-1,-1.0962476E0,-1.2606347E-2,2.1209571E0,-1.1176314E0,-1.886694E0,-1.0691686E0,8.904971E0,-1.5602129E-2,-8.818144E-1,2.7903204E0,-2.8089788E0,-1.076076E0],"categories":[],"categories_nodes":[],"categories_segments":[],"categories_sizes":[],"default_left":[true,true,true,true,true,true,true,false,false,false,false,false,false,false,false],"id":66,"left_children":[1,3,5,7,9,11,13,-1,-1,-1,-1,-1,-1,-1,-1],"loss_changes":[1.1112698E2,1.7726361E2,2.0592786E2,1.2317047E0,7.375388E2,4.6916603E1,9.580368E0,0E0,0E0,0E0,0E0,0E0,0E0,0E0,0E0],"parents":[2147483647,0,0,1,1,2,2,3,3,4,4,5,5,6,6],"right_children":[2,4,6,8,10,12,14,-1,-1,-1,-1,-1,-1,-1,-1],"split_conditions":[2.095E2,3.485E2,9.715E2,3.0900002E0,3.51E2,1.88E2,2.855E0,-1.886694E-1,-1.0691686E-1,8.9049715E-1,-1.5602129E-3,-8.818144E-2,2.7903205E-1,-2.808979E-1,-1.076076E-1],"split_indices":[2,0,0,5,0,0,5,0,0,0,0,0,0,0,0],"split_type":[0,0,0,0,0,0,0,0,0,0,0,0,0,0,0],"sum_hessian":[2.7951564E4,2.7752133E4,1.9943242E2,1.5078578E2,2.7601346E4,2.1118048E1,1.7831438E2,2.7198048E0,1.4806598E2,8.2713995E0,2.7593074E4,3.7915797E0,1.7326468E1,2.6790354E0,1.7563533E2],"tree_param":{"num_deleted":"0","num_feature":"9","num_nodes":"15","size_leaf_vector":"0"}},{"base_weights":[-2.1709021E-2,-2.163905E-1,-1.4212639E-3,1.8516783E-2,-5.0682896E-1,-1.0502747E0,2.2011246E-3,-2.4231806E0,2.5812412E-2,-8.1194293E-1,-2.5351036E-1,5.8849286E-3,-1.0290668E0],"categories":[],"categories_nodes":[],"categories_segments":[],"categories_sizes":[],"default_left":[true,true,true,true,true,false,true,false,false,false,false,false,false],"id":67,"left_children":[1,3,5,7,9,-1,11,-1,-1,-1,-1,-1,-1],"loss_changes":[1.1020921E2,1.7967612E2,9.601661E1,2.601439E1,9.0808655E1,0E0,9.568446E1,0E0,0E0,0E0,0E0,0E0,0E0],"parents":[2147483647,0,0,1,1,2,2,3,3,4,4,6,6],"right_children":[2,4,6,8,10,-1,12,-1,-1,-1,-1,-1,-1],"split_conditions":[9.9209436E2,4.205E0,3.45E1,1.5E0,6.05985E2,-1.05027474E-1,6.95E1,-2.4231806E-1,2.5812413E-3,-8.11943E-2,-2.5351036E-2,5.884929E-4,-1.0290668E-1],"split_indices":[5,5,4,2,5,0,4,0,0,0,0,0,0],"split_type":[0,0,0,0,0,0,0,0,0,0,0,0,0],"sum_hessian":[2.7902613E4,2.6324014E3,2.527021E4,1.455846E3,1.1765553E3,8.598E1,2.518423E4,3.3505309E0,1.4524955E3,5.3271375E2,6.4384155E2,2.5095582E4,8.864992E1],"tree_param":{"num_deleted":"0","num_feature":"9","num_nodes":"13","size_leaf_vector":"0"}},{"base_weights":[-1.9701576E-2,-2.6560846E-1,-4.293686E-3,-4.9990766E-2,-8.6775374E-1,5.61416E0,-7.0253313E-3,-3.0528218E-1,1.8873599E0,1.8163645E0,-1.0665526E0,5.965212E-1,-1.9366158E-2],"categories":[],"categories_nodes":[],"categories_segments":[],"categories_sizes":[],"default_left":[true,true,true,true,true,false,true,false,false,false,false,false,false],"id":68,"left_children":[1,3,5,7,9,-1,11,-1,-1,-1,-1,-1,-1],"loss_changes":[1.05478745E2,2.1307278E2,4.0212686E2,5.988914E2,2.3284671E2,0E0,1.9505879E2,0E0,0E0,0E0,0E0,0E0,0E0],"parents":[2147483647,0,0,1,1,2,2,3,3,4,4,6,6],"right_children":[2,4,6,8,10,-1,12,-1,-1,-1,-1,-1,-1],"split_conditions":[2.496E3,1.954E3,2.5045E3,1.763E3,1.05E1,5.6141603E-1,3.1375E3,-3.0528218E-2,1.8873599E-1,1.8163645E-1,-1.0665526E-1,5.965212E-2,-1.9366158E-3],"split_indices":[0,0,0,0,2,0,0,0,0,0,0,0,0],"split_type":[0,0,0,0,0,0,0,0,0,0,0,0,0],"sum_hessian":[2.7838137E4,1.6404614E3,2.6197676E4,1.2087222E3,4.317392E2,1.1732639E1,2.6185943E4,1.0687339E3,1.3998834E2,2.9210585E1,4.0252863E2,5.2375165E2,2.5662191E4],"tree_param":{"num_deleted":"0","num_feature":"9","num_nodes":"13","size_leaf_vector":"0"}},{"base_weights":[-1.7959919E-2,-8.306517E-3,-3.8869816E-1,-1.8699586E-2,5.595525E-1,1.1992059E0,-5.660052E-1,-9.201457E-3,-6.827298E-1,2.8126295E0,7.525E-2,2.7081718E0,-6.5957487E-1,-9.171832E-1,4.9598458E-1],"categories":[],"categories_nodes":[],"categories_segments":[],"categories_sizes":[],"default_left":[true,true,false,true,false,true,false,false,false,false,false,false,false,false,false],"id":69,"left_children":[1,3,5,7,9,11,13,-1,-1,-1,-1,-1,-1,-1,-1],"loss_changes":[9.949614E1,1.59933E2,1.9931512E2,1.6783176E2,5.312521E2,2.0145314E2,2.3740044E2,0E0,0E0,0E0,0E0,0E0,0E0,0E0,0E0],"parents":[2147483647,0,0,1,1,2,2,3,3,4,4,5,5,6,6],"right_children":[2,4,6,8,10,12,14,-1,-1,-1,-1,-1,-1,-1,-1],"split_conditions":[2.055E2,2.025E2,2.75E1,1.995E2,3.25E1,1.29775E4,7.75E1,-9.201457E-4,-6.827298E-2,2.8126296E-1,7.5250003E-3,2.708172E-1,-6.595749E-2,-9.171832E-2,4.959846E-2],"split_indices":[2,2,3,2,3,0,3,0,0,0,0,0,0,0,0],"split_type":[0,0,0,0,0,0,0,0,0,0,0,0,0,0,0],"sum_hessian":[2.7800777E4,2.7096258E4,7.0451874E2,2.6610201E4,4.8605817E2,7.018664E1,6.343321E2,2.6235941E4,3.742588E2,8.514378E1,4.0091437E2,3.848632E1,3.1700317E1,4.768004E2,1.5753168E2],"tree_param":{"num_deleted":"0","num_feature":"9","num_nodes":"15","size_leaf_vector":"0"}},{"base_weights":[-1.6376743E-2,-2.3127332E-1,4.3615018E-4,-3.0919796E-1,1.3389063E0,1.3384612E-2,-5.347539E-1,8.67871E-1,-4.2061794E-1,2.4891338E0,-6.763291E-1,-4.296658E-1,3.1986665E-2,-8.891031E-1,4.3109617E-1],"categories":[],"categories_nodes":[],"categories_segments":[],"categories_sizes":[],"default_left":[true,true,true,true,true,true,false,false,false,false,false,false,false,false,false],"id":70,"left_children":[1,3,5,7,9,11,13,-1,-1,-1,-1,-1,-1,-1,-1],"loss_changes":[1.0031816E2,2.4692165E2,1.7846512E2,2.5220215E2,2.2292181E2,2.0724644E2,2.0859073E2,0E0,0E0,0E0,0E0,0E0,0E0,0E0,0E0],"parents":[2147483647,0,0,1,1,2,2,3,3,4,4,5,5,6,6],"right_children":[2,4,6,8,10,12,14,-1,-1,-1,-1,-1,-1,-1,-1],"split_conditions":[2.75E1,2.045E2,2.055E2,1.75E1,1.32945E4,4.05E1,7.75E1,8.67871E-2,-4.2061795E-2,2.4891339E-1,-6.7632906E-2,-4.2966582E-2,3.1986665E-3,-8.891031E-2,4.3109618E-2],"split_indices":[3,2,2,2,0,4,3,0,0,0,0,0,0,0,0],"split_type":[0,0,0,0,0,0,0,0,0,0,0,0,0,0,0],"sum_hessian":[2.7764607E4,2.0136809E3,2.5750926E4,1.9192363E3,9.4444496E1,2.5143574E4,6.073521E2,1.6537576E2,1.7538606E3,5.9976692E1,3.4467804E1,1.0122571E3,2.4131316E4,4.443934E2,1.6295874E2],"tree_param":{"num_deleted":"0","num_feature":"9","num_nodes":"15","size_leaf_vector":"0"}},{"base_weights":[-1.4938782E-2,-1.1341834E-2,-1.012721E0,-1.076499E0,-8.234084E-3,-2.1831189E-1,-1.0638211E0,9.83795E-1,-1.5694082E-2,-9.4519746E-1,6.832895E-1,-1.884401E0,-1.0220673E0],"categories":[],"categories_nodes":[],"categories_segments":[],"categories_sizes":[],"default_left":[true,true,true,false,true,false,true,false,false,false,false,false,false],"id":71,"left_children":[1,3,5,-1,7,9,11,-1,-1,-1,-1,-1,-1],"loss_changes":[9.9522705E1,9.146887E1,3.8112335E0,0E0,2.039399E2,5.415661E0,1.2716675E0,0E0,0E0,0E0,0E0,0E0,0E0],"parents":[2147483647,0,0,1,1,2,2,4,4,5,5,6,6],"right_children":[2,4,6,-1,8,10,12,-1,-1,-1,-1,-1,-1],"split_conditions":[6.95E1,2.17E2,2.4050002E0,-1.076499E-1,4.85E2,7.5E1,3.46E0,9.83795E-2,-1.5694082E-3,-9.451975E-2,6.8328954E-2,-1.884401E-1,-1.0220673E-1],"split_indices":[4,0,5,0,0,3,5,0,0,0,0,0,0],"split_type":[0,0,0,0,0,0,0,0,0,0,0,0,0],"sum_hessian":[2.773236E4,2.7633752E4,9.8606735E1,7.938612E1,2.7554367E4,6.278152E0,9.232858E1,2.0468378E2,2.7349684E4,3.4490876E0,2.8290641E0,2.3336897E0,8.9994896E1],"tree_param":{"num_deleted":"0","num_feature":"9","num_nodes":"13","size_leaf_vector":"0"}},{"base_weights":[-1.3527612E-2,-2.4803312E-1,9.591211E-4,-5.401567E-2,-9.04975E-1,3.5131347E0,-1.4726295E-3,-1.1125289E-1,5.94368E0,-1.0829066E0,1.944491E0,4.867091E-3,-1.1009599E0],"categories":[],"categories_nodes":[],"categories_segments":[],"categories_sizes":[],"default_left":[true,true,true,true,true,false,true,false,false,false,false,false,false],"id":72,"left_children":[1,3,5,7,9,-1,11,-1,-1,-1,-1,-1,-1],"loss_changes":[9.411792E1,2.0539876E2,2.2286243E2,4.2820984E2,1.884032E2,0E0,1.8176938E2,0E0,0E0,0E0,0E0,0E0,0E0],"parents":[2147483647,0,0,1,1,2,2,3,3,4,4,6,6],"right_children":[2,4,6,8,10,-1,12,-1,-1,-1,-1,-1,-1],"split_conditions":[2.496E3,1.635E2,2.5045E3,1.62E2,2.105E2,3.5131347E-1,2.095E2,-1.1125289E-2,5.94368E-1,-1.08290665E-1,1.9444911E-1,4.867091E-4,-1.1009599E-1],"split_indices":[0,2,0,2,2,0,2,0,0,0,0,0,0],"split_type":[0,0,0,0,0,0,0,0,0,0,0,0,0],"sum_hessian":[2.7703334E4,1.6108826E3,2.6092451E4,1.2444392E3,3.6644333E2,1.7054432E1,2.6075396E4,1.2336477E3,1.0791499E1,3.454896E2,2.0953735E1,2.5926896E4,1.4850072E2],"tree_param":{"num_deleted":"0","num_feature":"9","num_nodes":"13","size_leaf_vector":"0"}},{"base_weights":[-1.2331082E-2,-1.3096263E-1,1.5756406E-2,4.741894E-2,-2.500652E-1,4.2458005E-2,-1.512004E-1,3.445867E-1,-3.0436745E-1,1.0225397E-1,-3.7334383E-1,-1.0487825E-3,2.322998E-1,-2.843984E-1,3.5174423E-1],"categories":[],"categories_nodes":[],"categories_segments":[],"categories_sizes":[],"default_left":[true,true,true,false,true,true,true,false,false,false,false,false,false,false,false],"id":73,"left_children":[1,3,5,7,9,11,13,-1,-1,-1,-1,-1,-1,-1,-1],"loss_changes":[9.220642E1,1.12561676E2,9.975595E1,2.2191626E2,1.3801482E2,1.5933247E2,2.0678989E2,0E0,0E0,0E0,0E0,0E0,0E0,0E0,0E0],"parents":[2147483647,0,0,1,1,2,2,3,3,4,4,5,5,6,6],"right_children":[2,4,6,8,10,12,14,-1,-1,-1,-1,-1,-1,-1,-1],"split_conditions":[2.299602E3,4.95E1,7.8096104E3,6.05E1,2.9850001E0,8.15E1,1.745E2,3.445867E-2,-3.0436745E-2,1.0225398E-2,-3.7334383E-2,-1.0487825E-4,2.322998E-2,-2.843984E-2,3.5174426E-2],"split_indices":[5,4,5,3,5,3,2,0,0,0,0,0,0,0,0],"split_type":[0,0,0,0,0,0,0,0,0,0,0,0,0,0,0],"sum_hessian":[2.7670861E4,5.296532E3,2.2374328E4,2.1207935E3,3.175739E3,1.9290002E4,3.0843271E3,1.1496552E3,9.711383E2,8.2322015E2,2.3525188E3,1.5694276E4,3.5957244E3,2.4388623E3,6.454648E2],"tree_param":{"num_deleted":"0","num_feature":"9","num_nodes":"15","size_leaf_vector":"0"}},{"base_weights":[-1.125623E-2,-7.999617E-3,-9.974776E-1,-1.36449905E-2,5.764081E-1,-2.0364046E-1,-1.0539829E0,-2.6883753E-3,-4.4065818E-1,-9.949856E-1,1.9706815E0,-8.3985263E-1,6.5613186E-1,-1.078785E0,-6.185821E-1],"categories":[],"categories_nodes":[],"categories_segments":[],"categories_sizes":[],"default_left":[true,true,true,true,true,false,true,false,false,false,false,false,false,false,false],"id":74,"left_children":[1,3,5,7,9,11,13,-1,-1,-1,-1,-1,-1,-1,-1],"loss_changes":[8.869943E1,9.083426E1,3.8625488E0,1.27572624E2,5.790941E2,4.532902E0,2.4643707E-1,0E0,0E0,0E0,0E0,0E0,0E0,0E0,0E0],"parents":[2147483647,0,0,1,1,2,2,3,3,4,4,5,5,6,6],"right_children":[2,4,6,8,10,12,14,-1,-1,-1,-1,-1,-1,-1,-1],"split_conditions":[6.95E1,6.75E1,2.4050002E0,6.45E1,1.5165E4,7.5E1,3.12425E4,-2.6883752E-4,-4.406582E-2,-9.949856E-2,1.9706815E-1,-8.398526E-2,6.561319E-2,-1.078785E-1,-6.1858214E-2],"split_indices":[4,4,5,4,0,3,0,0,0,0,0,0,0,0,0],"split_type":[0,0,0,0,0,0,0,0,0,0,0,0,0,0,0],"sum_hessian":[2.7618717E4,2.7528822E4,8.989515E1,2.7266406E4,2.6241663E2,6.279461E0,8.361569E1,2.6585268E4,6.811379E2,1.2350672E2,1.389099E2,3.622248E0,2.6572132E0,7.7711266E1,5.9044247E0],"tree_param":{"num_deleted":"0","num_feature":"9","num_nodes":"15","size_leaf_vector":"0"}},{"base_weights":[-1.0264432E-2,-4.836452E-3,-5.9189874E-1,-2.6242546E-4,-8.370485E-1,1.0125843E0,-7.6195556E-1,-1.0827773E0,4.7543645E-3,1.5814291E0,-1.1000993E0,9.6538976E-2,6.2059093E0,-8.311045E-1,5.868971E-1],"categories":[],"categories_nodes":[],"categories_segments":[],"categories_sizes":[],"default_left":[true,true,true,true,true,true,true,false,false,false,false,false,false,false,false],"id":75,"left_children":[1,3,5,7,9,11,13,-1,-1,-1,-1,-1,-1,-1,-1],"loss_changes":[8.7132774E1,1.0409291E2,7.03984E1,1.4770657E2,9.683404E1,1.17780716E2,2.2061234E1,0E0,0E0,0E0,0E0,0E0,0E0,0E0,0E0],"parents":[2147483647,0,0,1,1,2,2,3,3,4,4,5,5,6,6],"right_children":[2,4,6,8,10,12,14,-1,-1,-1,-1,-1,-1,-1,-1],"split_conditions":[1.1185061E4,2.095E2,1.3925E3,3.485E2,9.715E2,1.337E3,3.4184E4,-1.0827773E-1,4.7543645E-4,1.5814291E-1,-1.1000993E-1,9.653898E-3,6.205909E-1,-8.311045E-2,5.868971E-2],"split_indices":[5,2,0,0,0,0,0,0,0,0,0,0,0,0,0],"split_type":[0,0,0,0,0,0,0,0,0,0,0,0,0,0,0],"sum_hessian":[2.7598902E4,2.7344723E4,2.5418056E2,2.7196246E4,1.4847644E2,2.3883715E1,2.3029684E2,1.2446543E2,2.7071781E4,1.4073495E1,1.3440295E2,2.1168427E1,2.7152886E0,2.1943152E2,1.0865318E1],"tree_param":{"num_deleted":"0","num_feature":"9","num_nodes":"15","size_leaf_vector":"0"}},{"base_weights":[-9.317815E-3,1.7969248E0,-1.1035032E-2,2.7109563E0,-9.653353E-1,-1.07610166E-1,2.1350862E-2,5.9621674E-1,2.8000536E0,-2.2198866E-1,3.6129713E-1,-2.58706E-1,6.183534E-2],"categories":[],"categories_nodes":[],"categories_segments":[],"categories_sizes":[],"default_left":[true,false,true,true,false,true,true,false,false,false,false,false,false],"id":76,"left_children":[1,3,5,7,-1,9,11,-1,-1,-1,-1,-1,-1],"loss_changes":[8.554562E1,6.8756226E1,8.6165184E1,2.088623E0,0E0,3.7113513E2,2.3393106E2,0E0,0E0,0E0,0E0,0E0,0E0],"parents":[2147483647,0,0,1,1,2,2,3,3,5,5,6,6],"right_children":[2,4,6,8,-1,10,12,-1,-1,-1,-1,-1,-1],"split_conditions":[-5E-1,7.8E1,5.45E1,4.637884E3,-9.653353E-2,8.15E1,4.82E3,5.9621673E-2,2.8000537E-1,-2.2198867E-2,3.6129713E-2,-2.58706E-2,6.1835344E-3],"split_indices":[2,3,2,5,0,3,0,0,0,0,0,0,0],"split_type":[0,0,0,0,0,0,0,0,0,0,0,0,0],"sum_hessian":[2.7572766E4,2.5195906E1,2.754757E4,1.8945436E1,6.2504697E0,6.917419E3,2.0630152E4,1.0768934E0,1.7868542E1,5.561382E3,1.3560369E3,2.6049143E3,1.8025238E4],"tree_param":{"num_deleted":"0","num_feature":"9","num_nodes":"13","size_leaf_vector":"0"}},{"base_weights":[-8.483464E-3,-1.8786058E-1,8.707779E-3,2.5153713E-2,-5.141521E-1,-1.0403501E0,1.1941551E-2,-4.51753E-1,6.1717674E-2,-7.882392E-1,-2.4107833E-1,7.538522E-1,6.9777975E-3],"categories":[],"categories_nodes":[],"categories_segments":[],"categories_sizes":[],"default_left":[true,true,true,true,true,false,true,false,false,false,false,false,false],"id":77,"left_children":[1,3,5,7,9,-1,11,-1,